<?xml version="1.0"?>
<opencv_storage>
<opencv_ml_svm>
  <format>3</format>
  <svmType>C_SVC</svmType>
  <kernel>
    <type>RBF</type>
    <gamma>1.</gamma></kernel>
  <C>1.</C>
  <term_criteria><epsilon>1.1920928955078125e-007</epsilon>
    <iterations>1000</iterations></term_criteria>
  <var_count>384</var_count>
  <class_count>3</class_count>
  <class_labels type_id="opencv-matrix">
    <rows>3</rows>
    <cols>1</cols>
    <dt>i</dt>
    <data>
      0 1 2</data></class_labels>
  <sv_total>35</sv_total>
  <support_vectors>
    <_>
      1.72460327e+001 1.61587315e+001 1.65000000e+001 1.15992069e+001
      1.56746044e+001 7.94841337e+000 8.50793743e+000 8.90079403e+000
      9.35476227e+001 3.26428604e+001 1.30714293e+001 7.42063522e+000
      8.36111164e+000 6.85317516e+000 9.06349277e+000 2.27380962e+001
      1.33551590e+002 2.95873032e+001 5.20238113e+000 2.72222233e+000
      6.02380991e+000 2.41269851e+000 4.34920645e+000 2.88849220e+001
      3.58611145e+001 9.27381039e+000 3.17857170e+000 4.01587343e+000
      2.19126987e+001 4.91666698e+000 3.75000024e+000 9.34127045e+000
      2.48888912e+001 1.64603176e+001 1.87857151e+001 1.50674610e+001
      1.90555573e+001 9.23809624e+000 9.78174686e+000 1.09325399e+001
      1.13706352e+002 3.46111145e+001 2.04404774e+001 1.59920645e+001
      1.26190481e+001 7.84523869e+000 8.54365158e+000 2.60833340e+001
      1.50615082e+002 4.01428604e+001 9.21428585e+000 5.82539701e+000
      6.96031809e+000 2.38888907e+000 5.87698460e+000 2.51507950e+001
      4.49603195e+001 1.06825399e+001 4.11904764e+000 5.96428585e+000
      2.44444466e+001 6.08730173e+000 4.31349230e+000 9.63095284e+000
      2.33095245e+001 1.30000010e+001 1.17222233e+001 1.57579374e+001
      1.98809528e+001 1.06428576e+001 1.38452387e+001 1.13412704e+001
      1.20642860e+002 3.06944466e+001 1.24642868e+001 1.52341280e+001
      1.40753975e+001 7.04365110e+000 1.16746035e+001 2.84007950e+001
      1.49337311e+002 2.70793667e+001 8.36507988e+000 6.40873051e+000
      6.49603224e+000 1.46825409e+000 3.63888907e+000 3.53293686e+001
      4.63928604e+001 1.26428576e+001 5.04761934e+000 6.38492107e+000
      2.28968258e+001 3.94047642e+000 2.61904788e+000 9.29365158e+000
      1.62579384e+001 8.46031761e+000 8.71031761e+000 1.12341280e+001
      1.76230164e+001 1.16626987e+001 1.48373022e+001 1.15674610e+001
      1.02400803e+002 2.39682560e+001 7.88888931e+000 9.14682579e+000
      1.04801598e+001 5.87698460e+000 1.13809528e+001 3.03730183e+001
      1.38694458e+002 3.11587315e+001 4.46428585e+000 3.16269851e+000
      4.71825409e+000 1.23015881e+000 3.54761934e+000 2.92976208e+001
      3.62341309e+001 1.19603186e+001 4.63888931e+000 6.07142878e+000
      2.02817478e+001 2.73015881e+000 2.48015881e+000 1.03769846e+001
      2.35435543e+001 1.96114979e+001 1.78763065e+001 1.89738674e+001
      1.96707325e+001 1.17160282e+001 1.12874565e+001 1.90383282e+001
      4.89320564e+001 2.51620216e+001 1.56480837e+001 1.60174217e+001
      1.72439022e+001 2.06637630e+001 3.42229958e+001 4.38275261e+001
      2.80923347e+001 2.00574913e+001 1.60139370e+001 2.32020912e+001
      3.61585388e+001 4.19599304e+001 3.14547043e+001 2.56933804e+001
      2.03554001e+001 2.03414631e+001 1.70644608e+001 2.04825783e+001
      2.49895477e+001 2.06080151e+001 1.45749130e+001 1.56898956e+001
      3.97264824e+001 2.37421608e+001 2.29947739e+001 2.16672478e+001
      2.43972130e+001 1.63362370e+001 8.47735214e+000 1.36498260e+001
      1.24116730e+002 3.24512215e+001 1.09895468e+001 9.79442501e+000
      1.55209064e+001 2.32038326e+001 3.16602783e+001 7.38362350e+001
      3.06062717e+001 1.26132402e+001 1.12560978e+001 3.52526131e+001
      9.26567917e+001 8.07979126e+001 4.02804871e+001 3.10365849e+001
      2.57804890e+001 2.32926826e+001 1.81585369e+001 2.26689892e+001
      3.77055740e+001 2.83083630e+001 1.86114979e+001 2.25261326e+001
      4.15452957e+001 1.41794424e+001 8.34669018e+000 1.56184673e+001
      2.75853653e+001 2.80975609e+001 1.94233456e+001 1.65243912e+001
      1.22114983e+002 8.50871124e+001 3.55331001e+001 2.47578392e+001
      1.49947739e+001 1.06585369e+001 9.48083591e+000 2.48675957e+001
      2.97299652e+001 3.52770042e+001 4.59756088e+001 8.01689911e+001
      8.84599304e+001 3.55522652e+001 1.02508717e+001 1.04703836e+001
      2.66202087e+001 2.29111500e+001 1.97229977e+001 2.57125435e+001
      3.52560997e+001 2.80993042e+001 1.87055759e+001 2.13885021e+001
      2.19268303e+001 1.54773521e+001 8.77177715e+000 1.23118467e+001
      2.32264805e+001 2.58937283e+001 1.97421608e+001 1.79512196e+001
      4.16655045e+001 4.65540085e+001 2.90609760e+001 1.67508717e+001
      2.01184673e+001 2.22891979e+001 1.71602783e+001 1.88101044e+001
      2.79442520e+001 3.21184654e+001 3.71149826e+001 3.53745651e+001
      3.07508717e+001 2.21777000e+001 1.38728228e+001 1.46620207e+001
      2.31167259e+001 1.84216022e+001 1.79320564e+001 2.14634151e+001
      2.36393738e+001 1.88588848e+001 1.46794424e+001 1.70331020e+001
      2.26126137e+001 1.64211712e+001 1.58355856e+001 1.77905407e+001
      2.25810814e+001 2.07770271e+001 1.72657661e+001 2.10563068e+001
      4.02229729e+001 2.22995510e+001 1.54977484e+001 1.68423424e+001
      2.56509018e+001 2.76689205e+001 2.64144154e+001 3.33130646e+001
      5.16103630e+001 2.17612610e+001 1.13873873e+001 1.36576576e+001
      2.46824322e+001 3.05112629e+001 3.79504509e+001 4.45225220e+001
      1.80495491e+001 1.31846848e+001 9.60135174e+000 1.61081085e+001
      4.05360374e+001 3.81599121e+001 2.55427933e+001 2.12815323e+001
      3.40945969e+001 2.66418934e+001 2.22770271e+001 1.79211712e+001
      2.05810814e+001 2.54279289e+001 2.37184696e+001 2.72657661e+001
      5.26509018e+001 3.44864883e+001 3.35225220e+001 3.55090103e+001
      3.64527054e+001 3.55630646e+001 2.30247746e+001 2.51261272e+001
      1.09173424e+002 4.36306305e+001 1.55382891e+001 1.45945950e+001
      2.55360374e+001 2.60945950e+001 2.85698204e+001 4.93806305e+001
      2.08018017e+001 1.03085585e+001 9.51576614e+000 2.85878391e+001
      7.27049561e+001 5.68423424e+001 2.94301815e+001 1.90765762e+001
      3.38378372e+001 2.98806305e+001 2.46891899e+001 2.21509018e+001
      2.06261272e+001 2.20067577e+001 2.15698204e+001 2.43288288e+001
      5.41261292e+001 2.30225239e+001 2.42545052e+001 3.29549561e+001
      3.51869392e+001 3.75878372e+001 3.43040543e+001 3.42905426e+001
      1.09445946e+002 4.88491020e+001 2.63693695e+001 2.37387390e+001
      2.56554070e+001 1.55945950e+001 1.85495491e+001 4.47139664e+001
      2.04774780e+001 1.91148663e+001 2.85180187e+001 5.13986511e+001
      7.38964005e+001 3.23423424e+001 1.19279280e+001 1.04189196e+001
      2.28355865e+001 2.04369373e+001 1.77274780e+001 1.79346848e+001
      1.92837849e+001 1.97409916e+001 1.53130636e+001 1.78986492e+001
      3.83445969e+001 2.92837849e+001 2.54481983e+001 2.60157661e+001
      2.26306305e+001 1.83918915e+001 1.79369373e+001 2.63963966e+001
      5.07319832e+001 4.60202713e+001 3.58603630e+001 3.06621628e+001
      2.60653152e+001 1.28333340e+001 1.14234238e+001 2.02860374e+001
      1.87972984e+001 2.39481983e+001 2.78986492e+001 3.46824341e+001
      3.90337830e+001 1.77927933e+001 1.02567568e+001 1.19774780e+001</_>
    <_>
      1.68698635e+001 1.78493156e+001 1.80205479e+001 1.15342464e+001
      1.43082190e+001 8.36643791e+000 1.07260275e+001 8.56849289e+000
      9.75890427e+001 3.64212341e+001 1.27876711e+001 6.37671232e+000
      7.22260284e+000 6.75342464e+000 1.00719175e+001 2.37636986e+001
      132. 3.19041100e+001 4.52054787e+000 2.44863009e+000
      5.04452038e+000 2.49315071e+000 4.84589052e+000 2.87534237e+001
      3.35958900e+001 9.38698578e+000 3.36643839e+000 3.48630142e+000
      1.80171223e+001 4.91780806e+000 3.77739716e+000 9.36301327e+000
      2.45136986e+001 1.85513706e+001 2.14315071e+001 1.46198626e+001
      1.69589043e+001 9.88356113e+000 1.13356161e+001 1.12157536e+001
      1.16722603e+002 3.82294502e+001 1.97191772e+001 1.18732872e+001
      1.06712332e+001 8.48972607e+000 9.38013649e+000 2.63972607e+001
      1.49585617e+002 4.06472588e+001 7.40068483e+000 5.02054787e+000
      6.01027393e+000 2.33219171e+000 5.55821896e+000 2.49589043e+001
      4.33150673e+001 1.04212332e+001 4.28767109e+000 5.33219194e+000
      2.01198635e+001 5.77739716e+000 4.37328768e+000 1.05342464e+001
      2.39726028e+001 1.33732872e+001 1.33458900e+001 1.30924654e+001
      1.59965754e+001 1.05616436e+001 1.66027393e+001 1.46643839e+001
      1.20760277e+002 2.98458900e+001 1.29041100e+001 1.13424654e+001
      1.02328768e+001 7.72945213e+000 1.43561640e+001 3.49828758e+001
      1.47767120e+002 2.63869858e+001 7.89726019e+000 5.72260284e+000
      4.94863033e+000 1.91780818e+000 4.57191801e+000 3.84726028e+001
      4.50993156e+001 1.16780825e+001 4.68835592e+000 5.64726019e+000
      1.88869858e+001 3.76027393e+000 3.10958910e+000 1.05239725e+001
      1.73184929e+001 7.78082180e+000 9.31506824e+000 8.14383602e+000
      1.38047943e+001 1.15308218e+001 1.87500000e+001 1.52671232e+001
      1.01904106e+002 2.34897251e+001 8.80479431e+000 6.47602749e+000
      7.81164360e+000 5.97260284e+000 1.33527393e+001 3.62054787e+001
      1.33934937e+002 2.99006844e+001 4.72602749e+000 3.32534242e+000
      4.13013697e+000 1.38013697e+000 4.37671232e+000 3.19589043e+001
      3.50993156e+001 1.11506853e+001 4.68493128e+000 5.69178057e+000
      1.64280815e+001 2.37671232e+000 2.26712322e+000 1.06986303e+001
      2.35008125e+001 1.94097557e+001 1.82048779e+001 1.89203243e+001
      2.02536583e+001 1.17252026e+001 1.09203253e+001 1.86504059e+001
      5.00357704e+001 2.55349579e+001 1.62861786e+001 1.57902431e+001
      1.71268291e+001 1.99447155e+001 3.24146347e+001 4.33284531e+001
      2.85008125e+001 2.04065037e+001 1.64569111e+001 2.27691059e+001
      3.63073158e+001 4.05609741e+001 3.04617882e+001 2.61804867e+001
      2.06845531e+001 2.08813000e+001 1.78308945e+001 2.03073158e+001
      2.48504066e+001 2.02910557e+001 1.47284546e+001 1.59479675e+001
      3.92504044e+001 2.33447151e+001 2.29853649e+001 2.15398369e+001
      2.51219501e+001 1.64731712e+001 8.27479649e+000 1.32845526e+001
      1.23588615e+002 3.20195122e+001 1.08276424e+001 9.66178799e+000
      1.54878044e+001 2.23544712e+001 3.04504051e+001 7.20634155e+001
      3.10325203e+001 1.25219507e+001 1.15886173e+001 3.46243896e+001
      9.06699142e+001 7.77284546e+001 3.92455292e+001 3.09398365e+001
      2.60276413e+001 2.35235767e+001 1.85544720e+001 2.23658524e+001
      3.68308945e+001 2.81235771e+001 1.87398376e+001 2.28439026e+001
      4.08682899e+001 1.42195120e+001 8.62926769e+000 1.55837393e+001
      2.80796738e+001 2.81853657e+001 1.96048775e+001 1.63886166e+001
      1.21793495e+002 8.25642242e+001 3.41756096e+001 2.37268295e+001
      1.49268293e+001 1.05658531e+001 9.65690994e+000 2.52796745e+001
      3.05772343e+001 3.44926834e+001 4.47479668e+001 7.71691055e+001
      8.63577194e+001 3.51170731e+001 1.04455280e+001 1.07804880e+001
      2.72845516e+001 2.26552849e+001 1.94829273e+001 2.48617878e+001
      3.47723579e+001 2.77414627e+001 1.87138214e+001 2.19772358e+001
      2.18406506e+001 1.52975607e+001 8.76260185e+000 1.22113819e+001
      2.31739826e+001 2.61365852e+001 2.05154476e+001 1.80081291e+001
      4.30569115e+001 4.60991859e+001 2.79902439e+001 1.63593483e+001
      1.95707321e+001 2.21707306e+001 1.82243900e+001 1.93772354e+001
      2.81788616e+001 3.24601631e+001 3.60699196e+001 3.42861786e+001
      3.04796734e+001 2.24536572e+001 1.49544716e+001 15.
      2.35886173e+001 1.86845531e+001 1.78357716e+001 2.10065041e+001
      2.35398369e+001 1.89756088e+001 1.52276421e+001 1.76195126e+001
      2.26722336e+001 1.66764088e+001 1.62150326e+001 1.80146141e+001
      2.14237995e+001 1.99039669e+001 1.69874744e+001 2.14321499e+001
      3.87223396e+001 2.22400837e+001 1.62651367e+001 1.77703552e+001
      2.57787056e+001 2.66555328e+001 2.65511494e+001 3.27390404e+001
      5.13068924e+001 2.26179543e+001 1.27181635e+001 1.37139874e+001
      2.41294365e+001 2.92901878e+001 3.72066803e+001 4.38121109e+001
      1.87828808e+001 1.40981216e+001 1.02359085e+001 1.56137791e+001
      3.94008369e+001 3.65678520e+001 2.43924847e+001 2.14551144e+001
      3.34112740e+001 2.62713985e+001 2.21565762e+001 1.80939465e+001
      2.01148224e+001 2.39707737e+001 2.35240097e+001 2.79686852e+001
      5.09123192e+001 3.45052185e+001 3.47014618e+001 3.84947815e+001
      3.79290199e+001 3.42066803e+001 2.23611698e+001 2.42004185e+001
      1.10141968e+002 4.56764107e+001 1.67661800e+001 1.54446764e+001
      2.50668068e+001 2.51169109e+001 2.70354919e+001 4.76075172e+001
      2.20459290e+001 1.04112740e+001 9.54488564e+000 2.81837158e+001
      6.98684769e+001 5.45887260e+001 2.80960331e+001 1.91858044e+001
      3.31628418e+001 2.87578297e+001 2.40208778e+001 2.28121090e+001
      2.12546978e+001 2.24133625e+001 2.13674335e+001 2.41273499e+001
      5.28204613e+001 2.22275581e+001 2.36764088e+001 3.43340302e+001
      3.79749489e+001 3.83152428e+001 3.36325684e+001 3.35198326e+001
      1.10402924e+002 4.78747406e+001 2.55866394e+001 2.34467640e+001
      2.50814209e+001 1.55240088e+001 1.83778706e+001 4.54926949e+001
      2.22442589e+001 1.87828808e+001 2.78768272e+001 4.98684769e+001
      7.06283951e+001 3.12212944e+001 1.18747396e+001 1.13152399e+001
      2.23194160e+001 2.02651367e+001 1.83569946e+001 1.92338200e+001
      2.00187893e+001 2.04906063e+001 1.56304808e+001 1.74906063e+001
      3.72171211e+001 2.83653450e+001 2.51607513e+001 2.68037586e+001
      2.34780807e+001 1.87995834e+001 1.87181625e+001 2.66158676e+001
      5.19832993e+001 4.49227562e+001 3.44780807e+001 2.98141975e+001
      2.51252613e+001 1.30584555e+001 1.20480165e+001 2.22588730e+001
      1.97515659e+001 2.35615864e+001 2.73611698e+001 3.34885178e+001
      3.79394569e+001 1.72505226e+001 1.04258871e+001 1.30271406e+001</_>
    <_>
      1.81069527e+001 2.07700539e+001 1.84064178e+001 1.02245989e+001
      1.39572191e+001 8.45454597e+000 1.08155079e+001 9.23262024e+000
      9.63850250e+001 4.01123009e+001 1.34090910e+001 6.49732637e+000
      8.16042805e+000 6.80481291e+000 1.04625673e+001 2.30347595e+001
      1.27189842e+002 3.49010696e+001 5.19518709e+000 2.55080223e+000
      4.21390390e+000 2.41978621e+000 5.29144382e+000 2.86604290e+001
      3.54973259e+001 1.09224606e+001 3.57219267e+000 2.74331546e+000
      1.29759359e+001 4.26470613e+000 4.08288765e+000 1.00187168e+001
      2.55614986e+001 2.05989304e+001 2.14064178e+001 1.28823528e+001
      1.75935841e+001 1.01871662e+001 1.17299471e+001 1.27834225e+001
      1.15631020e+002 3.94491997e+001 1.97754021e+001 1.10989304e+001
      1.23877010e+001 8.75133705e+000 1.03743315e+001 2.79331551e+001
      1.47513367e+002 4.06229973e+001 7.52941179e+000 4.60695219e+000
      5.40909100e+000 2.17379689e+000 5.98663092e+000 2.65133686e+001
      4.59411774e+001 1.13877010e+001 3.90909100e+000 4.18449211e+000
      1.46310167e+001 4.85561514e+000 4.23529434e+000 1.14037437e+001
      2.57272739e+001 1.43957224e+001 1.28475943e+001 1.17192516e+001
      1.66336899e+001 1.07459898e+001 1.77433167e+001 1.79866314e+001
      1.18414444e+002 2.94705887e+001 1.17272730e+001 1.05401068e+001
      1.22941179e+001 8.87700558e+000 1.60882359e+001 3.75721931e+001
      1.46131012e+002 2.62834225e+001 7.19251347e+000 5.22994661e+000
      4.78342247e+000 2.08288765e+000 5.41443872e+000 4.05561523e+001
      4.65561523e+001 1.18101606e+001 4.24331570e+000 4.72994661e+000
      1.37540112e+001 3.09625673e+000 3.23796797e+000 1.22914438e+001
      1.91951866e+001 9.38770103e+000 9.32352924e+000 7.82085562e+000
      1.31871662e+001 1.08342247e+001 1.91336899e+001 1.89839573e+001
      1.00935829e+002 2.29919796e+001 8.57219315e+000 6.54812860e+000
      8.78342247e+000 6.47860956e+000 1.41096258e+001 4.18021393e+001
      1.28002670e+002 2.82914448e+001 4.37967920e+000 2.85026741e+000
      3.65508032e+000 1.68716586e+000 5.25401068e+000 3.52139053e+001
      3.58475952e+001 1.15240641e+001 3.97593594e+000 4.45187187e+000
      1.20668449e+001 2.00267386e+000 2.70855618e+000 1.16550808e+001
      2.37918625e+001 1.92456970e+001 1.84882622e+001 1.93082943e+001
      2.02707348e+001 1.16791859e+001 1.09780903e+001 1.89968700e+001
      5.10046959e+001 2.54726124e+001 1.65868549e+001 1.57683878e+001
      1.68779335e+001 1.94898281e+001 3.16510162e+001 4.34663544e+001
      2.86823158e+001 1.99718304e+001 1.66338024e+001 2.29389668e+001
      3.64913940e+001 4.02300453e+001 3.00469475e+001 2.62895145e+001
      2.07026596e+001 2.05978088e+001 1.78841934e+001 2.03599377e+001
      2.51924877e+001 2.03427219e+001 1.47824726e+001 1.60391235e+001
      3.93223801e+001 2.29186230e+001 2.24507046e+001 2.13740215e+001
      2.58262901e+001 1.67386532e+001 8.72769928e+000 1.37214394e+001
      1.23505478e+002 3.17386532e+001 1.07073555e+001 9.59311390e+000
      1.55805941e+001 2.19405327e+001 2.97777767e+001 7.14334869e+001
      3.14553986e+001 1.23896713e+001 1.15618153e+001 3.47793427e+001
      8.99405289e+001 7.65586853e+001 3.85555534e+001 3.08982792e+001
      2.64835682e+001 2.31220646e+001 1.82441311e+001 2.24945221e+001
      3.72832565e+001 2.81111107e+001 1.86525822e+001 2.27558689e+001
      4.10140839e+001 1.40500784e+001 8.51643181e+000 1.56463223e+001
      2.86572762e+001 2.86056328e+001 1.95539913e+001 1.62723007e+001
      1.21230049e+002 8.16212845e+001 3.39217529e+001 2.35665092e+001
      1.51862288e+001 1.10281687e+001 9.60563374e+000 2.49561806e+001
      3.09874802e+001 3.45978088e+001 4.45148659e+001 7.65837250e+001
      8.51064148e+001 3.48450699e+001 1.05179968e+001 1.08732395e+001
      2.75618153e+001 2.28450699e+001 1.92942104e+001 2.49436626e+001
      3.50876350e+001 2.77543030e+001 1.87824726e+001 2.15758991e+001
      2.20860710e+001 1.53302031e+001 8.87323952e+000 1.21940527e+001
      2.36525822e+001 2.61721439e+001 2.02707348e+001 1.79687004e+001
      4.34006271e+001 4.53896713e+001 2.76306725e+001 1.63834114e+001
      1.98200302e+001 2.26572762e+001 1.84084511e+001 1.91690140e+001
      2.87715168e+001 3.24929581e+001 3.57167435e+001 3.41940536e+001
      3.02394371e+001 2.23990612e+001 1.52300472e+001 1.51596241e+001
      2.35586853e+001 1.87417831e+001 1.77480431e+001 2.11095467e+001
      2.40485134e+001 1.92456970e+001 1.53505478e+001 1.74553986e+001
      2.27227726e+001 1.64455452e+001 1.59742575e+001 1.78752480e+001
      2.14673271e+001 1.95544567e+001 1.68138618e+001 2.12554455e+001
      3.89326744e+001 2.18772278e+001 1.57386141e+001 1.79544563e+001
      2.67782192e+001 2.61801987e+001 2.58673267e+001 3.21524773e+001
      5.25722771e+001 2.20831699e+001 1.24514856e+001 1.34356441e+001
      2.41148529e+001 2.86099014e+001 3.62059402e+001 4.41782188e+001
      1.88138618e+001 1.38396044e+001 1.00594063e+001 1.54356441e+001
      3.99108925e+001 3.60415840e+001 2.39009914e+001 2.11584167e+001
      3.28990097e+001 2.60811882e+001 2.22118816e+001 1.87089119e+001
      2.06257439e+001 2.35683174e+001 2.33366337e+001 2.76871300e+001
      5.11762390e+001 3.44099007e+001 3.43425751e+001 3.93287125e+001
      3.89861412e+001 3.35346527e+001 2.18673267e+001 2.38930702e+001
      1.10635651e+002 4.52455444e+001 1.68653469e+001 1.54633665e+001
      2.50237637e+001 2.44019814e+001 2.60257435e+001 4.71861420e+001
      2.20514851e+001 1.03821783e+001 9.58811951e+000 2.79782181e+001
      6.94594116e+001 5.36059418e+001 2.72891102e+001 1.89702969e+001
      3.23584175e+001 2.85683174e+001 2.42811890e+001 2.32930698e+001
      2.17584171e+001 2.21148529e+001 2.12673283e+001 2.36217823e+001
      5.31663399e+001 2.25900993e+001 2.34336643e+001 3.41643562e+001
      3.82970314e+001 3.79643593e+001 3.30019798e+001 3.35168343e+001
      1.10897034e+002 4.78495064e+001 2.49247532e+001 2.30495052e+001
      2.50138626e+001 1.55207930e+001 1.79069309e+001 4.48910904e+001
      2.24633675e+001 1.89247532e+001 2.75108929e+001 4.94000015e+001
      7.04178238e+001 3.13247528e+001 1.17405949e+001 1.11485147e+001
      2.21326733e+001 1.98891087e+001 1.84613876e+001 1.91663380e+001
      2.02475262e+001 2.05267334e+001 1.56316833e+001 1.72158413e+001
      3.72099037e+001 2.89029713e+001 2.51366348e+001 2.66297035e+001
      2.40138626e+001 1.88158417e+001 1.82970295e+001 2.59386139e+001
      5.30633698e+001 4.58198051e+001 3.43148537e+001 2.93009911e+001
      2.50138626e+001 1.29920797e+001 1.18356438e+001 2.19940605e+001
      2.00495052e+001 2.40633678e+001 2.72653465e+001 3.30217819e+001
      3.78990097e+001 1.73999996e+001 1.06099014e+001 1.31366339e+001</_>
    <_>
      2.25836105e+001 1.63898125e+001 1.77718716e+001 1.98815060e+001
      2.50996685e+001 1.89944630e+001 1.61539307e+001 1.91284618e+001
      3.52115173e+001 2.26843853e+001 1.97253609e+001 2.07009964e+001
      2.74772987e+001 2.39235878e+001 2.33399773e+001 2.75548172e+001
      5.16954613e+001 2.34385376e+001 1.48892584e+001 1.39047623e+001
      2.12724247e+001 2.43355484e+001 3.32070885e+001 4.43311195e+001
      2.06312294e+001 1.36677742e+001 1.10276852e+001 1.46124029e+001
      3.78482857e+001 3.25614624e+001 2.66522713e+001 2.49091911e+001
      3.13111858e+001 2.33532677e+001 2.11705437e+001 2.15370979e+001
      2.61605759e+001 2.42081947e+001 2.22912521e+001 2.48449612e+001
      4.81506081e+001 3.17497234e+001 3.29413071e+001 3.89025459e+001
      4.20609093e+001 3.17419720e+001 1.96389809e+001 2.03277969e+001
      1.12549278e+002 4.41196022e+001 1.63067551e+001 1.31207085e+001
      2.08604660e+001 1.94673309e+001 2.31018829e+001 4.91495018e+001
      2.62547073e+001 1.11118498e+001 9.68106365e+000 2.50476189e+001
      6.18305664e+001 4.71184959e+001 2.84950161e+001 2.33975639e+001
      3.15681076e+001 2.53178291e+001 2.24894791e+001 2.38648949e+001
      2.68925800e+001 2.30874863e+001 2.11362133e+001 2.19579182e+001
      4.92048721e+001 1.91904755e+001 1.91771870e+001 3.10265789e+001
      4.27574768e+001 3.90022163e+001 3.32624588e+001 3.11240311e+001
      1.13662239e+002 4.79058685e+001 2.07940197e+001 1.82026577e+001
      2.08062019e+001 1.32292356e+001 1.76101875e+001 4.54728699e+001
      2.59811745e+001 2.25304546e+001 2.76644516e+001 4.39800682e+001
      6.34684410e+001 2.77552605e+001 1.12403107e+001 1.19479513e+001
      2.32868214e+001 1.87364349e+001 1.79125137e+001 1.86600227e+001
      2.32668877e+001 2.05182724e+001 1.76710968e+001 1.68460693e+001
      3.55836105e+001 2.56323376e+001 2.21317825e+001 2.38759689e+001
      2.61982288e+001 2.01561470e+001 2.13732014e+001 2.52668877e+001
      5.48992271e+001 4.40487251e+001 2.91362133e+001 2.50764122e+001
      2.19623470e+001 1.26478405e+001 1.51317835e+001 2.43732014e+001
      2.10719833e+001 2.56943531e+001 2.67607975e+001 2.99158363e+001
      3.79822807e+001 1.66843853e+001 1.22281284e+001 1.40299006e+001
      2.58020306e+001 1.64530449e+001 1.43553295e+001 1.27728424e+001
      2.58286800e+001 1.07779188e+001 9.76395893e+000 1.10279188e+001
      8.62296906e+001 3.31865463e+001 1.13984766e+001 8.90482235e+000
      1.72474613e+001 9.45431423e+000 9.39593887e+000 2.24010143e+001
      1.22133247e+002 3.19961929e+001 4.89213181e+000 3.01142120e+000
      6.28426361e+000 3.33629441e+000 5.36548233e+000 3.08705578e+001
      5.10989838e+001 1.24327412e+001 2.68908620e+000 2.93654823e+000
      1.45837564e+001 4.72588825e+000 5.11675119e+000 1.54365482e+001
      3.35786781e+001 1.77664967e+001 1.59746189e+001 1.54137049e+001
      3.00152283e+001 1.35697966e+001 1.18159895e+001 1.51675119e+001
      1.01953041e+002 3.27677650e+001 1.63286800e+001 1.61332493e+001
      2.64428921e+001 1.30126905e+001 1.04467001e+001 2.56218262e+001
      1.39866745e+002 3.78477135e+001 6.73096418e+000 5.13197947e+000
      9.13071060e+000 3.93654823e+000 5.81218243e+000 2.79670048e+001
      6.36662407e+001 1.36408625e+001 3.30203032e+000 4.16370535e+000
      1.69365482e+001 4.97842646e+000 4.19162416e+000 1.62500000e+001
      3.28756332e+001 1.58680201e+001 1.21167507e+001 1.47423859e+001
      3.00025368e+001 1.43197966e+001 1.43832483e+001 1.68781719e+001
      1.03715736e+002 2.55507603e+001 1.08223352e+001 1.43286800e+001
      2.65317249e+001 1.40253801e+001 1.45875635e+001 3.26294403e+001
      1.39917511e+002 2.63261414e+001 5.52030468e+000 5.26269007e+000
      9.07360363e+000 4.19796944e+000 5.74492359e+000 3.88705559e+001
      6.35190353e+001 1.45685272e+001 4.44543123e+000 4.89086294e+000
      1.64949226e+001 4.20685291e+000 3.42385769e+000 1.58223343e+001
      2.50101509e+001 1.18997459e+001 9.95812130e+000 1.06700506e+001
      2.57500000e+001 1.29314718e+001 1.42855330e+001 1.60291882e+001
      8.99746170e+001 2.29060917e+001 8.20050716e+000 8.88832474e+000
      1.73362942e+001 8.53426361e+000 1.18489847e+001 3.55101509e+001
      1.23142128e+002 2.84543133e+001 4.32487297e+000 3.00126886e+000
      6.33248711e+000 2.98730969e+000 5.16751242e+000 3.47436523e+001
      5.09758873e+001 1.38565989e+001 5.54695415e+000 4.70304537e+000
      1.44251270e+001 2.93274117e+000 3.24746180e+000 1.53946695e+001
      2.72264957e+001 2.13948727e+001 2.05726490e+001 2.20239315e+001
      2.55495720e+001 1.15940170e+001 9.38803387e+000 1.57880344e+001
      6.06034203e+001 3.03760681e+001 1.96606846e+001 1.60247860e+001
      1.66965809e+001 1.49384613e+001 2.25085468e+001 3.87376060e+001
      3.19452991e+001 2.08418808e+001 1.92769241e+001 2.19025650e+001
      3.45059814e+001 3.15666676e+001 2.53829060e+001 2.62478638e+001
      2.15982914e+001 1.99649582e+001 1.91615391e+001 2.05153847e+001
      2.64982910e+001 1.89102573e+001 1.50683765e+001 1.56222219e+001
      4.01726494e+001 2.28700848e+001 2.21316242e+001 2.45427361e+001
      3.28512840e+001 1.72700863e+001 8.64188004e+000 1.34487181e+001
      1.22399147e+002 3.38282051e+001 1.16136751e+001 9.65213680e+000
      1.46846151e+001 1.64085464e+001 2.46461544e+001 6.50418777e+001
      3.57803421e+001 1.33991451e+001 1.38803415e+001 3.29931641e+001
      7.41316223e+001 6.10410271e+001 3.73222237e+001 3.16136761e+001
      2.74487190e+001 2.22829056e+001 1.92641029e+001 2.39094028e+001
      3.63965797e+001 2.54307690e+001 1.91974354e+001 2.15307693e+001
      4.19641037e+001 1.38547010e+001 8.65555573e+000 1.68299141e+001
      3.43034172e+001 2.76076927e+001 2.00264950e+001 1.88606834e+001
      1.21682053e+002 7.17504272e+001 2.74376068e+001 1.72333336e+001
      1.43000002e+001 1.03059826e+001 1.06940174e+001 2.96196575e+001
      3.40803413e+001 3.45675201e+001 4.17623940e+001 6.15598297e+001
      7.12700882e+001 3.19615383e+001 1.30470085e+001 1.22623930e+001
      2.81341877e+001 2.27487183e+001 2.07188034e+001 2.32888889e+001
      3.38170929e+001 2.57965813e+001 1.99008541e+001 2.10564098e+001
      2.61632481e+001 1.42042732e+001 8.19999981e+000 1.19444447e+001
      2.78683758e+001 2.54897442e+001 2.10324783e+001 2.00897446e+001
      5.56957283e+001 4.19025650e+001 2.19418812e+001 1.32452993e+001
      1.77529907e+001 1.96871796e+001 1.97683754e+001 2.59683762e+001
      3.06376076e+001 3.16470089e+001 3.09777775e+001 2.72076931e+001
      3.10803413e+001 2.24470081e+001 1.75247860e+001 1.74555550e+001
      2.28564110e+001 1.94162388e+001 1.87299156e+001 1.91538467e+001
      2.47000008e+001 1.88384609e+001 1.73333340e+001 1.72264957e+001</_>
    <_>
      2.44108315e+001 1.63286648e+001 1.50158730e+001 1.29243698e+001
      2.35574226e+001 1.02222223e+001 9.39682579e+000 1.08039217e+001
      8.78618088e+001 3.32595711e+001 1.20989733e+001 8.79365063e+000
      1.51251163e+001 8.74509811e+000 9.18954277e+000 2.23949585e+001
      1.22619980e+002 3.14407101e+001 5.31185818e+000 3.17553687e+000
      6.23902893e+000 3.26237154e+000 5.57236242e+000 3.06965446e+001
      4.65574226e+001 1.18309994e+001 3.25023341e+000 3.36041093e+000
      1.62007465e+001 5.00653601e+000 5.44817924e+000 1.45014009e+001
      3.20606918e+001 1.72577038e+001 1.65051346e+001 1.56610641e+001
      2.76984119e+001 1.28627453e+001 1.13669472e+001 1.46190481e+001
      1.04922501e+002 3.29318390e+001 1.71792717e+001 1.62511673e+001
      2.30812321e+001 1.18963585e+001 1.00308123e+001 2.62343597e+001
      1.40957047e+002 3.79141006e+001 7.36227846e+000 5.55929041e+000
      8.58169937e+000 3.72268915e+000 6.38842201e+000 2.81540623e+001
      5.84229698e+001 1.28832865e+001 3.64519143e+000 4.86181164e+000
      1.85723629e+001 5.61998129e+000 4.95144749e+000 1.52810459e+001
      3.14743233e+001 1.51764708e+001 1.18300657e+001 1.51699343e+001
      2.80354805e+001 1.35527544e+001 1.38916903e+001 1.60494862e+001
      1.07820732e+002 2.66993465e+001 1.09505138e+001 1.46451912e+001
      2.35620918e+001 1.24705887e+001 1.37936506e+001 3.17712421e+001
      1.40969193e+002 2.68487396e+001 6.09430456e+000 5.62558365e+000
      8.46685314e+000 3.72082162e+000 5.58823538e+000 3.79290390e+001
      5.87563019e+001 1.41839399e+001 4.68814182e+000 5.51820707e+000
      1.79542484e+001 4.33893538e+000 3.48272634e+000 1.43464050e+001
      2.36713352e+001 1.12408962e+001 9.50140095e+000 1.10541553e+001
      2.43781509e+001 1.27086840e+001 1.42063494e+001 1.52147522e+001
      9.30672302e+001 2.33716145e+001 7.95424843e+000 9.16059780e+000
      1.56069098e+001 7.96918774e+000 1.17329597e+001 3.42567711e+001
      1.25495796e+002 2.94220352e+001 4.35480881e+000 3.16619992e+000
      6.06349230e+000 2.67413640e+000 4.89075613e+000 3.30756302e+001
      4.69645195e+001 1.38496733e+001 5.43137264e+000 5.27077484e+000
      1.58216619e+001 3.11764717e+000 3.13258648e+000 1.40158730e+001
      2.56061306e+001 2.07316380e+001 1.96917305e+001 2.08582993e+001
      2.35274734e+001 1.17015619e+001 1.00427999e+001 1.68796997e+001
      5.63799896e+001 2.83973408e+001 1.82510128e+001 1.59595146e+001
      1.69652977e+001 1.70046272e+001 2.65112782e+001 4.06980934e+001
      3.05639114e+001 2.03967609e+001 1.80786591e+001 2.24650097e+001
      3.55164833e+001 3.52238312e+001 2.74904575e+001 2.62093697e+001
      2.12001171e+001 2.00960102e+001 1.83840370e+001 2.06223259e+001
      2.61850796e+001 1.95644894e+001 1.49323311e+001 1.56101799e+001
      3.97599792e+001 2.32082138e+001 2.23805676e+001 2.33811455e+001
      2.99757099e+001 1.70040493e+001 8.51648331e+000 1.33429728e+001
      1.22798729e+002 3.33175240e+001 1.13851938e+001 9.65066528e+000
      1.50248699e+001 1.88126087e+001 2.71243496e+001 6.80283432e+001
      3.37189140e+001 1.30555239e+001 1.30786581e+001 3.39647217e+001
      8.08947372e+001 6.80532150e+001 3.85054970e+001 3.14360905e+001
      2.68230190e+001 2.27067680e+001 1.90300751e+001 2.36587620e+001
      3.70676689e+001 2.66570282e+001 1.92105274e+001 2.17952576e+001
      4.14332008e+001 1.39196072e+001 8.53672695e+000 1.63400822e+001
      3.20300751e+001 2.78999424e+001 1.98305378e+001 1.79028339e+001
      1.21711975e+002 7.64783096e+001 3.03794117e+001 1.98322735e+001
      1.45523424e+001 1.04511280e+001 1.02527475e+001 2.78496246e+001
      3.22700996e+001 3.46373634e+001 4.35720062e+001 6.82943878e+001
      7.74470825e+001 3.33707352e+001 1.21659918e+001 1.17368422e+001
      2.75066528e+001 2.29369583e+001 2.05558128e+001 2.43238869e+001
      3.45604401e+001 2.67877388e+001 1.96252174e+001 2.11775589e+001
      2.42111053e+001 1.45893583e+001 8.49045753e+000 1.20971661e+001
      2.62718334e+001 2.57275887e+001 2.06824760e+001 1.92249851e+001
      5.06234818e+001 4.34881439e+001 2.44898796e+001 1.43580112e+001
      1.85274734e+001 2.05939846e+001 1.89872761e+001 2.36038170e+001
      2.94164257e+001 3.16211700e+001 3.33244667e+001 3.01457500e+001
      3.12128410e+001 2.25349922e+001 1.64401398e+001 1.66998272e+001
      2.28617706e+001 1.90514755e+001 1.85141697e+001 2.00757675e+001
      2.44569130e+001 1.90283413e+001 1.65552349e+001 1.71735115e+001
      2.25867767e+001 1.65920353e+001 1.70931625e+001 1.92283993e+001
      2.42441769e+001 1.95214119e+001 1.66235905e+001 1.96836967e+001
      3.65063858e+001 2.25582275e+001 1.83621330e+001 1.95259209e+001
      2.68970699e+001 2.52719765e+001 2.46363640e+001 2.94387684e+001
      5.17069855e+001 2.28812923e+001 1.38737793e+001 1.38091660e+001
      2.22952671e+001 2.65822697e+001 3.48715248e+001 4.40796394e+001
      1.98219376e+001 1.34845982e+001 1.05845232e+001 1.51600304e+001
      3.90015030e+001 3.46160774e+001 2.60916595e+001 2.34583015e+001
      3.22066116e+001 2.46739292e+001 2.18256950e+001 2.05116463e+001
      2.41637859e+001 2.44763336e+001 2.29256191e+001 2.56130733e+001
      4.92930145e+001 3.29489098e+001 3.34034576e+001 3.79128456e+001
      4.02516899e+001 3.30075150e+001 2.08189335e+001 2.18166790e+001
      1.11525917e+002 4.42449303e+001 1.61179562e+001 1.35221634e+001
      2.25281734e+001 2.17986469e+001 2.47761078e+001 4.88204346e+001
      2.43486099e+001 1.08452291e+001 9.58827972e+000 2.62719765e+001
      6.60150299e+001 5.04410210e+001 2.84102173e+001 2.17137489e+001
      3.22374153e+001 27. 2.34861012e+001 2.33884296e+001
      2.45356884e+001 2.27347851e+001 2.17137489e+001 2.26874523e+001
      5.04432755e+001 2.05725021e+001 2.10360622e+001 3.16889553e+001
      4.02922630e+001 3.86814423e+001 3.39278755e+001 3.22682190e+001
      1.12160027e+002 4.85101433e+001 2.27888813e+001 2.00413227e+001
      2.26551456e+001 1.40247936e+001 1.78144245e+001 4.49962425e+001
      2.40473328e+001 2.13493614e+001 2.81126976e+001 4.66108208e+001
      6.73996964e+001 2.93606319e+001 1.13921862e+001 1.13876781e+001
      2.32577019e+001 1.93395939e+001 1.79271221e+001 1.82862511e+001
      2.15694962e+001 2.02960186e+001 1.70676174e+001 1.72644634e+001
      3.58670158e+001 2.68700218e+001 2.34598045e+001 2.47152519e+001
      2.52268963e+001 1.97287750e+001 2.03253193e+001 2.54335079e+001
      5.31217117e+001 4.49000740e+001 3.15785122e+001 2.70811424e+001
      2.33944397e+001 1.27340345e+001 1.39038315e+001 2.27783623e+001
      2.01788120e+001 2.50082645e+001 2.74012012e+001 3.15725021e+001
      3.85755081e+001 1.69737034e+001 1.16506386e+001 1.34943647e+001</_>
    <_>
      2.54471188e+001 2.09759369e+001 1.99490776e+001 2.11662006e+001
      2.40430889e+001 1.15646334e+001 9.93508720e+000 1.68203697e+001
      5.64958038e+001 2.86004486e+001 1.86149979e+001 1.60755463e+001
      1.69485168e+001 1.68858433e+001 2.60576382e+001 4.03637390e+001
      3.06373825e+001 2.02781200e+001 1.82932301e+001 2.23335209e+001
      3.50856209e+001 3.50811424e+001 2.74756584e+001 2.64090652e+001
      2.13978748e+001 2.01477337e+001 1.86368217e+001 2.03850040e+001
      2.57610531e+001 1.95366535e+001 1.51829882e+001 1.58824854e+001
      3.95299377e+001 2.30430889e+001 2.23430328e+001 2.35993290e+001
      3.06905441e+001 1.70072746e+001 8.45047569e+000 1.33855629e+001
      1.22715164e+002 3.33508682e+001 1.14381647e+001 9.66088390e+000
      1.49921656e+001 1.85165081e+001 2.67403469e+001 6.76530533e+001
      3.39602699e+001 1.30839396e+001 1.33816452e+001 3.37739220e+001
      7.98354797e+001 6.72613297e+001 3.82954674e+001 3.16547298e+001
      2.70397320e+001 2.26782322e+001 1.92176838e+001 2.35982094e+001
      3.66060448e+001 2.65724678e+001 1.92993851e+001 2.18897591e+001
      4.12579765e+001 1.38477898e+001 8.48181343e+000 1.63357582e+001
      3.26508102e+001 2.78802471e+001 1.98718529e+001 1.79328480e+001
      1.21548965e+002 7.60397339e+001 3.01572475e+001 1.95159492e+001
      1.45858984e+001 1.03866816e+001 1.03430328e+001 2.79815331e+001
      3.23614998e+001 3.49563522e+001 4.37213211e+001 6.73682175e+001
      7.64907684e+001 3.30867386e+001 1.23335199e+001 1.18791275e+001
      2.76189156e+001 2.31382217e+001 2.08421936e+001 2.41583672e+001
      3.39317284e+001 2.65014000e+001 1.98080578e+001 2.13396759e+001
      2.40643539e+001 1.45422497e+001 8.44935703e+000 1.20621157e+001
      2.68774490e+001 2.57845554e+001 2.09736996e+001 1.93743706e+001
      5.05775070e+001 4.30727501e+001 2.41477337e+001 1.43402357e+001
      1.85092335e+001 2.05998878e+001 1.93693352e+001 2.38791275e+001
      2.95668716e+001 3.16312256e+001 3.30162277e+001 2.97112484e+001
      3.10962505e+001 2.25456085e+001 1.67325134e+001 1.70095139e+001
      2.30777836e+001 1.91583672e+001 1.86608849e+001 1.98836040e+001
      2.40083942e+001 1.88466702e+001 1.68170128e+001 1.75786228e+001
      2.45294113e+001 1.70149403e+001 1.57133522e+001 1.27861814e+001
      2.23641453e+001 9.64799213e+000 9.52661037e+000 1.05779648e+001
      8.99215698e+001 3.46498604e+001 1.23725491e+001 8.36881447e+000
      1.40112047e+001 8.36041069e+000 9.01774025e+000 2.25966396e+001
      1.24359474e+002 3.23660126e+001 5.46498585e+000 2.96825409e+000
      6.11858082e+000 3.03548098e+000 5.19234371e+000 3.03137264e+001
      4.64640541e+001 1.21167135e+001 3.40336132e+000 3.47058821e+000
      1.65088711e+001 4.93370676e+000 5.22315598e+000 1.36013069e+001
      3.21232491e+001 1.77945843e+001 1.69915962e+001 1.52250233e+001
      2.61325855e+001 1.20065355e+001 1.13146591e+001 1.41605978e+001
      1.07372551e+002 3.39533157e+001 1.68225956e+001 1.42829132e+001
      2.08253975e+001 1.10961714e+001 9.97945881e+000 2.61904755e+001
      1.41833801e+002 3.78160591e+001 6.80858994e+000 5.08029890e+000
      8.41549969e+000 3.51633978e+000 6.21381903e+000 2.76433239e+001
      5.83417358e+001 1.30774975e+001 3.81325865e+000 5.01867437e+000
      1.89206352e+001 5.50140047e+000 4.79551840e+000 1.46535950e+001
      3.12016811e+001 1.50625582e+001 1.19262371e+001 1.39579830e+001
      2.59477119e+001 1.32156858e+001 1.47376280e+001 1.62829132e+001
      1.09464989e+002 2.69775906e+001 1.11409893e+001 1.27665730e+001
      2.06003742e+001 1.15144730e+001 1.41605978e+001 3.28898239e+001
      1.41820724e+002 2.65845013e+001 6.15219402e+000 5.47058821e+000
      8.33053207e+000 3.39962649e+000 5.46031761e+000 3.78141937e+001
      5.85032692e+001 1.40578899e+001 4.88888884e+000 5.77310944e+000
      1.84808598e+001 4.31465912e+000 3.54341745e+000 1.40028009e+001
      2.36965446e+001 1.06909428e+001 9.15966415e+000 9.83099937e+000
      2.21083107e+001 1.23361349e+001 1.46162462e+001 1.57619047e+001
      9.40186768e+001 2.34780579e+001 8.11017704e+000 7.90476179e+000
      1.38571424e+001 7.51447248e+000 1.18758173e+001 3.52371597e+001
      1.26064423e+002 2.93221283e+001 4.51447248e+000 3.26143789e+000
      6.06349230e+000 2.50140047e+000 4.95424843e+000 3.31045761e+001
      4.66535950e+001 1.34752569e+001 5.59383774e+000 5.48459387e+000
      1.62324924e+001 3.09430432e+000 3.42483664e+000 1.38935575e+001
      2.23896484e+001 1.62393970e+001 1.70129414e+001 1.91603165e+001
      2.45952549e+001 1.96067581e+001 1.65686569e+001 1.96973400e+001
      3.60445747e+001 2.22695904e+001 1.82243004e+001 1.95355873e+001
      2.73644867e+001 2.51071186e+001 2.44414101e+001 2.92465858e+001
      5.19302673e+001 2.30100651e+001 1.36520491e+001 1.36412659e+001
      2.18324947e+001 2.59453640e+001 3.43932419e+001 4.41035233e+001
      2.01071186e+001 1.33005037e+001 1.04069014e+001 1.47038107e+001
      3.77757034e+001 3.37555733e+001 2.56793671e+001 2.36096344e+001
      3.20445747e+001 2.44356575e+001 2.13587360e+001 2.04148102e+001
      2.49712448e+001 2.47210655e+001 2.28756294e+001 2.57052479e+001
      4.86599579e+001 3.27268143e+001 3.34176865e+001 3.87951126e+001
      4.17109985e+001 3.31639099e+001 2.07124367e+001 2.15140190e+001
      1.12194107e+002 4.48339348e+001 1.64155293e+001 1.36247311e+001
      2.21876354e+001 2.13429184e+001 2.41768513e+001 4.86060410e+001
      2.50992107e+001 1.08224306e+001 9.42990685e+000 2.55010796e+001
      6.41243744e+001 4.93551407e+001 2.78957596e+001 2.17778587e+001
      3.21524086e+001 2.68368092e+001 2.30467300e+001 2.37606049e+001
      2.56764927e+001 2.27936745e+001 2.14363766e+001 2.26038818e+001
      5.01703835e+001 2.01588783e+001 2.05283966e+001 3.26757736e+001
      4.22199860e+001 3.90186920e+001 3.35880661e+001 3.17548542e+001
      1.13059669e+002 4.78044586e+001 2.18677216e+001 1.95837536e+001
      2.22947521e+001 1.39992819e+001 1.78181171e+001 4.55780029e+001
      2.49913731e+001 2.11595974e+001 2.71143074e+001 4.51337166e+001
      6.54874191e+001 2.88360901e+001 1.12473040e+001 1.14464417e+001
      2.31143074e+001 1.95032349e+001 1.80898647e+001 1.88641262e+001
      2.26491737e+001 2.02293320e+001 1.67915173e+001 1.69884987e+001
      3.61725388e+001 2.65765648e+001 2.30481682e+001 2.51782894e+001
      2.62731857e+001 1.97634792e+001 2.01646309e+001 2.53371677e+001
      5.46527710e+001 4.45492477e+001 3.06053200e+001 2.63529835e+001
      2.29029484e+001 1.26815243e+001 1.37174702e+001 2.33623295e+001
      2.05880661e+001 2.49187641e+001 2.67217827e+001 3.07016544e+001
      3.75578728e+001 1.65492458e+001 1.12271748e+001 1.33328543e+001</_>
    <_>
      2.26134739e+001 1.61546097e+001 1.67446804e+001 1.88588638e+001
      2.44432621e+001 1.95900707e+001 1.66333332e+001 1.98326244e+001
      3.61354599e+001 2.23744678e+001 1.80411339e+001 1.95638294e+001
      2.77638283e+001 2.52226944e+001 2.44964523e+001 2.93014183e+001
      5.22787209e+001 2.31425533e+001 1.36226950e+001 1.35503540e+001
      2.18709221e+001 2.59751759e+001 3.41276588e+001 4.35900688e+001
      1.98581562e+001 1.32042551e+001 1.04234037e+001 1.47205667e+001
      3.81127663e+001 3.38574448e+001 2.54354610e+001 2.31879425e+001
      3.24028358e+001 2.44482269e+001 2.12524815e+001 2.04198570e+001
      2.49411335e+001 2.45567360e+001 2.27191486e+001 2.57468071e+001
      4.86021271e+001 3.26773033e+001 3.32886505e+001 3.92290764e+001
      4.24099274e+001 3.30921974e+001 2.06517715e+001 2.15333328e+001
      1.12173042e+002 4.50170212e+001 1.63560276e+001 1.36439714e+001
      2.22886524e+001 2.11822681e+001 2.41234035e+001 4.80063820e+001
      2.49475174e+001 1.08567371e+001 9.52836895e+000 2.56858139e+001
      6.41602783e+001 4.91276588e+001 2.77553177e+001 2.13730488e+001
      3.24354591e+001 2.67489357e+001 2.31659565e+001 2.38141842e+001
      2.56453896e+001 2.27588654e+001 2.12092190e+001 2.26992893e+001
      5.01539001e+001 2.01907787e+001 2.07141838e+001 3.27872314e+001
      4.27049637e+001 3.91943245e+001 3.32134743e+001 3.15999985e+001
      1.13168793e+002 4.74035454e+001 2.17702122e+001 1.96283684e+001
      2.24368782e+001 1.38773041e+001 1.77375889e+001 4.55120544e+001
      2.47787228e+001 2.07219849e+001 2.70893612e+001 4.54702110e+001
      6.56425476e+001 2.85460987e+001 1.11808510e+001 1.13666658e+001
      2.33780136e+001 1.94659576e+001 1.81340427e+001 1.88943253e+001
      2.24255314e+001 2.01326237e+001 1.68078003e+001 1.70290775e+001
      3.59744682e+001 2.63446808e+001 2.29964523e+001 2.52524815e+001
      2.66680851e+001 1.97304955e+001 2.02418442e+001 2.54538994e+001
      5.48170204e+001 4.42751770e+001 3.04148922e+001 2.64460983e+001
      2.30468082e+001 1.24156027e+001 1.36234035e+001 2.34773045e+001
      2.02851067e+001 2.44794312e+001 2.62957439e+001 3.08723392e+001
      3.82099266e+001 1.65333328e+001 1.12120562e+001 1.32829781e+001
      2.34796085e+001 1.73235817e+001 1.67313824e+001 1.30647163e+001
      2.21613464e+001 9.65070915e+000 9.84131145e+000 1.04530134e+001
      8.87278366e+001 3.47668419e+001 1.31613474e+001 8.58244610e+000
      1.37030134e+001 8.21897125e+000 9.20124054e+000 2.26365242e+001
      1.22615242e+002 3.23342171e+001 5.68528366e+000 3.24645376e+000
      5.79521275e+000 3.04875875e+000 5.75265932e+000 3.07579784e+001
      4.60381203e+001 1.20673752e+001 3.67996430e+000 3.61790776e+000
      1.51976948e+001 4.79964542e+000 5.72429037e+000 1.43244677e+001
      3.09707432e+001 1.79468079e+001 1.83820915e+001 1.56693258e+001
      2.60425529e+001 1.20434389e+001 1.15904255e+001 1.39751768e+001
      1.07023933e+002 3.48590431e+001 1.78705673e+001 1.40602837e+001
      2.02544327e+001 1.11507092e+001 1.01710987e+001 2.64379425e+001
      1.41437943e+002 3.89193268e+001 7.31294298e+000 4.98049641e+000
      8.00265980e+000 3.74822688e+000 6.67730474e+000 2.85593967e+001
      5.78156013e+001 1.34388294e+001 4.25620556e+000 5.04432631e+000
      1.75000000e+001 5.72163105e+000 5.54964542e+000 1.52535458e+001
      3.02588634e+001 1.47553186e+001 1.24423752e+001 1.39893608e+001
      2.56515942e+001 1.34804964e+001 1.58741131e+001 1.63271275e+001
      1.09023048e+002 2.74007092e+001 1.14583330e+001 1.25514183e+001
      2.00443249e+001 1.14760637e+001 1.53138294e+001 3.37934380e+001
      1.40968079e+002 2.77819138e+001 6.84308481e+000 5.36347485e+000
      7.97872305e+000 3.61081553e+000 5.79166651e+000 3.88271255e+001
      5.78528366e+001 1.52739353e+001 5.52304935e+000 5.73404217e+000
      1.70744667e+001 4.56648922e+000 3.85017729e+000 1.42615242e+001
      2.27934399e+001 1.05026588e+001 9.39627647e+000 9.76507092e+000
      2.18244667e+001 1.25558510e+001 1.53457441e+001 1.59432621e+001
      9.31604614e+001 2.33093967e+001 8.26507092e+000 7.70833302e+000
      1.33705673e+001 7.47340393e+000 1.24946804e+001 3.58714523e+001
      1.24242905e+002 2.93998222e+001 4.79255295e+000 3.20035458e+000
      5.83156013e+000 2.77570915e+000 5.21897125e+000 3.36090431e+001
      4.60886497e+001 1.41693258e+001 6.02039003e+000 5.48404217e+000
      1.50487585e+001 3.22429061e+000 3.55851054e+000 1.39964533e+001
      2.54975300e+001 2.09297085e+001 2.02075787e+001 2.14508514e+001
      2.40757828e+001 1.15425596e+001 1.00098848e+001 1.67375069e+001
      5.67100487e+001 2.92169132e+001 1.88138390e+001 1.62136192e+001
      1.69571667e+001 1.67858315e+001 2.58088970e+001 3.99708939e+001
      3.00999451e+001 2.03245468e+001 1.85595837e+001 2.26249313e+001
      3.54338264e+001 3.49450874e+001 2.72515106e+001 2.60790787e+001
      2.10356941e+001 2.01026917e+001 1.89621086e+001 2.04442616e+001
      2.57408028e+001 1.95562878e+001 1.52904997e+001 1.56869850e+001
      3.94535980e+001 2.30549145e+001 2.24398689e+001 2.39730911e+001
      3.10153770e+001 1.69956074e+001 8.45524406e+000 1.32800665e+001
      1.22866013e+002 3.36534882e+001 1.15496979e+001 9.78473377e+000
      1.50823727e+001 1.84019775e+001 2.63904457e+001 6.69538727e+001
      3.38462372e+001 1.29857225e+001 1.34821529e+001 3.38550262e+001
      8.00203171e+001 6.68127441e+001 3.79665031e+001 3.13580456e+001
      2.67803402e+001 2.24887428e+001 1.93904457e+001 2.36474476e+001
      3.65634270e+001 2.65661736e+001 1.93250961e+001 2.18017578e+001
      4.11493683e+001 1.38160353e+001 8.41131210e+000 1.64146080e+001
      3.28929176e+001 2.81059856e+001 2.01257553e+001 1.80400887e+001
      1.21638664e+002 7.51674881e+001 2.98412971e+001 1.94524994e+001
      1.47089510e+001 1.05222406e+001 1.04986277e+001 2.83909950e+001
      3.24277878e+001 3.44980774e+001 4.34047241e+001 6.70444794e+001
      7.66177902e+001 3.30878639e+001 1.25249863e+001 1.19983530e+001
      2.73761673e+001 2.28083477e+001 2.07973652e+001 2.40779800e+001
      3.40494232e+001 2.65507965e+001 1.99242172e+001 2.13849545e+001
      2.41334438e+001 1.45194950e+001 8.38824844e+000 1.19802303e+001
      2.68687534e+001 2.59192753e+001 2.13690281e+001 1.96243820e+001
      5.10274582e+001 4.25216904e+001 2.38028564e+001 1.42861071e+001
      1.85420094e+001 2.07951679e+001 1.98286667e+001 2.45601330e+001
      2.92998352e+001 3.10988464e+001 3.25908852e+001 2.96705112e+001
      3.14920368e+001 2.27045574e+001 1.72240524e+001 1.72147179e+001
      2.28440418e+001 1.87655144e+001 1.85656242e+001 1.99483795e+001
      2.41054363e+001 1.89319057e+001 1.70247116e+001 1.75837460e+001</_>
    <_>
      2.21592312e+001 1.61997242e+001 1.68682213e+001 1.91674671e+001
      2.48524361e+001 1.95895672e+001 1.66026077e+001 1.96733017e+001
      3.59498978e+001 2.22999306e+001 1.81880569e+001 1.97604656e+001
      2.74330807e+001 25. 2.43266983e+001 2.93932724e+001
      5.21839371e+001 2.30301991e+001 1.36424160e+001 1.36080980e+001
      2.14282761e+001 2.57014408e+001 3.40535355e+001 4.42148247e+001
      2.04927921e+001 1.33390522e+001 1.03651333e+001 1.46362381e+001
      3.70878525e+001 3.34200401e+001 2.55422096e+001 2.38785172e+001
      3.16925182e+001 2.41901169e+001 2.12978725e+001 2.06238842e+001
      2.53459148e+001 2.45909405e+001 2.28345909e+001 2.57151680e+001
      4.87886047e+001 3.28867531e+001 3.34262161e+001 3.88448868e+001
      4.20260811e+001 3.30912819e+001 2.06973228e+001 2.16266289e+001
      1.12402878e+002 4.50253944e+001 1.64344540e+001 1.36245708e+001
      2.17947826e+001 2.09945087e+001 2.39588184e+001 4.85936852e+001
      2.56046658e+001 1.09128342e+001 9.43445396e+000 2.55030880e+001
      6.27920380e+001 4.87487984e+001 2.78400822e+001 2.20672607e+001
      3.18565540e+001 2.63417969e+001 2.29148922e+001 2.38078232e+001
      2.58016472e+001 2.28428268e+001 2.13472881e+001 2.27405624e+001
      5.00336304e+001 2.01592312e+001 2.04275913e+001 3.23417969e+001
      4.25943718e+001 3.92216873e+001 3.33013039e+001 3.18997936e+001
      1.13426903e+002 4.77515411e+001 2.16101570e+001 1.93665066e+001
      2.19464645e+001 1.39073439e+001 1.78277283e+001 4.58599854e+001
      2.56321201e+001 2.14536705e+001 2.69574471e+001 4.48359642e+001
      6.42292328e+001 2.84715157e+001 1.12306108e+001 1.15463276e+001
      2.30590248e+001 1.92697315e+001 1.80796146e+001 1.88071365e+001
      2.25223064e+001 2.02724781e+001 1.67831154e+001 1.69162655e+001
      3.59951935e+001 2.62333565e+001 2.29279327e+001 2.50809879e+001
      2.64049416e+001 1.97618389e+001 2.01434441e+001 2.54873028e+001
      5.50871658e+001 4.43321877e+001 3.00988331e+001 2.61777611e+001
      2.26973228e+001 1.25051470e+001 1.35888805e+001 2.36533966e+001
      2.10150986e+001 2.51283455e+001 2.62580643e+001 3.04289627e+001
      3.72759094e+001 1.63335609e+001 1.12072754e+001 1.33507204e+001
      2.52055664e+001 2.10305138e+001 2.04909000e+001 2.15406857e+001
      2.44480724e+001 1.14796572e+001 9.95717335e+000 1.64609203e+001
      5.67938957e+001 2.92585659e+001 1.90594215e+001 1.64464664e+001
      1.68645611e+001 1.65262318e+001 2.54480724e+001 3.96038551e+001
      3.03415413e+001 2.04127407e+001 1.87489300e+001 2.25112419e+001
      3.53934669e+001 3.44577103e+001 2.69127407e+001 2.61482868e+001
      2.14384365e+001 2.03276234e+001 1.92168083e+001 2.02435760e+001
      2.55594215e+001 1.93046036e+001 1.51274090e+001 1.59271946e+001
      3.90733414e+001 2.29063168e+001 2.24780502e+001 2.39512844e+001
      3.13190575e+001 1.69352245e+001 8.41166973e+000 1.31391859e+001
      1.22743576e+002 3.34753761e+001 1.15497856e+001 9.70342636e+000
      1.50690575e+001 1.81215210e+001 2.60021420e+001 6.64555664e+001
      3.40535316e+001 1.30390787e+001 1.35658455e+001 3.35278358e+001
      7.93624191e+001 6.59732361e+001 3.76525688e+001 3.13527832e+001
      2.72591000e+001 2.26156311e+001 1.94245186e+001 2.34609203e+001
      3.62483940e+001 2.63399353e+001 1.92248383e+001 2.18163815e+001
      4.07698059e+001 1.36777296e+001 8.35492516e+000 1.62093143e+001
      3.31782646e+001 2.81215191e+001 2.02591000e+001 1.80080299e+001
      1.21423447e+002 7.43816910e+001 2.93998928e+001 1.91418629e+001
      1.47146683e+001 1.05503206e+001 1.05936832e+001 2.84261246e+001
      3.25546036e+001 3.44502144e+001 4.30203438e+001 6.60685196e+001
      7.60289078e+001 3.28501053e+001 1.26161671e+001 1.21370449e+001
      2.78099575e+001 2.28923988e+001 2.06536407e+001 2.37526760e+001
      3.36964645e+001 2.64314766e+001 2.00048180e+001 2.15786934e+001
      2.39437904e+001 1.42773018e+001 8.32226944e+000 1.18741970e+001
      2.71386509e+001 2.59368305e+001 2.17168083e+001 1.96841545e+001
      5.11718407e+001 4.19834061e+001 2.34143467e+001 1.40754814e+001
      1.83800850e+001 2.07253742e+001 2.03463593e+001 2.48795509e+001
      2.92971096e+001 3.08067455e+001 3.20958252e+001 2.92012844e+001
      3.14266586e+001 2.26664886e+001 1.76552467e+001 1.75406857e+001
      2.31975365e+001 1.87516060e+001 1.83907928e+001 1.96306210e+001
      2.39213066e+001 1.88324413e+001 1.73179874e+001 1.78228054e+001
      2.42362823e+001 1.70185833e+001 1.59451323e+001 1.26999998e+001
      2.18203545e+001 9.43539810e+000 9.57876110e+000 1.04911509e+001
      9.00707932e+001 3.49203529e+001 1.24061947e+001 8.29823017e+000
      1.41504421e+001 8.23805332e+000 8.92566395e+000 2.23221245e+001
      1.23749557e+002 3.24424782e+001 5.42477894e+000 3.19557524e+000
      6.00619459e+000 2.92389369e+000 5.23539829e+000 3.01362839e+001
      4.52964592e+001 1.19176989e+001 3.57168150e+000 3.69115043e+000
      1.59964600e+001 4.79380512e+000 5.33539820e+000 1.33460178e+001
      3.17097340e+001 1.78982296e+001 1.78398228e+001 1.53601770e+001
      2.56424770e+001 1.16539822e+001 1.11380529e+001 1.37584066e+001
      1.07916817e+002 3.46734505e+001 1.72884960e+001 1.43734512e+001
      2.08752213e+001 1.07893801e+001 9.68584061e+000 2.59522114e+001
      1.42149551e+002 3.87194672e+001 6.96283197e+000 5.09203529e+000
      8.34159279e+000 3.47699118e+000 6.24336290e+000 2.76814156e+001
      5.69628334e+001 1.30256634e+001 4.13628340e+000 5.17522144e+000
      1.83070793e+001 5.47168159e+000 5.11858416e+000 1.44725666e+001
      3.06159286e+001 1.48460178e+001 1.23999996e+001 1.38415928e+001
      2.54823017e+001 1.33238935e+001 1.55743361e+001 1.61327438e+001
      1.10160179e+002 2.70902653e+001 1.13672562e+001 1.27477875e+001
      2.04061947e+001 1.12256641e+001 1.46893806e+001 3.33309746e+001
      1.42099121e+002 2.67070789e+001 6.34513283e+000 5.47345114e+000
      8.28849602e+000 3.29646015e+000 5.48495579e+000 3.84212379e+001
      5.70495567e+001 1.40575218e+001 5.23716831e+000 5.95132732e+000
      1.77973442e+001 4.37079668e+000 3.68584061e+000 1.40265484e+001
      2.30699120e+001 1.06424780e+001 9.28672600e+000 9.77610588e+000
      2.17486725e+001 1.24362831e+001 1.53955755e+001 1.57982302e+001
      9.43707962e+001 2.31433620e+001 8.05663681e+000 7.75309753e+000
      1.37415924e+001 7.41061926e+000 1.24283190e+001 3.61690254e+001
      1.25505310e+002 2.90336285e+001 4.56991148e+000 3.21592927e+000
      5.98230076e+000 2.48849559e+000 5.01415920e+000 3.36716805e+001
      4.51530991e+001 1.33769913e+001 5.69557524e+000 5.55752230e+000
      1.56575222e+001 3.13805318e+000 3.52654862e+000 1.38699112e+001</_>
    <_>
      2.73457756e+001 1.84731865e+001 1.67332630e+001 2.02024174e+001
      2.76456356e+001 1.20406590e+001 8.26077747e+000 1.41048012e+001
      6.00220795e+001 2.57933750e+001 1.47362423e+001 1.44793196e+001
      1.77444782e+001 1.38794250e+001 2.22358913e+001 3.74146500e+001
      2.90375042e+001 1.77802315e+001 1.46133890e+001 2.03559399e+001
      4.11097069e+001 3.17881165e+001 2.57330875e+001 2.21373978e+001
      2.38965988e+001 1.78750439e+001 1.51081314e+001 1.76736755e+001
      2.56642132e+001 1.68180866e+001 1.23049421e+001 1.45951624e+001
      4.47122307e+001 1.91675415e+001 1.71317902e+001 2.48892384e+001
      3.65196266e+001 1.65494213e+001 7.25762320e+000 1.46855936e+001
      1.26503151e+002 3.12022419e+001 9.29740620e+000 9.31335449e+000
      1.67097778e+001 1.92681389e+001 3.36815605e+001 7.28689117e+001
      3.22655106e+001 1.16321411e+001 1.09195585e+001 3.16885719e+001
      9.14731827e+001 7.27039948e+001 4.35509987e+001 2.91717491e+001
      3.04227123e+001 2.05625648e+001 1.54051867e+001 2.08284264e+001
      3.88827553e+001 2.40459156e+001 1.47592001e+001 1.89978962e+001
      4.56100578e+001 1.44642477e+001 7.49964952e+000 1.71850681e+001
      3.55413589e+001 2.45189266e+001 1.64397125e+001 1.86338940e+001
      1.25854889e+002 7.43811722e+001 3.46211014e+001 1.97138100e+001
      1.65722046e+001 1.00800905e+001 9.15860462e+000 3.05704517e+001
      3.20161209e+001 3.00061340e+001 4.51982117e+001 7.30751801e+001
      9.07066193e+001 3.15304928e+001 1.03028393e+001 1.11931295e+001
      3.14141254e+001 1.96587791e+001 1.51854181e+001 2.35459156e+001
      3.86906738e+001 2.16035748e+001 1.53576937e+001 2.02195930e+001
      2.80709763e+001 1.28373642e+001 7.53592682e+000 1.19020329e+001
      2.65911312e+001 2.05495968e+001 1.78380642e+001 2.08615494e+001
      5.85096359e+001 3.60706253e+001 2.12910957e+001 1.40602875e+001
      1.91663151e+001 1.64432163e+001 1.57446547e+001 2.65185757e+001
      2.78580437e+001 2.20066586e+001 2.69206085e+001 3.16731510e+001
      4.12579727e+001 2.06945324e+001 1.42444792e+001 1.71726246e+001
      2.60629158e+001 1.55918331e+001 1.28904657e+001 1.64034348e+001
      2.52570972e+001 1.69111462e+001 1.44521551e+001 1.84998245e+001
      3.46603050e+001 1.35139952e+001 6.64355373e+000 9.02692986e+000
      2.51429176e+001 6.13061905e+000 3.40161157e+000 7.29389334e+000
      1.19655853e+002 2.92400341e+001 4.84796429e+000 4.39037323e+000
      1.09864292e+001 3.73197627e+000 3.01590323e+000 1.97010174e+001
      1.24818703e+002 2.18324852e+001 3.09160304e+000 3.85368967e+000
      1.16933842e+001 4.41094160e+000 4.18405437e+000 2.57349453e+001
      3.70748520e+001 8.31933880e+000 2.88379979e+000 6.01251078e+000
      3.01851139e+001 9.33990669e+000 5.38443613e+000 1.11872349e+001
      4.31043243e+001 1.24953346e+001 6.13782883e+000 1.04930029e+001
      2.91274395e+001 8.22264671e+000 4.44020367e+000 9.48982239e+000
      1.36546219e+002 2.64090328e+001 5.51653957e+000 5.84563208e+000
      1.41624260e+001 5.06361341e+000 3.81297708e+000 2.33636551e+001
      1.39265274e+002 2.52364292e+001 3.64461398e+000 5.23027992e+000
      1.52998304e+001 5.62213755e+000 4.87086535e+000 2.33560219e+001
      4.61172600e+001 1.03804073e+001 3.80513144e+000 8.36577606e+000
      3.41550026e+001 9.47349453e+000 4.92578459e+000 1.12016544e+001
      4.29734955e+001 1.03488131e+001 4.37468195e+000 9.23134041e+000
      2.88356667e+001 9.52438545e+000 6.06043243e+000 1.11577606e+001
      1.36944016e+002 2.43787117e+001 4.03350306e+000 5.19932127e+000
      1.37911367e+001 5.55470753e+000 5.34287548e+000 2.54374466e+001
      1.39016541e+002 2.43668365e+001 5.07845640e+000 6.17981339e+000
      1.51526718e+001 4.67472458e+000 3.46098399e+000 2.50506783e+001
      4.58763771e+001 1.17173452e+001 4.85687017e+000 9.54304504e+000
      3.39881248e+001 7.94995785e+000 3.95971155e+000 1.05680666e+001
      3.49323578e+001 7.76823568e+000 3.31424928e+000 6.31276512e+000
      2.42131042e+001 8.82506371e+000 6.07845640e+000 1.23526297e+001
      1.20369385e+002 1.99681931e+001 2.94974566e+000 3.49109411e+000
      1.01376171e+001 4.19380856e+000 4.63846493e+000 2.87731133e+001
      1.24280960e+002 2.67156487e+001 4.19296026e+000 4.66200161e+000
      1.13505087e+001 3.32739615e+000 2.89906693e+000 2.21836300e+001
      3.69109421e+001 1.19637403e+001 5.34711599e+000 9.22985554e+000
      2.96100502e+001 5.54961824e+000 2.95356226e+000 8.51823616e+000
      2.55842171e+001 1.63577576e+001 1.52904510e+001 1.97717171e+001
      2.76027851e+001 1.78958874e+001 1.40382957e+001 1.86105766e+001
      3.54371681e+001 2.22123661e+001 1.82607746e+001 2.26865044e+001
      3.51278191e+001 2.21583214e+001 1.83410149e+001 2.42408810e+001
      5.95502319e+001 2.57087193e+001 1.46233416e+001 1.43496351e+001
      2.13229446e+001 1.93154831e+001 2.56503639e+001 4.23766556e+001
      2.83211193e+001 1.48541107e+001 9.99253941e+000 1.47004309e+001
      3.26294746e+001 2.75152512e+001 2.54922085e+001 2.43899193e+001
      3.49834213e+001 2.12874660e+001 1.75376320e+001 2.21712532e+001
      3.08824596e+001 2.17140255e+001 1.78313980e+001 2.39308681e+001
      5.01942978e+001 2.79441299e+001 2.79454575e+001 4.12445297e+001
      5.47483406e+001 2.96652851e+001 1.57073936e+001 1.98874340e+001
      1.17992538e+002 4.40777512e+001 1.63826256e+001 1.40346479e+001
      2.01180363e+001 1.77496681e+001 2.60437660e+001 5.68030510e+001
      3.53574257e+001 1.43257627e+001 1.04215851e+001 2.48473148e+001
      5.89874001e+001 4.84076576e+001 3.20253639e+001 2.67619362e+001
      3.40328255e+001 2.37243042e+001 1.82085533e+001 2.29832554e+001
      3.14212532e+001 2.14752979e+001 1.72740383e+001 2.07687340e+001
      5.12642555e+001 1.91563320e+001 1.59575596e+001 3.06589851e+001
      5.40805702e+001 3.93085213e+001 2.72213192e+001 2.83224468e+001
      1.18356598e+002 5.55026512e+001 2.44865704e+001 1.75266914e+001
      2.01866703e+001 1.41041107e+001 1.66417446e+001 4.46780510e+001
      3.54247360e+001 2.64849129e+001 3.15502319e+001 4.84021873e+001
      6.07722130e+001 2.54176064e+001 1.07849798e+001 1.41674404e+001
      2.51686001e+001 1.72688980e+001 1.40298405e+001 1.83323936e+001
      2.70916767e+001 1.97654171e+001 1.65843830e+001 1.74152851e+001
      3.63095169e+001 2.23017235e+001 1.69809341e+001 2.16967831e+001
      3.40306702e+001 2.23711872e+001 1.99466171e+001 2.46410809e+001
      6.06687660e+001 4.20490723e+001 2.44467831e+001 2.04933681e+001
      2.24840851e+001 1.38532820e+001 1.39167767e+001 2.54240704e+001
      2.79479446e+001 2.46198597e+001 2.61165447e+001 2.89981766e+001
      3.37476768e+001 1.40406160e+001 1.02108755e+001 1.46193628e+001</_>
    <_>
      3.46369171e+001 1.35710373e+001 6.75142050e+000 9.01199722e+000
      2.50136814e+001 6.16501760e+000 3.51105022e+000 7.26731205e+000
      1.19730164e+002 2.94262257e+001 4.88907576e+000 4.35908222e+000
      1.08802357e+001 3.75457788e+000 3.10650396e+000 1.96815414e+001
      1.24756264e+002 2.18833923e+001 3.07956219e+000 3.81351280e+000
      1.15950327e+001 4.38623428e+000 4.15786123e+000 2.56625977e+001
      3.70433578e+001 8.30330467e+000 2.86971164e+000 5.97368956e+000
      2.98581352e+001 9.23468781e+000 5.32582617e+000 1.11336555e+001
      4.30088387e+001 1.25413599e+001 6.32582617e+000 1.05451479e+001
      2.90307293e+001 8.22879410e+000 4.53483486e+000 9.46663857e+000
      1.36633331e+002 2.65853500e+001 5.67880440e+000 5.83161449e+000
      1.40029469e+001 5.04841089e+000 3.84382224e+000 2.34224377e+001
      1.39288574e+002 2.54058094e+001 3.65544081e+000 5.19217014e+000
      1.51883812e+001 5.59313822e+000 4.84255934e+000 2.33045673e+001
      4.60574608e+001 1.03893919e+001 3.79920006e+000 8.32203770e+000
      3.37745743e+001 9.36266041e+000 4.88654995e+000 1.11368132e+001
      4.28556099e+001 1.03131971e+001 4.45927191e+000 9.23637104e+000
      2.87604713e+001 9.62092209e+000 6.23237228e+000 1.12264786e+001
      1.37058090e+002 2.44542198e+001 4.08482409e+000 5.16312361e+000
      1.36413383e+001 5.58492947e+000 5.46769094e+000 2.56202908e+001
      1.39030945e+002 2.43119335e+001 5.05914545e+000 6.13954973e+000
      1.50425177e+001 4.66933250e+000 3.47358441e+000 2.52197437e+001
      4.58006744e+001 1.16809092e+001 4.83140373e+000 9.47274208e+000
      3.36251297e+001 7.89202261e+000 3.94674802e+000 1.05678806e+001
      3.47869911e+001 7.72153234e+000 3.38539243e+000 6.32351065e+000
      2.41488113e+001 8.86950111e+000 6.24857903e+000 1.25173645e+001
      1.20503258e+002 1.99204369e+001 2.99115968e+000 3.48074079e+000
      1.00479898e+001 4.18901300e+000 4.70511484e+000 2.90178909e+001
      1.24116814e+002 2.65685120e+001 4.17133236e+000 4.63754988e+000
      1.12641544e+001 3.32645750e+000 2.91664910e+000 2.22885704e+001
      3.68295097e+001 1.18945484e+001 5.33171940e+000 9.15407276e+000
      2.92974110e+001 5.52599430e+000 2.95306253e+000 8.52578354e+000
      2.56874695e+001 1.63396301e+001 1.51985550e+001 1.97259007e+001
      2.77056999e+001 1.79267540e+001 1.40052557e+001 1.85879459e+001
      3.54866180e+001 2.21361485e+001 1.81676807e+001 2.26260471e+001
      3.52734451e+001 2.21740856e+001 1.83148308e+001 2.41957645e+001
      5.98351135e+001 2.57226162e+001 1.45675812e+001 1.43223848e+001
      2.13307610e+001 1.92279530e+001 2.55547714e+001 4.23555603e+001
      2.84509792e+001 1.48538351e+001 9.95845032e+000 1.46378717e+001
      3.26689110e+001 2.74166546e+001 2.53783875e+001 2.43693562e+001
      3.51317139e+001 2.12491379e+001 1.74104137e+001 2.21000175e+001
      3.10185585e+001 2.17451153e+001 1.78088360e+001 2.39461327e+001
      5.01374626e+001 2.78722305e+001 2.78745289e+001 4.11800003e+001
      5.49620667e+001 2.96822147e+001 1.56708822e+001 1.97984905e+001
      1.18081139e+002 4.40397453e+001 1.63345375e+001 1.40172453e+001
      2.01694870e+001 1.76782722e+001 2.58696022e+001 5.66038780e+001
      3.55350647e+001 1.42929878e+001 1.03757601e+001 2.47500420e+001
      5.88663177e+001 4.81563492e+001 3.18316650e+001 2.67434731e+001
      3.41619339e+001 2.36900978e+001 1.81589756e+001 2.28914452e+001
      3.15048466e+001 2.15188046e+001 1.72374783e+001 2.07213020e+001
      5.11448555e+001 1.90819511e+001 1.59466257e+001 3.06252270e+001
      5.43258362e+001 3.93997383e+001 2.71714573e+001 2.81578274e+001
      1.18442772e+002 5.53397942e+001 2.43512897e+001 1.74457226e+001
      2.02355080e+001 1.40990314e+001 1.66091328e+001 4.46073265e+001
      3.55889320e+001 2.64128761e+001 3.13833160e+001 4.81596336e+001
      6.06362305e+001 2.53209076e+001 1.07392025e+001 1.41594687e+001
      2.52854347e+001 1.72708168e+001 1.40770245e+001 1.83291187e+001
      2.71128273e+001 1.97771397e+001 1.64954853e+001 1.72885532e+001
      3.62282829e+001 2.22706528e+001 1.70448360e+001 2.17421589e+001
      3.41819687e+001 2.24421101e+001 1.98925934e+001 2.44823456e+001
      6.09669914e+001 4.20622444e+001 2.43755970e+001 2.03961258e+001
      2.24816895e+001 1.38500586e+001 1.39040899e+001 2.54549198e+001
      2.80722618e+001 2.45848255e+001 2.60305481e+001 2.89157505e+001
      3.37981606e+001 1.40223360e+001 1.02187557e+001 1.46332741e+001
      2.73539238e+001 1.84162178e+001 1.68005924e+001 2.02902374e+001
      2.76189308e+001 1.20128765e+001 8.25334930e+000 1.41651297e+001
      5.99493637e+001 2.57616138e+001 1.48601007e+001 1.45862188e+001
      1.77565689e+001 1.38790674e+001 2.21661739e+001 3.73650589e+001
      2.90922222e+001 1.77661381e+001 1.46615629e+001 2.03732376e+001
      4.10073090e+001 3.17196789e+001 2.57014103e+001 2.22284679e+001
      2.39712887e+001 1.79340534e+001 1.51712198e+001 1.76584301e+001
      2.56104050e+001 1.68336525e+001 1.23610582e+001 1.45947447e+001
      4.46300659e+001 1.91378117e+001 1.72597885e+001 2.49975643e+001
      3.65314064e+001 1.65274048e+001 7.25004339e+000 1.46645203e+001
      1.26413956e+002 3.11787014e+001 9.36384201e+000 9.36453819e+000
      1.66876640e+001 1.91974945e+001 3.35606384e+001 7.27972870e+001
      3.23132057e+001 1.16333742e+001 1.09192619e+001 3.16744385e+001
      9.11952286e+001 7.24755554e+001 4.34717255e+001 2.92695313e+001
      3.04997387e+001 2.05686436e+001 1.53908129e+001 2.08228645e+001
      3.87953720e+001 2.40669918e+001 1.47788410e+001 1.90005226e+001
      4.55336685e+001 1.44515400e+001 7.51174545e+000 1.72147198e+001
      3.55782166e+001 2.45930042e+001 1.65689926e+001 1.86147556e+001
      1.25769447e+002 7.42717972e+001 3.44840775e+001 1.96429443e+001
      1.65449791e+001 1.01004000e+001 9.24569321e+000 3.06055336e+001
      3.20682106e+001 3.00694275e+001 4.50915260e+001 7.28200836e+001
      9.04395370e+001 3.15582047e+001 1.03622761e+001 1.12208109e+001
      3.15075684e+001 1.97266407e+001 1.51640854e+001 2.34814682e+001
      3.85938759e+001 2.16220646e+001 1.54407520e+001 2.02399521e+001
      2.80393257e+001 1.28414822e+001 7.53767204e+000 1.18835917e+001
      2.66166687e+001 2.06834869e+001 1.79490166e+001 2.08755875e+001
      5.84851227e+001 3.60527229e+001 2.12145462e+001 1.40080042e+001
      1.91277180e+001 1.65303631e+001 1.59338789e+001 2.65968323e+001
      2.78933353e+001 2.20812607e+001 2.68233852e+001 3.15315819e+001
      4.11635628e+001 2.08056374e+001 1.44155207e+001 1.71891422e+001
      2.61245861e+001 1.56198015e+001 1.28768053e+001 1.63674965e+001
      2.52500439e+001 1.69669399e+001 1.45004349e+001 1.84922562e+001</_>
    <_>
      3.47928391e+001 1.41651058e+001 6.90284681e+000 9.15335178e+000
      2.32031231e+001 6.28962374e+000 3.69678617e+000 8.06115723e+000
      1.18688705e+002 3.00569324e+001 5.02828264e+000 4.32708931e+000
      9.62754822e+000 3.74049592e+000 3.34416890e+000 2.09557400e+001
      1.24869789e+002 2.23985310e+001 3.07382917e+000 3.52892566e+000
      1.02442608e+001 4.30045938e+000 4.44628096e+000 2.77118454e+001
      3.89415970e+001 8.81359100e+000 2.81157017e+000 5.78751135e+000
      2.79796143e+001 9.23103809e+000 5.58769512e+000 1.22666664e+001
      4.32837486e+001 1.31533518e+001 6.49256182e+000 1.05056019e+001
      2.71195602e+001 8.29733753e+000 4.78898096e+000 1.05511484e+001
      1.36060974e+002 2.74593201e+001 5.80606079e+000 5.68833780e+000
      1.25010099e+001 5.03544521e+000 4.06409550e+000 2.46244259e+001
      1.39728378e+002 2.60925617e+001 3.56014705e+000 4.76657486e+000
      1.33932047e+001 5.38200188e+000 4.97979784e+000 2.45887966e+001
      4.79123955e+001 1.09926538e+001 3.75059700e+000 8.05197430e+000
      3.20227737e+001 9.35647392e+000 5.04260778e+000 1.18782368e+001
      4.31515160e+001 1.10426083e+001 4.69586802e+000 9.08448124e+000
      2.69114780e+001 9.80312252e+000 6.64077139e+000 1.22018366e+001
      1.36277130e+002 2.52881546e+001 4.20716238e+000 5.03085423e+000
      1.21478424e+001 5.63966942e+000 5.78989887e+000 2.68719921e+001
      1.39590454e+002 2.53450871e+001 4.95316792e+000 5.71496773e+000
      1.32819099e+001 4.45362711e+000 3.50817275e+000 2.60477505e+001
      4.76547279e+001 1.22855835e+001 4.83875132e+000 9.44719982e+000
      3.20077133e+001 7.93921041e+000 3.92727280e+000 1.11234159e+001
      3.48552818e+001 8.33314991e+000 3.55684114e+000 6.22681379e+000
      2.26741962e+001 9.30449963e+000 6.63544559e+000 1.31309462e+001
      1.19141602e+002 2.11471081e+001 3.13792467e+000 3.38145089e+000
      8.94288349e+000 4.32047749e+000 5.01652908e+000 2.97265377e+001
      1.24530029e+002 2.82637291e+001 4.29586792e+000 4.46556473e+000
      9.99853039e+000 3.10651970e+000 2.91294765e+000 2.28258953e+001
      3.84470177e+001 1.27621670e+001 5.58475685e+000 9.31919193e+000
      2.76422405e+001 5.43158865e+000 2.89182734e+000 9.05619812e+000
      2.49131069e+001 1.60781174e+001 1.50729389e+001 1.96613445e+001
      2.78197384e+001 1.81563797e+001 1.41877432e+001 1.84969063e+001
      3.50258942e+001 2.24033947e+001 1.84022446e+001 2.29988499e+001
      3.53983612e+001 2.20657463e+001 1.80742340e+001 2.38561363e+001
      6.14045448e+001 2.63868504e+001 1.45210762e+001 1.40410013e+001
      2.05402107e+001 1.87631989e+001 2.48828945e+001 4.23541946e+001
      2.91258812e+001 1.48725367e+001 9.89282131e+000 1.41815567e+001
      3.18844776e+001 2.66845055e+001 2.48785782e+001 2.50133801e+001
      3.40223007e+001 2.08183002e+001 1.71545105e+001 2.22293186e+001
      3.16373177e+001 2.23429718e+001 1.79099407e+001 2.38266430e+001
      4.91714859e+001 2.78672142e+001 2.80500641e+001 4.18703766e+001
      5.62661476e+001 3.02087479e+001 1.54003744e+001 1.92415485e+001
      1.19182419e+002 4.51228600e+001 1.63714581e+001 1.37808952e+001
      1.97600346e+001 1.68928204e+001 2.39769821e+001 5.48203125e+001
      3.68355637e+001 1.44797869e+001 1.02087469e+001 2.41631413e+001
      5.70805626e+001 4.57699623e+001 3.01277523e+001 2.64477062e+001
      3.34033966e+001 2.34944611e+001 1.82168026e+001 2.30660343e+001
      3.20418663e+001 2.17266579e+001 1.69834557e+001 2.05491295e+001
      4.98979988e+001 1.86742916e+001 1.56663790e+001 3.07545681e+001
      5.57952805e+001 4.06199112e+001 2.76399078e+001 2.80561066e+001
      1.19354912e+002 5.39210167e+001 2.28319664e+001 1.67493877e+001
      1.98616028e+001 1.39493599e+001 1.67173061e+001 4.56942902e+001
      3.67322693e+001 2.62930508e+001 2.98636169e+001 4.60804214e+001
      5.88534012e+001 2.44091492e+001 1.04205151e+001 1.43585100e+001
      2.47482376e+001 1.74882755e+001 1.43140554e+001 1.84061279e+001
      2.74813690e+001 1.97086754e+001 1.60716438e+001 1.70023022e+001
      3.55373344e+001 2.24374905e+001 1.71447277e+001 2.16793270e+001
      3.47882309e+001 2.26374626e+001 1.96155949e+001 2.44101563e+001
      6.19821625e+001 4.19739609e+001 2.39325275e+001 1.99674873e+001
      2.16512737e+001 1.35623655e+001 1.38948355e+001 2.62093220e+001
      2.86742916e+001 2.51091938e+001 2.55449581e+001 2.81733570e+001
      3.28906631e+001 1.34705801e+001 1.00622931e+001 1.47806072e+001
      2.73039970e+001 1.89893456e+001 1.75272503e+001 2.06929131e+001
      2.76007404e+001 1.19990730e+001 8.40852165e+000 1.40946417e+001
      6.08378868e+001 2.70673141e+001 1.57924957e+001 1.47048006e+001
      1.73064690e+001 1.37347536e+001 2.16306915e+001 3.71540833e+001
      2.95050163e+001 1.82461014e+001 1.51977758e+001 2.05257053e+001
      4.00222321e+001 3.09592400e+001 2.55419159e+001 2.28193607e+001
      2.35888519e+001 1.82206268e+001 1.55377483e+001 1.78994904e+001
      2.54577732e+001 1.70373631e+001 1.28423643e+001 1.47426271e+001
      4.41489868e+001 1.94667282e+001 1.76699085e+001 2.56209660e+001
      3.71327744e+001 1.70818272e+001 7.46364021e+000 1.45647669e+001
      1.26287163e+002 3.21045227e+001 9.82785225e+000 9.54346085e+000
      1.64766083e+001 1.86360970e+001 3.20145111e+001 7.13296280e+001
      3.32263374e+001 1.20466261e+001 1.13949356e+001 3.17667122e+001
      8.80653076e+001 7.01462097e+001 4.25263214e+001 2.95777359e+001
      3.02048779e+001 2.07302761e+001 1.57580662e+001 2.12425499e+001
      3.80192986e+001 2.39861031e+001 1.52830009e+001 1.92953510e+001
      4.49777641e+001 1.43722401e+001 7.66620302e+000 1.74591618e+001
      3.63496971e+001 2.54145432e+001 1.69133854e+001 1.89512119e+001
      1.25746788e+002 7.25752640e+001 3.28828163e+001 1.89518280e+001
      1.64065151e+001 1.02683334e+001 9.71375561e+000 3.16117020e+001
      3.30807457e+001 3.03730106e+001 4.41091537e+001 7.04318314e+001
      8.75954895e+001 3.15547314e+001 1.08899174e+001 1.16297665e+001
      3.12612305e+001 1.99370079e+001 1.56751575e+001 2.33853626e+001
      3.77444801e+001 2.18063908e+001 1.58988724e+001 2.05416088e+001
      2.79651070e+001 1.29623280e+001 7.70372057e+000 1.19669600e+001
      2.67335167e+001 2.09754505e+001 1.83943176e+001 2.13753281e+001
      5.95400620e+001 3.59578476e+001 2.06370220e+001 1.38066998e+001
      1.85534954e+001 1.64855633e+001 1.65204563e+001 2.77262611e+001
      2.81636543e+001 2.27054176e+001 2.65153618e+001 3.06716061e+001
      4.02990570e+001 2.09189434e+001 1.49575415e+001 1.76032104e+001
      2.56453590e+001 1.58908434e+001 1.32019444e+001 1.63442936e+001
      2.50444641e+001 1.71196537e+001 1.49627905e+001 1.85374393e+001</_>
    <_>
      2.48336220e+001 1.60670395e+001 1.51269026e+001 1.96303482e+001
      2.77598343e+001 1.81749935e+001 1.41995411e+001 1.84724388e+001
      3.50007172e+001 2.24114285e+001 1.84487514e+001 2.29609547e+001
      3.53092155e+001 2.20426369e+001 1.80716343e+001 2.38629055e+001
      6.13739624e+001 2.64035320e+001 1.45301466e+001 1.40225382e+001
      2.05010052e+001 1.87360039e+001 2.48926220e+001 4.23842964e+001
      2.91069489e+001 1.48551540e+001 9.91501617e+000 1.41669540e+001
      3.18364925e+001 2.66586285e+001 2.48525696e+001 2.50403385e+001
      3.39298019e+001 2.08385010e+001 1.71965256e+001 2.22156200e+001
      3.15977612e+001 2.23466854e+001 1.79104233e+001 2.37931385e+001
      4.91978188e+001 2.79229126e+001 2.81019249e+001 4.18517113e+001
      5.61877708e+001 3.01884880e+001 1.53992252e+001 1.92703133e+001
      1.19200401e+002 4.51719780e+001 1.63976460e+001 1.37648582e+001
      1.97157631e+001 1.68779793e+001 2.39606667e+001 5.48330460e+001
      3.68130913e+001 1.44659777e+001 1.02103071e+001 2.41350861e+001
      5.70074654e+001 4.57154770e+001 3.00762291e+001 2.64376984e+001
      3.33306084e+001 2.34807644e+001 1.82130356e+001 2.30760841e+001
      3.20047379e+001 2.17294006e+001 1.70297165e+001 2.05323009e+001
      4.99447327e+001 1.87068615e+001 1.56699686e+001 3.07275352e+001
      5.57342834e+001 4.06139832e+001 2.76691074e+001 2.81056576e+001
      1.19385017e+002 5.39198990e+001 2.28067760e+001 1.67227974e+001
      1.98218498e+001 1.39364061e+001 1.67199249e+001 4.57291145e+001
      3.67048531e+001 2.62756252e+001 2.98379288e+001 4.59997139e+001
      5.87743340e+001 2.43815689e+001 1.04033880e+001 1.43495550e+001
      2.46894932e+001 1.74675579e+001 1.43339081e+001 1.84196091e+001
      2.74234867e+001 1.97093029e+001 1.61303482e+001 1.70066032e+001
      3.55575676e+001 2.24359760e+001 1.71323586e+001 2.16523113e+001
      3.47052841e+001 2.26035042e+001 1.96409702e+001 2.44826298e+001
      6.19583702e+001 4.19876556e+001 2.39319553e+001 1.99277935e+001
      2.16060867e+001 1.35538330e+001 1.38772612e+001 2.62223663e+001
      2.86399670e+001 2.51108246e+001 2.55347404e+001 2.81401100e+001
      3.28586006e+001 1.34569340e+001 1.00483780e+001 1.47628489e+001
      2.74002781e+001 1.89853687e+001 1.75250263e+001 2.06451569e+001
      2.75575237e+001 1.20013866e+001 8.40227985e+000 1.40984135e+001
      6.10070839e+001 2.70885563e+001 1.57665176e+001 1.46713381e+001
      1.73003235e+001 1.37186203e+001 2.15967960e+001 3.71513939e+001
      2.95368862e+001 1.82511940e+001 1.51746492e+001 2.05071621e+001
      4.00850143e+001 3.09407063e+001 2.55051594e+001 2.28087177e+001
      2.35798550e+001 1.82305565e+001 1.55204067e+001 1.78807945e+001
      2.54826736e+001 1.70210991e+001 1.28216543e+001 1.47280149e+001
      4.42371788e+001 1.94512558e+001 1.76513176e+001 2.55524406e+001
      3.70693054e+001 1.71104259e+001 7.46049595e+000 1.45753889e+001
      1.26309715e+002 3.20750046e+001 9.80933285e+000 9.51563263e+000
      1.64783611e+001 1.86277523e+001 3.19622669e+001 7.12687531e+001
      3.32587395e+001 1.20648394e+001 1.13976593e+001 3.17557373e+001
      8.80765457e+001 7.00751572e+001 4.24569550e+001 2.95413532e+001
      3.02210083e+001 2.07631302e+001 1.57511168e+001 2.12137680e+001
      3.80415840e+001 2.39688892e+001 1.52579699e+001 1.92779922e+001
      4.50622215e+001 1.43882647e+001 7.65747738e+000 1.74002781e+001
      3.62810707e+001 2.53998146e+001 1.68797169e+001 1.89256115e+001
      1.25767441e+002 7.25430450e+001 3.28218079e+001 1.89225311e+001
      1.64067459e+001 1.02675190e+001 9.69228363e+000 3.15635300e+001
      3.30904045e+001 3.03736324e+001 4.40475883e+001 7.03654709e+001
      8.76149673e+001 3.15565987e+001 1.08991222e+001 1.16214390e+001
      3.12632065e+001 1.99913750e+001 1.56654863e+001 2.33654709e+001
      3.77552757e+001 2.17888489e+001 1.59003544e+001 2.05302639e+001
      2.80442009e+001 1.29892197e+001 7.69228411e+000 1.19390116e+001
      2.67026024e+001 2.09856777e+001 1.83611584e+001 2.13201904e+001
      5.96919746e+001 3.59770508e+001 2.06103497e+001 1.37882338e+001
      1.85448952e+001 1.64868317e+001 1.64871407e+001 2.77027569e+001
      2.81920528e+001 2.26993694e+001 2.65013084e+001 3.06771908e+001
      4.03773308e+001 2.09314651e+001 1.49676571e+001 1.75857086e+001
      2.56114273e+001 1.59189901e+001 1.32114582e+001 1.63611584e+001
      2.50787010e+001 1.71001072e+001 1.49736643e+001 1.85119362e+001
      3.46906281e+001 1.41655970e+001 6.98312855e+000 9.16101170e+000
      2.32356491e+001 6.29048204e+000 3.73390794e+000 8.03979397e+000
      1.18576378e+002 3.01131477e+001 5.07298708e+000 4.33394432e+000
      9.66568851e+000 3.76141572e+000 3.37905741e+000 2.08813496e+001
      1.24983856e+002 2.24423256e+001 3.07977247e+000 3.52924991e+000
      1.02167616e+001 4.28259659e+000 4.42875481e+000 2.77049332e+001
      3.89427834e+001 8.79717541e+000 2.80469465e+000 5.78562260e+000
      2.79301300e+001 9.20484066e+000 5.56977797e+000 1.22288647e+001
      4.31898041e+001 1.31606455e+001 6.52191448e+000 1.05129280e+001
      2.71457901e+001 8.27672863e+000 4.81147957e+000 1.05242987e+001
      1.35976700e+002 2.75206299e+001 5.83238554e+000 5.69686413e+000
      1.25622587e+001 5.05519867e+000 4.08600760e+000 2.45567570e+001
      1.39854935e+002 2.61500092e+001 3.55272317e+000 4.73702526e+000
      1.33563175e+001 5.33816242e+000 4.94791842e+000 2.45723457e+001
      4.79015198e+001 1.09501190e+001 3.72913980e+000 8.03172588e+000
      3.19715748e+001 9.31688976e+000 5.02200603e+000 1.18477898e+001
      4.30540962e+001 1.10207224e+001 4.70474958e+000 9.10562992e+000
      2.69244442e+001 9.78580570e+000 6.69613028e+000 1.22389507e+001
      1.36192917e+002 2.52136440e+001 4.21217680e+000 5.06070042e+000
      1.22257471e+001 5.65688610e+000 5.83843756e+000 2.69281120e+001
      1.39714279e+002 2.53128548e+001 4.92059422e+000 5.66587162e+000
      1.32251968e+001 4.41041613e+000 3.50009155e+000 2.61004944e+001
      4.76385460e+001 1.22356501e+001 4.78250504e+000 9.40143013e+000
      3.19638729e+001 7.91289186e+000 3.89767098e+000 1.11028786e+001
      3.47643471e+001 8.30808735e+000 3.57527947e+000 6.23931742e+000
      2.26719227e+001 9.28479671e+000 6.73390770e+000 1.31839352e+001
      1.18997246e+002 2.10742702e+001 3.14267373e+000 3.40876579e+000
      8.99174786e+000 4.33467817e+000 5.05391502e+000 2.97949753e+001
      1.24638359e+002 2.82358322e+001 4.24408579e+000 4.42710400e+000
      9.94278336e+000 3.09022546e+000 2.90298915e+000 2.28639278e+001
      3.84514923e+001 1.27089672e+001 5.52906656e+000 9.27581120e+000
      2.75776634e+001 5.41628456e+000 2.87566471e+000 9.03484249e+000</_>
    <_>
      2.47460403e+001 1.60673409e+001 1.51951771e+001 1.96052208e+001
      2.77618771e+001 1.81700668e+001 1.41924667e+001 1.83983440e+001
      3.49581947e+001 2.24672546e+001 1.85184765e+001 2.29099712e+001
      3.52336998e+001 2.20429440e+001 1.80821800e+001 2.38172340e+001
      6.14348679e+001 2.64538441e+001 1.45881004e+001 1.39918671e+001
      2.04290199e+001 1.86929646e+001 2.48558979e+001 4.23703804e+001
      2.91806240e+001 1.48683119e+001 9.95505714e+000 1.41388206e+001
      3.17654438e+001 2.65821075e+001 2.47677269e+001 2.50329571e+001
      3.38300743e+001 2.08591805e+001 1.72448273e+001 2.21589375e+001
      3.16077881e+001 2.23448410e+001 1.78832932e+001 2.37096577e+001
      4.91319695e+001 2.79784546e+001 2.82207146e+001 4.18760147e+001
      5.61119957e+001 3.01707802e+001 1.54203157e+001 1.92523899e+001
      1.19202591e+002 4.53288612e+001 1.64895134e+001 1.37511768e+001
      1.96641445e+001 1.68316441e+001 2.39196739e+001 5.47447548e+001
      3.69193878e+001 1.44997854e+001 1.02041655e+001 2.40470810e+001
      5.68159485e+001 4.55534286e+001 2.99928646e+001 2.64459972e+001
      3.32452545e+001 2.34380074e+001 1.81911812e+001 2.30191174e+001
      3.19880142e+001 2.17641602e+001 1.71060066e+001 2.05313168e+001
      4.98781548e+001 1.86866875e+001 1.56851187e+001 3.06844044e+001
      5.56727028e+001 4.07046623e+001 2.78340702e+001 2.82027378e+001
      1.19429298e+002 5.37851295e+001 2.27528877e+001 1.66948204e+001
      1.97725773e+001 1.39183903e+001 1.68126678e+001 4.59830208e+001
      3.68029671e+001 2.62725067e+001 2.97503204e+001 4.58523293e+001
      5.85714073e+001 2.43163071e+001 1.04101868e+001 1.44240255e+001
      2.45995140e+001 1.74144669e+001 1.43502636e+001 1.84251671e+001
      2.73796539e+001 1.97200737e+001 1.62258511e+001 1.70115566e+001
      3.54999275e+001 2.24053345e+001 1.71813374e+001 2.16534443e+001
      3.46213417e+001 2.25852470e+001 1.97424736e+001 2.45551434e+001
      6.19405022e+001 4.19493484e+001 2.39419308e+001 1.98868599e+001
      2.15488644e+001 1.35380220e+001 1.39583387e+001 2.63464108e+001
      2.86836910e+001 2.50824642e+001 2.55093441e+001 2.81047211e+001
      3.27323418e+001 1.34307318e+001 1.01197033e+001 1.48289337e+001
      3.46896973e+001 1.42439375e+001 7.05323601e+000 9.07803059e+000
      2.30138550e+001 6.33290768e+000 3.77885127e+000 8.08349991e+000
      1.18551865e+002 3.01870556e+001 5.10391951e+000 4.31959867e+000
      9.62187767e+000 3.79216027e+000 3.39525962e+000 2.08519592e+001
      1.25153870e+002 2.25298080e+001 3.05998158e+000 3.49936175e+000
      1.01589785e+001 4.27110291e+000 4.41823149e+000 2.76424789e+001
      3.90359154e+001 8.77648067e+000 2.78924322e+000 5.75533247e+000
      2.77569733e+001 9.17374611e+000 5.56280756e+000 1.21888781e+001
      4.31611671e+001 1.32720146e+001 6.64557886e+000 1.04685507e+001
      2.68732910e+001 8.28112984e+000 4.90519571e+000 1.05640841e+001
      1.35908478e+002 2.76842289e+001 5.92087507e+000 5.69243383e+000
      1.24776659e+001 5.08514118e+000 4.12980843e+000 2.45414753e+001
      1.40022964e+002 2.62816772e+001 3.53874183e+000 4.69535065e+000
      1.32481308e+001 5.30410194e+000 4.95460320e+000 2.45451221e+001
      4.80178642e+001 1.09268913e+001 3.70154953e+000 8.00291729e+000
      3.17850494e+001 9.26873302e+000 5. 1.17963533e+001 4.30381012e+001
      1.10807657e+001 4.76627159e+000 9.05961704e+000 2.66878757e+001
      9.78377342e+000 6.80492258e+000 1.23041019e+001 1.36133636e+002
      2.52153149e+001 4.24503183e+000 5.07128525e+000 1.21433001e+001
      5.66508627e+000 5.90027332e+000 2.70348225e+001 1.39872559e+002
      2.53079300e+001 4.89772081e+000 5.61932516e+000 1.31305380e+001
      4.38468552e+000 3.49243379e+000 2.61764812e+001 4.77617111e+001
      1.22023697e+001 4.75223303e+000 9.35314465e+000 3.17999992e+001
      7.88878727e+000 3.87146759e+000 1.10515947e+001 3.47411118e+001
      8.33363724e+000 3.61166811e+000 6.20783949e+000 2.24652691e+001
      9.27146721e+000 6.81750202e+000 1.32738371e+001 1.18924698e+002
      2.10774841e+001 3.18176842e+000 3.41549683e+000 8.93655396e+000
      4.32835007e+000 5.11321783e+000 2.98962612e+001 1.24829170e+002
      2.81963539e+001 4.21786690e+000 4.38960791e+000 9.88058281e+000
      3.06873274e+000 2.89680934e+000 2.29412937e+001 3.85403824e+001
      1.26689148e+001 5.49407482e+000 9.21458530e+000 2.74322701e+001
      5.38669109e+000 2.86836815e+000 8.98650837e+000 2.73991432e+001
      1.89981632e+001 1.75835629e+001 2.07427311e+001 2.75716248e+001
      1.19580650e+001 8.39715290e+000 1.41045303e+001 6.11098862e+001
      2.71974277e+001 1.57820625e+001 1.47209978e+001 1.73386898e+001
      1.37059994e+001 2.15322933e+001 3.71256485e+001 2.95711651e+001
      1.82800732e+001 1.52090607e+001 2.05324459e+001 3.99840813e+001
      3.08924084e+001 2.54912758e+001 2.28391495e+001 2.35348949e+001
      1.82142639e+001 1.55549431e+001 1.79029694e+001 2.54643402e+001
      1.70919800e+001 1.28486376e+001 1.47373734e+001 4.42116623e+001
      1.94277630e+001 1.76619225e+001 2.56597786e+001 3.70843277e+001
      1.70531063e+001 7.47183943e+000 1.45690231e+001 1.26306549e+002
      3.21244240e+001 9.80578518e+000 9.55203533e+000 1.65039787e+001
      1.85800419e+001 3.18299656e+001 7.10622864e+001 3.33388443e+001
      1.20973368e+001 1.14722986e+001 3.17681351e+001 8.77927780e+001
      6.98714447e+001 4.23492508e+001 2.95016842e+001 3.01663609e+001
      2.07549744e+001 1.58896542e+001 2.12828274e+001 3.79667892e+001
      2.39718399e+001 1.52727270e+001 1.92866535e+001 4.50192833e+001
      1.43523111e+001 7.66804409e+000 1.74827061e+001 3.62817574e+001
      2.53689919e+001 1.69413834e+001 1.89657173e+001 1.25746864e+002
      7.23223114e+001 3.27096710e+001 1.88985310e+001 1.63976116e+001
      1.02571163e+001 9.71854877e+000 3.16550350e+001 3.31535034e+001
      3.03255272e+001 4.39770432e+001 7.02142639e+001 8.73550644e+001
      3.15596867e+001 1.09784203e+001 1.16401901e+001 3.12122746e+001
      2.00050507e+001 1.57534437e+001 2.33685341e+001 3.77343140e+001
      2.18025703e+001 1.60030613e+001 2.05420876e+001 2.81057549e+001
      1.29592896e+001 7.69635725e+000 1.19857664e+001 2.67044697e+001
      2.09707680e+001 1.84303646e+001 2.14025097e+001 5.98108368e+001
      3.58933258e+001 2.05423927e+001 1.37779303e+001 1.85289249e+001
      1.64802570e+001 1.65500450e+001 2.78466473e+001 2.82087536e+001
      2.26548824e+001 2.64300575e+001 3.06339149e+001 4.03088455e+001
      2.09553108e+001 1.50417814e+001 1.76287117e+001 2.55809612e+001
      1.59188862e+001 1.32297211e+001 1.63458824e+001 2.50837154e+001
      1.71193752e+001 1.50694828e+001 1.85284672e+001</_>
    <_>
      2.47211094e+001 1.61465530e+001 1.52942429e+001 1.95859280e+001
      2.77400150e+001 1.81256580e+001 1.41951675e+001 1.83805256e+001
      3.48931046e+001 2.25390186e+001 1.86214638e+001 2.29199715e+001
      3.51964455e+001 2.20307045e+001 1.80970860e+001 2.37374554e+001
      6.14034119e+001 2.64722099e+001 1.46299925e+001 1.39786777e+001
      2.03963051e+001 1.86645336e+001 2.48533058e+001 4.22879906e+001
      2.91434250e+001 1.49297800e+001 9.98464775e+000 1.41351814e+001
      3.18096657e+001 2.65610523e+001 2.47323380e+001 2.49515285e+001
      3.38041229e+001 2.08841515e+001 1.72932472e+001 2.21637535e+001
      3.15677338e+001 2.22689419e+001 1.78889828e+001 2.37058983e+001
      4.90378113e+001 2.80341148e+001 2.83330498e+001 4.19491119e+001
      5.60938187e+001 3.01351814e+001 1.54096661e+001 1.91897659e+001
      1.19253876e+002 4.54513168e+001 1.65505333e+001 1.37506752e+001
      1.96484718e+001 1.67984371e+001 2.38500347e+001 5.45901909e+001
      3.69179802e+001 1.45205402e+001 1.02052593e+001 2.40598431e+001
      5.68426437e+001 4.55296364e+001 2.99729919e+001 2.63499641e+001
      3.31782532e+001 2.33808098e+001 1.81815205e+001 2.29984360e+001
      3.19532337e+001 2.17786789e+001 1.71617622e+001 2.05445633e+001
      4.97950249e+001 1.86292820e+001 1.56679459e+001 3.06760483e+001
      5.56496086e+001 4.07218208e+001 2.79182663e+001 2.82315559e+001
      1.19426727e+002 5.36962318e+001 2.26911163e+001 1.66742001e+001
      1.97678757e+001 1.39155655e+001 1.68578529e+001 4.60818748e+001
      3.68149261e+001 2.62579956e+001 2.96851463e+001 4.58288574e+001
      5.85924683e+001 2.42810230e+001 1.04339733e+001 1.44251604e+001
      2.45367451e+001 1.73775406e+001 1.43563614e+001 1.84065380e+001
      2.73528080e+001 1.97484016e+001 1.63331909e+001 1.70250187e+001
      3.54386635e+001 2.23582096e+001 1.71869221e+001 2.16434975e+001
      3.45907593e+001 2.25681591e+001 1.98315563e+001 2.45522385e+001
      6.18959503e+001 4.19022026e+001 2.39580669e+001 1.99057579e+001
      2.15380249e+001 1.34979391e+001 1.39579248e+001 2.63559341e+001
      2.86656723e+001 2.50663834e+001 2.55164185e+001 2.80899792e+001
      3.27617645e+001 1.34396591e+001 1.01004972e+001 1.48243074e+001
      3.46779633e+001 1.43057270e+001 7.19300461e+000 9.05762959e+000
      2.27776375e+001 6.33997822e+000 3.87241769e+000 8.13410664e+000
      1.18405220e+002 3.02827110e+001 5.19209862e+000 4.31841278e+000
      9.56415367e+000 3.81152606e+000 3.46013045e+000 2.08956146e+001
      1.25084091e+002 2.25654221e+001 3.06397247e+000 3.50779271e+000
      1.01292133e+001 4.33291054e+000 4.46629238e+000 2.76192474e+001
      3.90650597e+001 8.79068565e+000 2.77854300e+000 5.71946383e+000
      2.76143532e+001 9.23776722e+000 5.60764790e+000 1.21864805e+001
      4.31362839e+001 1.34008703e+001 6.81913757e+000 1.04215298e+001
      2.66286697e+001 8.27038765e+000 4.99075747e+000 1.06380939e+001
      1.35745926e+002 2.78615437e+001 6.04621267e+000 5.69354868e+000
      1.24041319e+001 5.11380959e+000 4.16817713e+000 2.45672340e+001
      1.40098038e+002 2.64073944e+001 3.54548764e+000 4.67705679e+000
      1.31605654e+001 5.32276201e+000 4.97354126e+000 2.45695915e+001
      4.80338898e+001 1.09229794e+001 3.70768404e+000 7.99438238e+000
      3.16161652e+001 9.32674885e+000 5.02392197e+000 1.18204060e+001
      4.30090637e+001 1.11705332e+001 4.87821674e+000 9.03098965e+000
      2.64528828e+001 9.72761917e+000 6.92515421e+000 1.24066696e+001
      1.35995651e+002 2.52729263e+001 4.28524828e+000 5.06705332e+000
      1.20532808e+001 5.67488241e+000 5.99691916e+000 2.72299747e+001
      1.39952698e+002 2.52963028e+001 4.88564730e+000 5.59913015e+000
      1.30137730e+001 4.38691568e+000 3.53678870e+000 2.63571949e+001
      4.77629585e+001 1.21779633e+001 4.77093172e+000 9.34795189e+000
      3.16067429e+001 7.95143175e+000 3.90449452e+000 1.10871696e+001
      3.47094955e+001 8.37749195e+000 3.68321872e+000 6.17524481e+000
      2.22399426e+001 9.20079708e+000 6.99329472e+000 1.33568325e+001
      1.18814247e+002 2.11119976e+001 3.22943091e+000 3.39670181e+000
      8.82040596e+000 4.31678152e+000 5.20949650e+000 3.00953255e+001
      1.24803917e+002 2.81687202e+001 4.24936581e+000 4.38129759e+000
      9.79376602e+000 3.07194638e+000 2.94182682e+000 2.30648785e+001
      3.85364265e+001 1.26467924e+001 5.50036240e+000 9.21837616e+000
      2.72609653e+001 5.43385315e+000 2.90974998e+000 9.03098965e+000
      2.73830280e+001 1.90756035e+001 1.77317448e+001 2.07300739e+001
      2.75999699e+001 1.19206009e+001 8.37012291e+000 1.40393200e+001
      6.11888580e+001 2.73890991e+001 1.59113407e+001 1.47010775e+001
      1.73163815e+001 1.36617584e+001 2.14680424e+001 3.69851227e+001
      2.96124191e+001 1.83866711e+001 1.53617735e+001 2.05406113e+001
      3.98595734e+001 3.07989979e+001 2.54235611e+001 2.28068924e+001
      2.34751778e+001 1.82858658e+001 1.56793680e+001 1.78964634e+001
      2.54470921e+001 1.70766659e+001 1.28440866e+001 1.47173223e+001
      4.41782303e+001 1.94221954e+001 1.76711712e+001 2.56238041e+001
      3.71270676e+001 1.70482769e+001 7.45954132e+000 1.45680885e+001
      1.26249733e+002 3.21776237e+001 9.83421898e+000 9.53772545e+000
      1.64943066e+001 1.85167751e+001 3.16801281e+001 7.08510742e+001
      3.34208298e+001 1.21477156e+001 1.15591316e+001 3.17282524e+001
      8.74536209e+001 6.96330643e+001 4.22189178e+001 2.94930916e+001
      3.01636562e+001 2.07945957e+001 1.59713068e+001 2.12668896e+001
      3.79014740e+001 2.39605293e+001 1.53145590e+001 1.92848034e+001
      4.49710045e+001 1.43219976e+001 7.66494608e+000 1.74487629e+001
      3.63022614e+001 2.53799915e+001 1.70487328e+001 1.90450897e+001
      1.25676788e+002 7.20303650e+001 3.25389404e+001 1.88050709e+001
      1.64088364e+001 1.03209352e+001 9.83330822e+000 3.17472286e+001
      3.32845001e+001 3.02835884e+001 4.38518295e+001 6.99096680e+001
      8.70245972e+001 3.15984516e+001 1.10892668e+001 1.16857443e+001
      3.11952324e+001 1.99916496e+001 1.58129654e+001 2.33886452e+001
      3.77106438e+001 2.18155460e+001 1.60716572e+001 2.05545769e+001
      2.81510544e+001 1.29497499e+001 7.69652367e+000 1.19409447e+001
      2.66931839e+001 2.10283890e+001 1.85872173e+001 2.15137386e+001
      5.99060287e+001 3.57540627e+001 2.04669800e+001 1.37417641e+001
      1.85049343e+001 1.65328674e+001 1.67748604e+001 2.80452404e+001
      2.81994839e+001 2.25875206e+001 2.63637466e+001 3.05390930e+001
      4.02113266e+001 2.10651283e+001 1.52718992e+001 1.77016850e+001
      2.55120697e+001 1.58984365e+001 1.32632456e+001 1.64068623e+001
      2.51223621e+001 1.72040386e+001 1.51944742e+001 1.85471382e+001</_>
    <_>
      3.47095642e+001 1.44547091e+001 7.41391087e+000 9.04277515e+000
      2.26177216e+001 6.29636955e+000 3.89827466e+000 8.20129395e+000
      1.18413376e+002 3.06277866e+001 5.30427742e+000 4.28738308e+000
      9.45129395e+000 3.78289008e+000 3.44859815e+000 2.09103165e+001
      1.24877251e+002 2.27408352e+001 3.09273911e+000 3.49388933e+000
      1.00420561e+001 4.26024437e+000 4.43709564e+000 2.75354061e+001
      3.90149193e+001 8.84992790e+000 2.78540635e+000 5.67864847e+000
      2.73679008e+001 9.13767052e+000 5.57260990e+000 1.21960821e+001
      4.31946449e+001 1.35797987e+001 6.98400450e+000 1.04164276e+001
      2.64273911e+001 8.23292637e+000 5.04421282e+000 1.07331057e+001
      1.35712082e+002 2.80963345e+001 6.13964796e+000 5.67954731e+000
      1.22323875e+001 5.08447170e+000 4.18206358e+000 2.46157455e+001
      1.40031815e+002 2.65664997e+001 3.57548547e+000 4.65528393e+000
      1.30521212e+001 5.28181171e+000 4.96585226e+000 2.45346870e+001
      4.80832138e+001 1.09902954e+001 3.72735453e+000 7.94787931e+000
      3.13308773e+001 9.20776463e+000 4.99658537e+000 1.18271027e+001
      4.31096344e+001 1.13023005e+001 4.96800852e+000 9.05158138e+000
      2.62519779e+001 9.68853378e+000 7.01815271e+000 1.26184406e+001
      1.35990845e+002 2.53414822e+001 4.32800150e+000 5.05265999e+000
      1.18864126e+001 5.60909414e+000 6.03432798e+000 2.75519409e+001
      1.39843109e+002 2.52985268e+001 4.90330696e+000 5.59759188e+000
      1.29076204e+001 4.35010815e+000 3.55283976e+000 2.64766369e+001
      4.78226089e+001 1.21928473e+001 4.78486729e+000 9.31254482e+000
      3.13211727e+001 7.85334301e+000 3.90510440e+000 1.11718187e+001
      3.47541351e+001 8.42559338e+000 3.73705983e+000 6.16714621e+000
      2.20438538e+001 9.18152428e+000 7.23076963e+000 1.37102804e+001
      1.18754318e+002 2.11272469e+001 3.24406910e+000 3.37005758e+000
      8.70363045e+000 4.27983475e+000 5.34507561e+000 3.05416965e+001
      1.24512947e+002 2.80810566e+001 4.25143814e+000 4.38461542e+000
      9.72537804e+000 3.06056809e+000 2.99191236e+000 2.32604256e+001
      3.85603905e+001 1.26418047e+001 5.48076916e+000 9.18673611e+000
      2.70264206e+001 5.38982773e+000 2.93332148e+000 9.12994289e+000
      2.73965511e+001 1.91192684e+001 1.77520828e+001 2.06850319e+001
      2.75559273e+001 1.19150906e+001 8.38277626e+000 1.40611477e+001
      6.11484833e+001 2.73824749e+001 1.59158478e+001 1.46830645e+001
      1.72990780e+001 1.36559715e+001 2.14769192e+001 3.70171051e+001
      2.95865002e+001 1.83850460e+001 1.53475113e+001 2.05185413e+001
      3.98224640e+001 3.07962780e+001 2.54274273e+001 2.28342686e+001
      2.34743462e+001 1.82843952e+001 1.56594524e+001 1.78828526e+001
      2.54274273e+001 1.70566082e+001 1.28527327e+001 1.47466326e+001
      4.42361145e+001 1.94819145e+001 1.76818542e+001 2.55669746e+001
      3.70464668e+001 1.70211906e+001 7.45224810e+000 1.45972462e+001
      1.26243538e+002 3.22040291e+001 9.83275318e+000 9.53080082e+000
      1.64769192e+001 1.84938717e+001 3.16845779e+001 7.08494034e+001
      3.34029083e+001 1.21504469e+001 1.15510826e+001 3.16994114e+001
      8.73973083e+001 6.95819626e+001 4.22385368e+001 2.95028019e+001
      3.01708813e+001 2.07958241e+001 1.59468756e+001 2.12371731e+001
      3.78777084e+001 2.39284096e+001 1.53429699e+001 1.93113365e+001
      4.50101433e+001 1.43676414e+001 7.67035007e+000 1.73963985e+001
      3.62432289e+001 2.53346462e+001 1.70323906e+001 1.90894508e+001
      1.25673988e+002 7.20735626e+001 3.25698509e+001 1.87832603e+001
      1.63874683e+001 1.02998343e+001 9.81867790e+000 3.17599525e+001
      3.32654762e+001 3.03314686e+001 4.39202385e+001 6.98491058e+001
      8.69468765e+001 3.15743923e+001 1.10942945e+001 1.16988049e+001
      3.11940384e+001 2.00164986e+001 1.58330564e+001 2.33647652e+001
      3.76907845e+001 2.17858334e+001 1.60715923e+001 2.05578938e+001
      2.81224480e+001 1.29744215e+001 7.71136713e+000 1.19291668e+001
      2.66603622e+001 2.09874382e+001 1.85927048e+001 2.15256557e+001
      5.98191338e+001 3.58492508e+001 2.05099144e+001 1.37265024e+001
      1.84682922e+001 1.64987144e+001 1.67726669e+001 2.80069637e+001
      2.82043304e+001 2.26756477e+001 2.64083557e+001 3.04943256e+001
      4.01430321e+001 2.10355701e+001 1.52666874e+001 1.77124271e+001
      2.54843349e+001 1.59144850e+001 1.32896929e+001 1.64051762e+001
      2.51076145e+001 1.71976700e+001 1.51825342e+001 1.85297413e+001
      2.46813030e+001 1.61535416e+001 1.52788954e+001 1.95341358e+001
      2.77141647e+001 1.81250706e+001 1.42331448e+001 1.83590660e+001
      3.48679886e+001 2.25065155e+001 1.85831451e+001 2.28732300e+001
      3.51631737e+001 2.20293198e+001 1.81460342e+001 2.37461758e+001
      6.14467430e+001 2.64429188e+001 1.46028328e+001 1.39424934e+001
      2.03740788e+001 1.86735134e+001 2.49073658e+001 4.22926331e+001
      2.91223793e+001 1.48950424e+001 9.96274757e+000 1.41118984e+001
      3.18171387e+001 2.65485840e+001 2.48015575e+001 2.49339943e+001
      3.38209648e+001 2.08890934e+001 1.72916431e+001 2.21276207e+001
      3.15973091e+001 2.22618980e+001 1.78790379e+001 2.36994343e+001
      4.90410767e+001 2.80106239e+001 2.83321533e+001 4.19174232e+001
