<?xml version="1.0"?>
<opencv_storage>
<opencv_ml_svm>
  <format>3</format>
  <svmType>C_SVC</svmType>
  <kernel>
    <type>RBF</type>
    <gamma>1.</gamma></kernel>
  <C>1.</C>
  <term_criteria><epsilon>1.1920928955078125e-007</epsilon>
    <iterations>1000</iterations></term_criteria>
  <var_count>100</var_count>
  <class_count>2</class_count>
  <class_labels type_id="opencv-matrix">
    <rows>2</rows>
    <cols>1</cols>
    <dt>i</dt>
    <data>
      0 1</data></class_labels>
  <sv_total>34</sv_total>
  <support_vectors>
    <_>
      1.99999996e-002 3.99999991e-002 9.99999978e-003 0. 3.99999991e-002
      9.99999978e-003 0. 0. 0. 9.99999978e-003 0. 3.99999991e-002
      9.99999978e-003 0. 0. 0. 0. 0. 9.99999978e-003 0. 9.99999978e-003
      1.99999996e-002 0. 0. 0. 0. 9.99999978e-003 1.99999996e-002
      9.99999978e-003 1.99999996e-002 0. 0. 0. 0. 1.99999996e-002 0. 0.
      9.99999978e-003 0. 9.99999978e-003 0. 2.99999993e-002 0. 0.
      1.99999996e-002 9.99999978e-003 9.99999978e-003 0. 9.99999978e-003
      1.99999996e-002 9.99999978e-003 0. 1.99999996e-002 1.99999996e-002
      9.99999978e-003 0. 0. 0. 2.99999993e-002 1.99999996e-002
      9.99999978e-003 0. 0. 1.99999996e-002 9.99999978e-003
      5.99999987e-002 1.99999996e-002 0. 1.99999996e-002 0.
      9.99999978e-003 9.99999978e-003 0. 7.00000003e-002 9.99999978e-003
      9.99999978e-003 9.99999978e-003 0. 0. 1.99999996e-002 0.
      1.99999996e-002 9.99999978e-003 0. 0. 1.99999996e-002
      2.99999993e-002 9.99999978e-003 9.99999978e-003 1.99999996e-002
      1.99999996e-002 0. 0. 0. 9.99999978e-003 0. 0. 1.99999996e-002
      9.99999978e-003 9.99999978e-003</_>
    <_>
      9.99999978e-003 3.99999991e-002 4.99999970e-002 0. 9.99999978e-003
      2.99999993e-002 0. 1.99999996e-002 0. 0. 0. 1.99999996e-002
      9.99999978e-003 0. 9.99999978e-003 0. 0. 9.99999978e-003
      1.99999996e-002 9.99999978e-003 1.99999996e-002 0. 9.99999978e-003
      1.99999996e-002 0. 9.99999978e-003 0. 9.99999978e-003
      9.99999978e-003 2.99999993e-002 0. 0. 9.99999978e-003 0. 0.
      9.99999978e-003 0. 3.99999991e-002 0. 9.99999978e-003 0.
      1.99999996e-002 0. 0. 0. 0. 0. 0. 0. 0. 1.99999996e-002
      9.99999978e-003 1.99999996e-002 1.99999996e-002 0. 0.
      9.99999978e-003 1.99999996e-002 0. 9.99999978e-003 0.
      9.99999978e-003 0. 1.99999996e-002 1.99999996e-002 1.99999996e-002
      9.99999978e-003 0. 9.99999978e-003 0. 1.99999996e-002
      3.99999991e-002 1.99999996e-002 1.99999996e-002 0. 0.
      1.99999996e-002 0. 0. 1.99999996e-002 0. 1.99999996e-002
      9.99999978e-003 0. 1.99999996e-002 1.99999996e-002 9.99999978e-003
      9.99999978e-003 9.99999978e-003 9.99999978e-003 0. 0. 0.
      2.99999993e-002 9.99999978e-003 0. 9.99999978e-003 2.99999993e-002
      9.99999978e-003 1.99999996e-002</_>
    <_>
      5.99999987e-002 1.99999996e-002 9.99999978e-003 9.99999978e-003
      1.99999996e-002 3.99999991e-002 0. 0. 1.99999996e-002
      9.99999978e-003 0. 0. 0. 0. 0. 0. 1.99999996e-002 1.99999996e-002
      0. 1.99999996e-002 9.99999978e-003 0. 0. 0. 9.99999978e-003 0.
      9.99999978e-003 9.99999978e-003 2.99999993e-002 9.99999978e-003
      9.99999978e-003 0. 0. 9.99999978e-003 9.99999978e-003 0. 0.
      9.99999978e-003 1.99999996e-002 0. 3.99999991e-002 9.99999978e-003
      1.99999996e-002 0. 0. 9.99999978e-003 0. 1.99999996e-002
      9.99999978e-003 9.99999978e-003 3.99999991e-002 9.99999978e-003
      9.99999978e-003 0. 1.99999996e-002 1.99999996e-002 9.99999978e-003
      9.99999978e-003 0. 0. 9.99999978e-003 0. 0. 0. 9.99999978e-003 0.
      9.99999978e-003 9.99999978e-003 1.99999996e-002 1.99999996e-002 0.
      0. 9.99999978e-003 1.99999996e-002 5.99999987e-002 1.99999996e-002
      9.99999978e-003 0. 2.99999993e-002 0. 0. 9.99999978e-003
      9.99999978e-003 1.99999996e-002 0. 0. 0. 9.99999978e-003
      1.99999996e-002 0. 9.99999978e-003 0. 0. 9.99999978e-003
      9.99999978e-003 1.99999996e-002 9.99999978e-003 0. 9.99999978e-003
      0.</_>
    <_>
      9.99999978e-003 4.99999970e-002 0. 0. 1.99999996e-002
      1.99999996e-002 9.99999978e-003 0. 1.99999996e-002 9.99999978e-003
      0. 2.99999993e-002 1.99999996e-002 0. 1.99999996e-002 0. 0. 0.
      9.99999978e-003 0. 0. 9.99999978e-003 0. 9.99999978e-003
      9.99999978e-003 0. 9.99999978e-003 1.99999996e-002 1.99999996e-002
      1.99999996e-002 9.99999978e-003 9.99999978e-003 0. 0.
      9.99999978e-003 0. 0. 9.99999978e-003 0. 9.99999978e-003 0.
      2.99999993e-002 0. 0. 0. 9.99999978e-003 1.99999996e-002
      2.99999993e-002 0. 9.99999978e-003 9.99999978e-003 0.
      9.99999978e-003 9.99999978e-003 9.99999978e-003 0. 0. 0.
      1.99999996e-002 0. 0. 0. 0. 3.99999991e-002 2.99999993e-002
      4.99999970e-002 1.99999996e-002 0. 9.99999978e-003 0. 0.
      9.99999978e-003 0. 4.99999970e-002 9.99999978e-003 0.
      9.99999978e-003 0. 0. 9.99999978e-003 0. 1.99999996e-002
      9.99999978e-003 9.99999978e-003 0. 3.99999991e-002 1.99999996e-002
      9.99999978e-003 1.99999996e-002 1.99999996e-002 2.99999993e-002 0.
      0. 9.99999978e-003 9.99999978e-003 0. 0. 1.99999996e-002 0.
      9.99999978e-003</_>
    <_>
      1.99999996e-002 3.99999991e-002 0. 0. 9.99999978e-003
      9.99999978e-003 9.99999978e-003 0. 9.99999978e-003 0. 0.
      3.99999991e-002 9.99999978e-003 0. 0. 9.99999978e-003 0.
      9.99999978e-003 9.99999978e-003 1.99999996e-002 9.99999978e-003
      9.99999978e-003 0. 9.99999978e-003 9.99999978e-003 9.99999978e-003
      9.99999978e-003 0. 1.99999996e-002 9.99999978e-003 9.99999978e-003
      9.99999978e-003 9.99999978e-003 2.99999993e-002 9.99999978e-003 0.
      0. 0. 9.99999978e-003 1.99999996e-002 1.99999996e-002
      9.99999978e-003 0. 0. 0. 1.99999996e-002 9.99999978e-003
      9.99999978e-003 0. 1.99999996e-002 9.99999978e-003 3.99999991e-002
      9.99999978e-003 1.99999996e-002 9.99999978e-003 1.99999996e-002
      9.99999978e-003 0. 0. 9.99999978e-003 9.99999978e-003 0.
      9.99999978e-003 1.99999996e-002 9.99999978e-003 2.99999993e-002 0.
      9.99999978e-003 9.99999978e-003 0. 9.99999978e-003 0.
      1.99999996e-002 1.99999996e-002 1.99999996e-002 1.99999996e-002
      9.99999978e-003 9.99999978e-003 1.99999996e-002 0. 9.99999978e-003
      9.99999978e-003 0. 0. 1.99999996e-002 9.99999978e-003 0.
      2.99999993e-002 9.99999978e-003 0. 2.99999993e-002 0.
      9.99999978e-003 0. 0. 0. 9.99999978e-003 9.99999978e-003
      9.99999978e-003 0.</_>
    <_>
      0. 1.99999996e-002 9.99999978e-003 0. 9.99999978e-003 0.
      9.99999978e-003 0. 2.99999993e-002 9.99999978e-003 0.
      9.99999978e-003 0. 0. 9.99999978e-003 9.99999978e-003
      9.99999978e-003 0. 0. 9.99999978e-003 9.99999978e-003
      5.99999987e-002 9.99999978e-003 9.99999978e-003 9.99999978e-003
      2.99999993e-002 9.99999978e-003 9.99999978e-003 0. 9.99999978e-003
      0. 0. 9.99999978e-003 9.99999978e-003 2.99999993e-002 0.
      9.99999978e-003 0. 9.99999978e-003 9.99999978e-003 0.
      9.99999978e-003 9.99999978e-003 9.99999978e-003 1.99999996e-002
      1.99999996e-002 9.99999978e-003 9.99999978e-003 9.99999978e-003
      1.99999996e-002 9.99999978e-003 9.99999978e-003 1.99999996e-002
      9.99999978e-003 9.99999978e-003 1.99999996e-002 1.99999996e-002
      9.99999978e-003 9.99999978e-003 2.99999993e-002 0. 0. 0.
      2.99999993e-002 0. 9.99999978e-003 9.99999978e-003 0.
      1.99999996e-002 9.99999978e-003 0. 0. 9.99999978e-003
      9.99999978e-003 9.99999978e-003 0. 9.99999978e-003 0. 0.
      9.99999978e-003 1.99999996e-002 0. 9.99999978e-003 9.99999978e-003
      1.99999996e-002 1.99999996e-002 1.99999996e-002 2.99999993e-002 0.
      0. 0. 0. 0. 1.99999996e-002 0. 9.99999978e-003 9.99999978e-003
      2.99999993e-002 1.99999996e-002 0.</_>
    <_>
      0. 3.99999991e-002 1.99999996e-002 0. 1.99999996e-002 0.
      1.99999996e-002 1.99999996e-002 1.99999996e-002 9.99999978e-003
      1.99999996e-002 0. 1.99999996e-002 0. 2.99999993e-002 0.
      9.99999978e-003 0. 1.99999996e-002 0. 9.99999978e-003
      9.99999978e-003 1.99999996e-002 0. 0. 1.99999996e-002
      2.99999993e-002 9.99999978e-003 0. 1.99999996e-002 0. 0. 0.
      9.99999978e-003 1.99999996e-002 9.99999978e-003 0. 1.99999996e-002
      9.99999978e-003 1.99999996e-002 1.99999996e-002 1.99999996e-002 0.
      0. 0. 9.99999978e-003 9.99999978e-003 0. 2.99999993e-002
      9.99999978e-003 9.99999978e-003 9.99999978e-003 0. 2.99999993e-002
      1.99999996e-002 0. 0. 9.99999978e-003 1.99999996e-002
      9.99999978e-003 0. 1.99999996e-002 0. 9.99999978e-003 0.
      9.99999978e-003 9.99999978e-003 0. 9.99999978e-003 0. 0.
      1.99999996e-002 2.99999993e-002 9.99999978e-003 9.99999978e-003 0.
      0. 0. 0. 0. 2.99999993e-002 0. 0. 0. 1.99999996e-002
      1.99999996e-002 9.99999978e-003 9.99999978e-003 0. 9.99999978e-003
      0. 0. 9.99999978e-003 1.99999996e-002 9.99999978e-003
      9.99999978e-003 0. 1.99999996e-002 9.99999978e-003 1.99999996e-002</_>
    <_>
      1.99999996e-002 0. 9.99999978e-003 0. 1.99999996e-002 0.
      9.99999978e-003 0. 9.99999978e-003 2.99999993e-002 9.99999978e-003
      9.99999978e-003 0. 0. 1.99999996e-002 0. 9.99999978e-003 0.
      9.99999978e-003 1.99999996e-002 0. 9.99999978e-003 0.
      4.99999970e-002 0. 1.99999996e-002 9.99999978e-003 0. 0. 0. 0.
      1.99999996e-002 0. 2.99999993e-002 9.99999978e-003 9.99999978e-003
      3.99999991e-002 9.99999978e-003 9.99999978e-003 1.99999996e-002
      9.99999978e-003 0. 9.99999978e-003 1.99999996e-002 1.99999996e-002
      9.99999978e-003 0. 2.99999993e-002 2.99999993e-002 0.
      9.99999978e-003 0. 0. 0. 1.99999996e-002 9.99999978e-003
      9.99999978e-003 1.99999996e-002 0. 0. 1.99999996e-002 0. 0. 0.
      9.99999978e-003 0. 0. 0. 0. 0. 0. 9.99999978e-003 0.
      9.99999978e-003 3.99999991e-002 0. 1.99999996e-002 9.99999978e-003
      9.99999978e-003 9.99999978e-003 1.99999996e-002 0. 1.99999996e-002
      1.99999996e-002 9.99999978e-003 0. 0. 0. 9.99999978e-003 0.
      9.99999978e-003 0. 3.99999991e-002 4.99999970e-002 0.
      9.99999978e-003 2.99999993e-002 9.99999978e-003 0. 9.99999978e-003</_>
    <_>
      9.99999978e-003 2.99999993e-002 0. 9.99999978e-003 0.
      9.99999978e-003 1.99999996e-002 0. 9.99999978e-003 9.99999978e-003
      0. 1.99999996e-002 0. 0. 9.99999978e-003 0. 9.99999978e-003 0. 0.
      0. 9.99999978e-003 1.99999996e-002 9.99999978e-003 9.99999978e-003
      0. 1.99999996e-002 1.99999996e-002 2.99999993e-002 0.
      9.99999978e-003 0. 0. 0. 0. 1.99999996e-002 9.99999978e-003 0.
      1.99999996e-002 9.99999978e-003 9.99999978e-003 0. 1.99999996e-002
      0. 0. 5.99999987e-002 1.99999996e-002 3.99999991e-002
      9.99999978e-003 0. 1.99999996e-002 0. 9.99999978e-003
      9.99999978e-003 9.99999978e-003 0. 0. 0. 0. 0. 0. 0.
      2.99999993e-002 0. 7.99999982e-002 0. 2.99999993e-002
      1.99999996e-002 0. 0. 9.99999978e-003 0. 0. 1.99999996e-002
      3.99999991e-002 1.99999996e-002 0. 0. 0. 0. 1.99999996e-002 0. 0.
      0. 0. 0. 3.99999991e-002 3.99999991e-002 0. 9.99999978e-003
      2.99999993e-002 1.99999996e-002 0. 0. 9.99999978e-003 0. 0.
      9.99999978e-003 1.99999996e-002 0. 9.99999978e-003</_>
    <_>
      0. 1.99999996e-002 0. 0. 2.99999993e-002 0. 1.99999996e-002 0.
      9.99999978e-003 1.99999996e-002 0. 9.99999978e-003 9.99999978e-003
      0. 9.99999978e-003 0. 0. 0. 0. 0. 0. 9.99999978e-003
      9.99999978e-003 0. 0. 2.99999993e-002 9.99999978e-003 0. 0.
      7.00000003e-002 0. 0. 9.99999978e-003 0. 0. 9.99999978e-003 0. 0.
      1.99999996e-002 9.99999978e-003 0. 2.99999993e-002 9.99999978e-003
      0. 7.99999982e-002 0. 7.00000003e-002 9.99999978e-003
      9.99999978e-003 0. 0. 1.99999996e-002 0. 9.99999978e-003
      1.99999996e-002 0. 0. 1.99999996e-002 9.99999978e-003
      2.99999993e-002 0. 3.99999991e-002 0. 9.99999978e-003
      9.99999978e-003 9.99999978e-003 0. 0. 0. 9.99999978e-003
      9.99999978e-003 4.99999970e-002 0. 3.99999991e-002 0. 0.
      9.99999978e-003 0. 0. 0. 0. 0. 0. 0. 2.99999993e-002
      9.99999978e-003 9.99999978e-003 0. 0. 9.99999978e-003 0. 0.
      9.99999978e-003 3.99999991e-002 0. 9.99999978e-003 9.99999978e-003
      0. 0. 4.99999970e-002</_>
    <_>
      0. 1.99999996e-002 9.99999978e-003 9.99999978e-003 3.99999991e-002
      0. 0. 3.99999991e-002 9.99999978e-003 9.99999978e-003
      9.99999978e-003 1.99999996e-002 9.99999978e-003 0. 0.
      9.99999978e-003 9.99999978e-003 0. 0. 9.99999978e-003
      9.99999978e-003 9.99999978e-003 1.99999996e-002 9.99999978e-003
      9.99999978e-003 0. 9.99999978e-003 9.99999978e-003 0. 0. 0.
      1.99999996e-002 9.99999978e-003 9.99999978e-003 9.99999978e-003
      1.99999996e-002 0. 9.99999978e-003 0. 0. 3.99999991e-002
      2.99999993e-002 9.99999978e-003 9.99999978e-003 9.99999978e-003
      9.99999978e-003 9.99999978e-003 0. 2.99999993e-002 2.99999993e-002
      0. 0. 9.99999978e-003 1.99999996e-002 0. 9.99999978e-003 0. 0.
      2.99999993e-002 0. 9.99999978e-003 0. 0. 9.99999978e-003
      9.99999978e-003 1.99999996e-002 9.99999978e-003 0. 0.
      9.99999978e-003 9.99999978e-003 9.99999978e-003 9.99999978e-003
      9.99999978e-003 0. 9.99999978e-003 9.99999978e-003 0. 0. 0.
      9.99999978e-003 0. 0. 9.99999978e-003 9.99999978e-003
      9.99999978e-003 0. 9.99999978e-003 9.99999978e-003 0.
      2.99999993e-002 0. 9.99999978e-003 1.99999996e-002 3.99999991e-002
      0. 1.99999996e-002 3.99999991e-002 1.99999996e-002 9.99999978e-003</_>
    <_>
      0. 0. 9.99999978e-003 0. 9.99999978e-003 1.99999996e-002
      9.99999978e-003 1.99999996e-002 9.99999978e-003 0. 0.
      5.99999987e-002 9.99999978e-003 0. 0. 0. 0. 0. 0. 0.
      1.99999996e-002 0. 0. 1.99999996e-002 0. 0. 0. 2.99999993e-002
      1.99999996e-002 0. 9.99999978e-003 0. 0. 9.99999978e-003
      9.99999978e-003 0. 0. 9.99999978e-003 1.99999996e-002
      9.99999978e-003 9.99999978e-003 1.99999996e-002 3.99999991e-002 0.
      9.99999978e-003 0. 9.99999978e-003 3.99999991e-002 2.99999993e-002
      0. 1.99999996e-002 0. 0. 0. 1.99999996e-002 2.99999993e-002
      9.99999978e-003 9.99999978e-003 9.99999978e-003 9.99999978e-003 0.
      0. 0. 0. 0. 3.99999991e-002 1.99999996e-002 2.99999993e-002 0.
      1.99999996e-002 9.99999978e-003 0. 9.99999978e-003 0. 0.
      1.99999996e-002 2.99999993e-002 1.99999996e-002 0. 0.
      1.99999996e-002 9.99999978e-003 2.99999993e-002 3.99999991e-002 0.
      1.99999996e-002 0. 9.99999978e-003 1.99999996e-002 0.
      9.99999978e-003 0. 0. 0. 1.99999996e-002 2.99999993e-002 0.
      9.99999978e-003 0. 0.</_>
    <_>
      2.99999993e-002 9.99999978e-003 1.99999996e-002 0. 9.99999978e-003
      1.99999996e-002 0. 0. 9.99999978e-003 0. 9.99999978e-003
      1.99999996e-002 0. 0. 9.99999978e-003 0. 9.99999978e-003 0.
      9.99999978e-003 9.99999978e-003 0. 1.99999996e-002 0. 0.
      9.99999978e-003 9.99999978e-003 3.99999991e-002 9.99999978e-003
      2.99999993e-002 1.99999996e-002 0. 9.99999978e-003 9.99999978e-003
      1.99999996e-002 0. 0. 1.99999996e-002 0. 0. 0. 0. 9.99999978e-003
      9.99999978e-003 9.99999978e-003 9.99999978e-003 2.99999993e-002 0.
      9.99999978e-003 0. 1.99999996e-002 2.99999993e-002 9.99999978e-003
      2.99999993e-002 9.99999978e-003 3.99999991e-002 0. 9.99999978e-003
      1.99999996e-002 9.99999978e-003 9.99999978e-003 0. 0. 0. 0.
      9.99999978e-003 9.99999978e-003 9.99999978e-003 9.99999978e-003
      2.99999993e-002 9.99999978e-003 9.99999978e-003 1.99999996e-002 0.
      1.99999996e-002 9.99999978e-003 0. 0. 9.99999978e-003
      2.99999993e-002 9.99999978e-003 0. 9.99999978e-003 1.99999996e-002
      3.99999991e-002 0. 1.99999996e-002 0. 1.99999996e-002
      1.99999996e-002 0. 1.99999996e-002 0. 0. 0. 9.99999978e-003
      9.99999978e-003 0. 0. 0. 0.</_>
    <_>
      9.99999978e-003 3.99999991e-002 9.99999978e-003 0. 0.
      2.99999993e-002 9.99999978e-003 0. 2.99999993e-002 9.99999978e-003
      0. 0. 1.99999996e-002 0. 0. 1.99999996e-002 0. 0. 0.
      9.99999978e-003 9.99999978e-003 0. 9.99999978e-003 9.99999978e-003
      0. 2.99999993e-002 9.99999978e-003 9.99999978e-003 9.99999978e-003
      9.99999978e-003 0. 1.99999996e-002 9.99999978e-003 1.99999996e-002
      9.99999978e-003 0. 9.99999978e-003 0. 0. 9.99999978e-003
      9.99999978e-003 0. 9.99999978e-003 9.99999978e-003 1.99999996e-002
      9.99999978e-003 0. 1.99999996e-002 0. 0. 1.99999996e-002
      9.99999978e-003 9.99999978e-003 9.99999978e-003 9.99999978e-003
      1.99999996e-002 1.99999996e-002 1.99999996e-002 3.99999991e-002
      9.99999978e-003 1.99999996e-002 9.99999978e-003 9.99999978e-003
      9.99999978e-003 9.99999978e-003 0. 9.99999978e-003 9.99999978e-003
      0. 0. 1.99999996e-002 9.99999978e-003 9.99999978e-003 0.
      9.99999978e-003 0. 0. 0. 9.99999978e-003 0. 2.99999993e-002
      9.99999978e-003 0. 1.99999996e-002 2.99999993e-002 9.99999978e-003
      1.99999996e-002 2.99999993e-002 0. 9.99999978e-003 0. 0. 0.
      1.99999996e-002 9.99999978e-003 2.99999993e-002 9.99999978e-003 0.
      9.99999978e-003 0.</_>
    <_>
      9.99999978e-003 1.99999996e-002 2.99999993e-002 0. 9.99999978e-003
      2.99999993e-002 9.99999978e-003 9.99999978e-003 1.99999996e-002
      9.99999978e-003 9.99999978e-003 1.99999996e-002 1.99999996e-002 0.
      0. 0. 0. 9.99999978e-003 1.99999996e-002 9.99999978e-003
      9.99999978e-003 0. 1.99999996e-002 9.99999978e-003 0.
      9.99999978e-003 9.99999978e-003 1.99999996e-002 9.99999978e-003
      1.99999996e-002 0. 1.99999996e-002 1.99999996e-002 1.99999996e-002
      0. 1.99999996e-002 9.99999978e-003 1.99999996e-002 0. 0.
      9.99999978e-003 3.99999991e-002 0. 0. 9.99999978e-003 0. 0. 0.
      9.99999978e-003 0. 2.99999993e-002 0. 1.99999996e-002
      9.99999978e-003 0. 1.99999996e-002 0. 0. 9.99999978e-003 0.
      9.99999978e-003 9.99999978e-003 0. 9.99999978e-003 0.
      9.99999978e-003 3.99999991e-002 0. 0. 9.99999978e-003 0. 0.
      9.99999978e-003 1.99999996e-002 1.99999996e-002 0. 9.99999978e-003
      9.99999978e-003 9.99999978e-003 0. 9.99999978e-003 9.99999978e-003
      1.99999996e-002 9.99999978e-003 9.99999978e-003 0. 9.99999978e-003
      9.99999978e-003 9.99999978e-003 0. 9.99999978e-003 0.
      2.99999993e-002 9.99999978e-003 3.99999991e-002 0. 9.99999978e-003
      1.99999996e-002 0. 0.</_>
    <_>
      9.99999978e-003 1.99999996e-002 1.99999996e-002 0. 1.99999996e-002
      9.99999978e-003 9.99999978e-003 0. 0. 2.99999993e-002 0. 0. 0. 0.
      2.99999993e-002 9.99999978e-003 0. 9.99999978e-003 9.99999978e-003
      9.99999978e-003 0. 3.99999991e-002 2.99999993e-002 0. 0.
      9.99999978e-003 1.99999996e-002 9.99999978e-003 0. 0.
      9.99999978e-003 1.99999996e-002 0. 1.99999996e-002 9.99999978e-003
      2.99999993e-002 1.99999996e-002 9.99999978e-003 0. 9.99999978e-003
      2.99999993e-002 1.99999996e-002 1.99999996e-002 9.99999978e-003 0.
      9.99999978e-003 2.99999993e-002 9.99999978e-003 0. 9.99999978e-003
      9.99999978e-003 9.99999978e-003 0. 0. 0. 0. 9.99999978e-003
      9.99999978e-003 1.99999996e-002 2.99999993e-002 9.99999978e-003
      2.99999993e-002 9.99999978e-003 0. 9.99999978e-003 0. 0. 0.
      9.99999978e-003 1.99999996e-002 0. 9.99999978e-003 0. 0.
      1.99999996e-002 9.99999978e-003 0. 0. 0. 9.99999978e-003
      1.99999996e-002 0. 5.99999987e-002 1.99999996e-002 0.
      9.99999978e-003 9.99999978e-003 9.99999978e-003 0. 9.99999978e-003
      0. 0. 0. 1.99999996e-002 0. 1.99999996e-002 1.99999996e-002 0. 0.
      0.</_>
    <_>
      9.99999978e-003 0. 0. 9.99999978e-003 9.99999978e-003 0.
      9.99999978e-003 9.99999978e-003 9.99999978e-003 0. 9.99999978e-003
      2.99999993e-002 2.99999993e-002 0. 1.99999996e-002 9.99999978e-003
      9.99999978e-003 1.99999996e-002 0. 9.99999978e-003 1.99999996e-002
      0. 1.99999996e-002 1.99999996e-002 9.99999978e-003 0.
      2.99999993e-002 9.99999978e-003 9.99999978e-003 1.99999996e-002
      9.99999978e-003 0. 9.99999978e-003 2.99999993e-002 0. 0.
      9.99999978e-003 2.99999993e-002 9.99999978e-003 1.99999996e-002
      9.99999978e-003 9.99999978e-003 0. 0. 1.99999996e-002
      9.99999978e-003 0. 9.99999978e-003 1.99999996e-002 9.99999978e-003
      0. 0. 0. 0. 9.99999978e-003 2.99999993e-002 0. 9.99999978e-003
      9.99999978e-003 2.99999993e-002 0. 9.99999978e-003 1.99999996e-002
      1.99999996e-002 9.99999978e-003 1.99999996e-002 9.99999978e-003
      9.99999978e-003 9.99999978e-003 2.99999993e-002 0. 2.99999993e-002
      0. 0. 0. 9.99999978e-003 0. 0. 0. 0. 0. 9.99999978e-003 0.
      9.99999978e-003 1.99999996e-002 0. 1.99999996e-002 1.99999996e-002
      9.99999978e-003 0. 9.99999978e-003 0. 1.99999996e-002
      1.99999996e-002 1.99999996e-002 0. 0. 1.99999996e-002 0. 0.</_>
    <_>
      0. 0. 0. 0. 2.99999993e-002 1.99999996e-002 9.99999978e-003 0.
      9.99999978e-003 0. 0. 9.99999978e-003 0. 0. 0. 0. 0. 0. 0. 0. 0.
      0. 9.99999978e-003 9.99999978e-003 9.99999978e-003 0.
      9.99999978e-003 9.99999978e-003 0. 1.99999996e-002 0.
      3.99999991e-002 0. 0. 1.99999996e-002 0. 1.99999996e-002
      1.99999996e-002 0. 9.99999978e-003 0. 9.99999978e-003
      9.99999978e-003 9.99999978e-003 0. 0. 9.99999978e-003 0.
      9.99999978e-003 2.99999993e-002 1.99999996e-002 9.99999978e-003
      1.99999996e-002 0. 9.99999978e-003 1.99999996e-002 3.99999991e-002
      0. 0. 0. 4.99999970e-002 9.99999978e-003 0. 4.99999970e-002
      1.99999996e-002 9.99999978e-003 0. 9.99999978e-003 9.99999978e-003
      0. 1.99999996e-002 0. 3.99999991e-002 1.99999996e-002
      9.99999978e-003 9.99999978e-003 1.99999996e-002 9.99999978e-003
      2.99999993e-002 0. 0. 9.99999978e-003 0. 0. 1.99999996e-002
      2.99999993e-002 9.99999978e-003 0. 0. 2.99999993e-002 0. 0.
      9.99999978e-003 9.99999978e-003 0. 9.99999978e-003 0.
      5.99999987e-002 9.99999978e-003 1.99999996e-002</_>
    <_>
      9.99999978e-003 0. 0. 0. 3.99999991e-002 3.99999991e-002
      9.99999978e-003 2.99999993e-002 9.99999978e-003 1.99999996e-002 0.
      0. 2.99999993e-002 0. 0. 0. 0. 1.99999996e-002 0. 0. 0. 0. 0.
      9.99999978e-003 0. 9.99999978e-003 1.99999996e-002 0.
      9.99999978e-003 0. 0. 0. 0. 0. 1.99999996e-002 1.99999996e-002 0.
      9.99999978e-003 9.99999978e-003 9.99999978e-003 0. 2.99999993e-002
      0. 9.99999978e-003 1.99999996e-002 0. 0. 0. 2.99999993e-002 0.
      2.99999993e-002 2.99999993e-002 9.99999978e-003 0. 9.99999978e-003
      0. 0. 9.99999978e-003 0. 9.99999978e-003 1.99999996e-002 0.
      1.99999996e-002 7.00000003e-002 0. 0. 0. 9.99999978e-003
      9.99999978e-003 9.99999978e-003 9.99999978e-003 0. 0.
      1.99999996e-002 0. 1.99999996e-002 0. 0. 9.99999978e-003
      9.99999978e-003 9.99999978e-003 9.99999978e-003 3.99999991e-002 0.
      9.99999978e-003 1.99999996e-002 9.99999978e-003 9.99999978e-003
      9.99999978e-003 0. 9.99999978e-003 9.99999978e-003 1.99999996e-002
      9.99999978e-003 1.99999996e-002 9.99999978e-003 9.99999978e-003
      3.99999991e-002 1.99999996e-002 0.</_>
    <_>
      1.99999996e-002 9.99999978e-003 9.99999978e-003 2.99999993e-002
      2.99999993e-002 0. 2.99999993e-002 9.99999978e-003 3.99999991e-002
      0. 0. 0. 9.99999978e-003 0. 0. 9.99999978e-003 0. 9.99999978e-003
      0. 0. 9.99999978e-003 0. 0. 1.99999996e-002 1.99999996e-002
      2.99999993e-002 2.99999993e-002 1.99999996e-002 9.99999978e-003
      9.99999978e-003 0. 9.99999978e-003 9.99999978e-003 0. 0. 0.
      9.99999978e-003 0. 9.99999978e-003 2.99999993e-002 0.
      9.99999978e-003 0. 0. 0. 0. 1.99999996e-002 0. 4.99999970e-002 0.
      0. 2.99999993e-002 9.99999978e-003 0. 9.99999978e-003
      9.99999978e-003 9.99999978e-003 0. 9.99999978e-003 0.
      1.99999996e-002 0. 0. 0. 1.99999996e-002 0. 0. 0. 1.99999996e-002
      1.99999996e-002 9.99999978e-003 1.99999996e-002 1.99999996e-002
      9.99999978e-003 9.99999978e-003 9.99999978e-003 0. 0.
      1.99999996e-002 9.99999978e-003 9.99999978e-003 9.99999978e-003 0.
      0. 9.99999978e-003 1.99999996e-002 9.99999978e-003 2.99999993e-002
      2.99999993e-002 0. 2.99999993e-002 0. 9.99999978e-003
      9.99999978e-003 9.99999978e-003 9.99999978e-003 9.99999978e-003
      9.99999978e-003 0. 9.99999978e-003</_>
    <_>
      0. 1.99999996e-002 1.99999996e-002 0. 0. 1.99999996e-002
      9.99999978e-003 0. 1.99999996e-002 9.99999978e-003 0. 0.
      9.99999978e-003 0. 9.99999978e-003 0. 9.99999978e-003
      1.99999996e-002 0. 0. 0. 0. 2.99999993e-002 1.99999996e-002 0.
      9.99999978e-003 9.99999978e-003 9.99999978e-003 0. 9.99999978e-003
      0. 3.99999991e-002 0. 0. 1.99999996e-002 0. 1.99999996e-002 0. 0.
      9.99999978e-003 0. 1.99999996e-002 2.99999993e-002 1.99999996e-002
      2.99999993e-002 9.99999978e-003 0. 9.99999978e-003 0.
      1.99999996e-002 0. 1.99999996e-002 9.99999978e-003 0. 0. 0.
      3.99999991e-002 0. 0. 0. 9.99999978e-003 9.99999978e-003
      9.99999978e-003 4.99999970e-002 0. 0. 0. 0. 2.99999993e-002
      9.99999978e-003 2.99999993e-002 1.99999996e-002 9.99999978e-003
      1.99999996e-002 0. 1.99999996e-002 9.99999978e-003 0.
      9.99999978e-003 9.99999978e-003 0. 0. 9.99999978e-003 0. 0.
      4.99999970e-002 3.99999991e-002 9.99999978e-003 9.99999978e-003
      9.99999978e-003 9.99999978e-003 0. 0. 9.99999978e-003 0.
      9.99999978e-003 0. 2.99999993e-002 9.99999978e-003 9.99999978e-003</_>
    <_>
      9.99999978e-003 9.99999978e-003 9.99999978e-003 9.99999978e-003 0.
      2.99999993e-002 0. 9.99999978e-003 0. 9.99999978e-003
      1.99999996e-002 0. 9.99999978e-003 0. 0. 0. 0. 9.99999978e-003 0.
      0. 9.99999978e-003 1.99999996e-002 9.99999978e-003 9.99999978e-003
      9.99999978e-003 0. 0. 0. 9.99999978e-003 0. 0. 9.99999978e-003 0.
      9.99999978e-003 1.99999996e-002 0. 9.99999978e-003 0.
      9.99999978e-003 9.99999978e-003 0. 9.99999978e-003 9.99999978e-003
      0. 3.99999991e-002 0. 0. 9.99999978e-003 2.99999993e-002
      9.99999978e-003 9.99999978e-003 2.99999993e-002 9.99999978e-003 0.
      9.99999978e-003 0. 9.99999978e-003 0. 0. 0. 2.99999993e-002
      1.99999996e-002 0. 2.99999993e-002 9.99999978e-003 9.99999978e-003
      9.99999978e-003 9.99999978e-003 9.99999978e-003 0. 1.99999996e-002
      9.99999978e-003 5.99999987e-002 2.99999993e-002 9.99999978e-003
      9.99999978e-003 0. 9.99999978e-003 9.99999978e-003 9.99999978e-003
      9.99999978e-003 0. 2.99999993e-002 9.99999978e-003 3.99999991e-002
      1.99999996e-002 9.99999978e-003 9.99999978e-003 9.99999978e-003 0.
      9.99999978e-003 0. 1.99999996e-002 9.99999978e-003 9.99999978e-003
      2.99999993e-002 9.99999978e-003 0. 9.99999978e-003 9.99999978e-003</_>
    <_>
      0. 0. 0. 0. 0. 9.99999978e-003 9.99999978e-003 0. 9.99999978e-003
      0. 0. 1.99999996e-002 4.99999970e-002 0. 0. 0. 0. 0. 0.
      9.99999978e-003 9.99999978e-003 0. 0. 9.99999978e-003 0. 0.
      1.40000001e-001 3.99999991e-002 0. 9.99999978e-003 0. 0. 0. 0. 0.
      0. 0. 1.99999996e-002 0. 0. 0. 3.99999991e-002 0. 0.
      2.99999993e-002 0. 9.99999978e-003 0. 0. 0. 0. 9.99999978e-003
      4.99999970e-002 9.99999978e-003 8.99999961e-002 0. 0. 0. 0. 0. 0.
      0. 0. 9.99999978e-003 9.99999978e-003 3.99999991e-002
      2.99999993e-002 0. 1.99999996e-002 0. 9.99999978e-003
      2.99999993e-002 0. 4.99999970e-002 0. 0. 0. 0. 9.99999978e-003 0.
      0. 4.99999970e-002 0. 0. 4.99999970e-002 1.99999996e-002 0. 0.
      3.99999991e-002 1.99999996e-002 1.99999996e-002 0. 0. 0. 0. 0. 0.
      0. 0. 9.99999978e-003</_>
    <_>
      1.99999996e-002 0. 9.99999978e-003 9.99999978e-003 0.
      9.99999978e-003 9.99999978e-003 0. 1.99999996e-002 0.
      9.99999978e-003 2.99999993e-002 1.99999996e-002 0. 0. 0. 0.
      9.99999978e-003 9.99999978e-003 9.99999978e-003 1.99999996e-002
      1.99999996e-002 0. 9.99999978e-003 0. 9.99999978e-003 0.
      3.99999991e-002 9.99999978e-003 5.99999987e-002 0. 0. 0. 0.
      9.99999978e-003 1.99999996e-002 0. 9.99999978e-003 9.99999978e-003
      0. 0. 2.99999993e-002 0. 9.99999978e-003 1.99999996e-002 0.
      9.99999978e-003 0. 0. 0. 1.99999996e-002 1.99999996e-002 0.
      9.99999978e-003 2.99999993e-002 0. 1.99999996e-002 0.
      1.99999996e-002 0. 9.99999978e-003 0. 0. 2.99999993e-002 0.
      1.99999996e-002 4.99999970e-002 0. 0. 1.99999996e-002 0.
      9.99999978e-003 0. 9.99999978e-003 0. 0. 1.99999996e-002
      1.99999996e-002 0. 0. 0. 0. 0. 0. 7.00000003e-002 0.
      3.99999991e-002 9.99999978e-003 9.99999978e-003 1.99999996e-002
      9.99999978e-003 0. 0. 0. 0. 0. 1.99999996e-002 0. 9.99999978e-003
      3.99999991e-002</_>
    <_>
      9.99999978e-003 0. 3.99999991e-002 0. 0. 0. 9.99999940e-002 0.
      7.99999982e-002 9.99999978e-003 9.99999978e-003 1.99999996e-002 0.
      0. 0. 0. 0. 0. 0. 4.99999970e-002 0. 0. 0. 0. 0. 0.
      2.99999993e-002 9.99999978e-003 0. 0. 0. 0. 9.99999978e-003
      3.99999991e-002 0. 0. 5.99999987e-002 0. 0. 2.99999993e-002 0. 0.
      9.99999978e-003 0. 0. 0. 0. 9.99999940e-002 3.99999991e-002
      1.99999996e-002 0. 0. 9.99999978e-003 0. 1.99999996e-002 0. 0. 0.
      0. 0. 0. 0. 0. 9.99999978e-003 5.99999987e-002 1.99999996e-002
      9.99999978e-003 9.99999978e-003 9.99999978e-003 0. 0. 0. 0. 0. 0.
      9.99999978e-003 0. 0. 0. 0. 9.99999978e-003 9.99999978e-003
      9.99999978e-003 9.99999978e-003 0. 0. 9.99999978e-003 0.
      7.00000003e-002 0. 2.99999993e-002 0. 0. 0. 9.99999978e-003 0. 0.
      0. 9.99999978e-003 0.</_>
    <_>
      0. 0. 9.99999978e-003 0. 2.99999993e-002 0. 2.99999993e-002 0.
      9.99999978e-003 2.99999993e-002 1.99999996e-002 0. 0. 0.
      9.99999978e-003 0. 9.99999978e-003 2.99999993e-002 0.
      2.99999993e-002 0. 2.99999993e-002 0. 9.99999978e-003
      9.99999978e-003 1.99999996e-002 9.99999978e-003 0. 0. 0.
      2.99999993e-002 2.99999993e-002 1.99999996e-002 9.99999978e-003
      9.99999978e-003 0. 2.99999993e-002 9.99999978e-003 0.
      1.99999996e-002 0. 1.99999996e-002 0. 0. 1.99999996e-002
      9.99999978e-003 9.99999978e-003 9.99999978e-003 9.99999978e-003
      2.99999993e-002 0. 0. 0. 0. 1.99999996e-002 9.99999978e-003 0.
      9.99999978e-003 0. 9.99999978e-003 9.99999978e-003 9.99999978e-003
      0. 9.99999978e-003 1.99999996e-002 9.99999978e-003 0.
      9.99999978e-003 1.99999996e-002 0. 9.99999978e-003 9.99999978e-003
      9.99999978e-003 3.99999991e-002 0. 9.99999978e-003 2.99999993e-002
      9.99999978e-003 9.99999978e-003 0. 3.99999991e-002 0.
      1.99999996e-002 9.99999978e-003 9.99999978e-003 0. 9.99999978e-003
      9.99999978e-003 9.99999978e-003 0. 0. 0. 0. 9.99999978e-003 0. 0.
      2.99999993e-002 9.99999978e-003 9.99999978e-003 0.</_>
    <_>
      0. 9.99999978e-003 3.99999991e-002 9.99999978e-003 0.
      1.99999996e-002 1.99999996e-002 9.99999978e-003 2.99999993e-002 0.
      9.99999978e-003 9.99999978e-003 9.99999978e-003 0. 0. 0. 0.
      9.99999978e-003 0. 0. 0. 1.99999996e-002 0. 0. 0. 9.99999978e-003
      1.99999996e-002 0. 0. 1.99999996e-002 9.99999978e-003
      9.99999978e-003 9.99999978e-003 0. 0. 2.99999993e-002
      1.99999996e-002 3.99999991e-002 9.99999978e-003 0. 0.
      1.99999996e-002 0. 0. 2.99999993e-002 0. 4.99999970e-002 0. 0. 0.
      0. 9.99999978e-003 9.99999978e-003 9.99999978e-003 1.99999996e-002
      0. 1.99999996e-002 0. 2.99999993e-002 9.99999978e-003 0. 0.
      1.99999996e-002 1.99999996e-002 0. 1.99999996e-002 0. 0.
      9.99999978e-003 9.99999978e-003 0. 1.99999996e-002 1.99999996e-002
      1.99999996e-002 0. 0. 0. 0. 0. 9.99999978e-003 1.99999996e-002
      9.99999978e-003 9.99999978e-003 0. 7.00000003e-002 9.99999978e-003
      2.99999993e-002 1.99999996e-002 0. 0. 1.99999996e-002 0. 0. 0.
      2.99999993e-002 0. 0. 1.99999996e-002 9.99999978e-003
      9.99999978e-003</_>
    <_>
      9.99999978e-003 0. 9.99999978e-003 0. 0. 2.99999993e-002
      1.99999996e-002 9.99999978e-003 9.99999978e-003 0. 0. 0.
      1.99999996e-002 9.99999978e-003 2.99999993e-002 0. 0. 0. 0.
      9.99999978e-003 1.99999996e-002 2.99999993e-002 0. 0. 0.
      9.99999978e-003 0. 1.99999996e-002 0. 9.99999978e-003 0. 0.
      9.99999978e-003 0. 2.99999993e-002 1.99999996e-002 1.99999996e-002
      9.99999978e-003 0. 0. 0. 2.99999993e-002 1.99999996e-002
      9.99999978e-003 7.99999982e-002 9.99999978e-003 9.99999978e-003 0.
      0. 9.99999978e-003 9.99999978e-003 1.99999996e-002 0. 0.
      9.99999978e-003 0. 1.99999996e-002 0. 0. 9.99999978e-003 0.
      1.99999996e-002 9.99999978e-003 3.99999991e-002 0. 9.99999978e-003
      1.99999996e-002 0. 0. 9.99999978e-003 9.99999978e-003
      2.99999993e-002 9.99999978e-003 1.99999996e-002 0. 0.
      9.99999978e-003 9.99999978e-003 9.99999978e-003 0. 2.99999993e-002
      0. 0. 0. 1.99999996e-002 2.99999993e-002 9.99999978e-003 0.
      9.99999978e-003 9.99999978e-003 9.99999978e-003 0. 0.
      1.99999996e-002 9.99999978e-003 0. 1.99999996e-002 1.99999996e-002
      0. 1.99999996e-002</_>
    <_>
      1.99999996e-002 1.99999996e-002 9.99999978e-003 0. 9.99999978e-003
      1.99999996e-002 9.99999978e-003 0. 9.99999978e-003 1.99999996e-002
      9.99999978e-003 0. 9.99999978e-003 0. 0. 9.99999978e-003
      9.99999978e-003 9.99999978e-003 2.99999993e-002 1.99999996e-002 0.
      9.99999978e-003 9.99999978e-003 0. 1.99999996e-002 9.99999978e-003
      9.99999978e-003 0. 0. 0. 0. 9.99999978e-003 1.99999996e-002
      9.99999978e-003 1.99999996e-002 9.99999978e-003 5.99999987e-002
      1.99999996e-002 1.99999996e-002 2.99999993e-002 1.99999996e-002
      1.99999996e-002 0. 0. 0. 9.99999978e-003 2.99999993e-002 0.
      2.99999993e-002 1.99999996e-002 4.99999970e-002 4.99999970e-002
      9.99999978e-003 9.99999978e-003 0. 1.99999996e-002 3.99999991e-002
      0. 0. 0. 0. 0. 0. 9.99999978e-003 0. 0. 0. 0. 0. 0. 0.
      9.99999978e-003 0. 9.99999978e-003 0. 0. 9.99999978e-003
      2.99999993e-002 9.99999978e-003 9.99999978e-003 0. 0.
      9.99999978e-003 0. 9.99999978e-003 1.99999996e-002 1.99999996e-002
      0. 0. 9.99999978e-003 9.99999978e-003 0. 9.99999978e-003 0. 0.
      9.99999978e-003 0. 9.99999978e-003 9.99999978e-003 0.</_>
    <_>
      3.99999991e-002 9.99999978e-003 1.99999996e-002 0. 0.
      9.99999978e-003 9.99999978e-003 0. 1.99999996e-002 9.99999978e-003
      9.99999978e-003 9.99999978e-003 1.99999996e-002 0. 0.
      9.99999978e-003 0. 0. 0. 0. 0. 0. 9.99999978e-003 9.99999978e-003
      9.99999978e-003 9.99999978e-003 1.99999996e-002 9.99999978e-003
      5.99999987e-002 1.99999996e-002 0. 0. 0. 0. 0. 0. 9.99999978e-003
      9.99999978e-003 0. 9.99999978e-003 0. 1.99999996e-002 0.
      1.99999996e-002 0. 0. 9.99999978e-003 2.99999993e-002 0. 0.
      9.99999978e-003 9.99999978e-003 3.99999991e-002 1.99999996e-002
      9.99999978e-003 9.99999978e-003 9.99999978e-003 0. 9.99999978e-003
      9.99999978e-003 0. 0. 9.99999978e-003 0. 3.99999991e-002 0.
      9.99999978e-003 0. 0. 0. 3.99999991e-002 1.99999996e-002 0.
      9.99999978e-003 3.99999991e-002 0. 0. 1.99999996e-002
      9.99999978e-003 0. 0. 5.99999987e-002 0. 9.99999978e-003
      9.99999978e-003 9.99999978e-003 9.99999978e-003 1.99999996e-002
      1.99999996e-002 0. 1.99999996e-002 0. 0. 9.99999978e-003
      1.99999996e-002 0. 0. 1.99999996e-002 0. 2.99999993e-002</_>
    <_>
      2.99999993e-002 1.99999996e-002 2.99999993e-002 0. 1.99999996e-002
      0. 0. 0. 0. 0. 0. 2.99999993e-002 1.99999996e-002 0. 0. 0.
      1.99999996e-002 0. 0. 0. 1.99999996e-002 0. 0. 9.99999978e-003 0.
      0. 0. 1.99999996e-002 4.99999970e-002 4.99999970e-002 0. 0. 0. 0.
      9.99999978e-003 0. 0. 1.99999996e-002 0. 1.99999996e-002 0.
      9.99999978e-003 9.99999978e-003 9.99999978e-003 0. 0. 0. 0. 0.
      1.99999996e-002 9.99999978e-003 9.99999978e-003 9.99999978e-003
      2.99999993e-002 0. 9.99999978e-003 9.99999978e-003 0. 0. 0. 0.
      9.99999978e-003 9.99999978e-003 9.99999978e-003 9.99999978e-003
      2.99999993e-002 1.99999996e-002 0. 0. 0. 7.00000003e-002 0. 0.
      1.99999996e-002 2.99999993e-002 0. 9.99999978e-003 4.99999970e-002
      1.99999996e-002 9.99999978e-003 0. 1.99999996e-002 0. 0. 0.
      1.99999996e-002 9.99999978e-003 0. 9.99999978e-003 0.
      9.99999978e-003 0. 0. 0. 9.99999978e-003 9.99999978e-003
      9.99999978e-003 0. 9.99999978e-003 8.99999961e-002</_>
    <_>
      0. 9.99999978e-003 9.99999978e-003 0. 1.99999996e-002 0.
      9.99999978e-003 9.99999978e-003 9.99999978e-003 9.99999978e-003 0.
      9.99999978e-003 9.99999978e-003 0. 9.99999978e-003 9.99999978e-003
      9.99999978e-003 9.99999978e-003 9.99999978e-003 9.99999978e-003
      2.99999993e-002 1.99999996e-002 0. 1.99999996e-002 0.
      9.99999978e-003 9.99999978e-003 9.99999978e-003 0. 1.99999996e-002
      0. 9.99999978e-003 0. 9.99999978e-003 9.99999978e-003 0.
      9.99999978e-003 9.99999978e-003 0. 9.99999978e-003 1.99999996e-002
      1.99999996e-002 9.99999978e-003 9.99999978e-003 0. 0.
      9.99999978e-003 0. 2.99999993e-002 1.99999996e-002 1.99999996e-002
      9.99999978e-003 9.99999978e-003 9.99999978e-003 9.99999978e-003
      9.99999978e-003 1.99999996e-002 9.99999978e-003 9.99999978e-003 0.
      9.99999978e-003 0. 9.99999978e-003 9.99999978e-003 0. 0.
      9.99999978e-003 0. 0. 9.99999978e-003 9.99999978e-003
      9.99999978e-003 2.99999993e-002 1.99999996e-002 1.99999996e-002 0.
      0. 2.99999993e-002 9.99999978e-003 0. 0. 9.99999978e-003
      9.99999978e-003 0. 2.99999993e-002 2.99999993e-002 0.
      1.99999996e-002 0. 9.99999978e-003 0. 0. 1.99999996e-002
      3.99999991e-002 9.99999978e-003 9.99999978e-003 1.99999996e-002
      9.99999978e-003 0. 2.99999993e-002</_>
    <_>
      0. 1.99999996e-002 0. 0. 1.99999996e-002 9.99999978e-003
      9.99999978e-003 0. 0. 1.99999996e-002 0. 0. 9.99999978e-003 0. 0.
      9.99999978e-003 0. 3.99999991e-002 0. 1.99999996e-002 0.
      1.99999996e-002 9.99999978e-003 3.99999991e-002 0. 9.99999978e-003
      9.99999978e-003 0. 9.99999978e-003 1.99999996e-002 9.99999978e-003
      0. 1.99999996e-002 1.99999996e-002 9.99999978e-003 0. 0.
      1.99999996e-002 9.99999978e-003 2.99999993e-002 1.99999996e-002
      9.99999978e-003 9.99999978e-003 2.99999993e-002 0. 9.99999978e-003
      0. 0. 3.99999991e-002 9.99999978e-003 0. 9.99999978e-003 0.
      1.99999996e-002 0. 2.99999993e-002 1.99999996e-002 9.99999978e-003
      0. 0. 1.99999996e-002 1.99999996e-002 0. 0. 1.99999996e-002
      9.99999978e-003 0. 9.99999978e-003 0. 0. 0. 9.99999978e-003
      3.99999991e-002 9.99999978e-003 0. 9.99999978e-003 9.99999978e-003
      0. 0. 0. 9.99999978e-003 0. 9.99999978e-003 1.99999996e-002
      1.99999996e-002 9.99999978e-003 9.99999978e-003 9.99999978e-003 0.
      0. 9.99999978e-003 0. 2.99999993e-002 9.99999978e-003
      9.99999978e-003 9.99999978e-003 1.99999996e-002 9.99999978e-003
      1.99999996e-002 9.99999978e-003</_>
    <_>
      9.99999978e-003 1.99999996e-002 1.99999996e-002 0. 1.99999996e-002
      9.99999978e-003 9.99999978e-003 9.99999978e-003 9.99999978e-003
      9.99999978e-003 0. 0. 9.99999978e-003 0. 1.99999996e-002
      1.99999996e-002 9.99999978e-003 0. 2.99999993e-002 9.99999978e-003
      0. 9.99999978e-003 9.99999978e-003 2.99999993e-002 9.99999978e-003
      9.99999978e-003 9.99999978e-003 0. 9.99999978e-003 9.99999978e-003
      0. 0. 0. 0. 1.99999996e-002 2.99999993e-002 9.99999978e-003
      1.99999996e-002 0. 0. 0. 9.99999978e-003 0. 9.99999978e-003
      2.99999993e-002 9.99999978e-003 0. 0. 0. 0. 1.99999996e-002
      9.99999978e-003 0. 9.99999978e-003 9.99999978e-003 9.99999978e-003
      0. 9.99999978e-003 9.99999978e-003 1.99999996e-002 9.99999978e-003
      9.99999978e-003 9.99999978e-003 2.99999993e-002 0. 9.99999978e-003
      9.99999978e-003 9.99999978e-003 9.99999978e-003 0. 9.99999978e-003
      9.99999978e-003 9.99999978e-003 0. 0. 0. 9.99999978e-003
      1.99999996e-002 9.99999978e-003 1.99999996e-002 0. 0. 0. 0.
      4.99999970e-002 0. 9.99999978e-003 1.99999996e-002 9.99999978e-003
      9.99999978e-003 9.99999978e-003 0. 2.99999993e-002 1.99999996e-002
      9.99999978e-003 1.99999996e-002 9.99999978e-003 1.99999996e-002
      2.99999993e-002 0.</_></support_vectors>
  <decision_functions>
    <_>
      <sv_count>34</sv_count>
      <rho>-9.9694366315000371e-001</rho>
      <alpha>
        7.8932635691492448e-001 1.2948737956440035e-001
        8.6993487270572400e-001 3.3211987501436291e-001
        4.2796242306322785e-001 8.5406227841549476e-001
        1.2520291159038346e-001 6.2417127594873101e-001
        4.4044509957924616e-001 2.7214094646113401e-001
        8.2109085892992761e-001 3.7889823449306104e-001
        2.7149094372547583e-001 1.6148234038409173e-001
        4.2096558752304952e-001 4.0038224058522748e-001
        3.9864915659528918e-002 3.0895474399005024e-001
        4.1470509022105878e-001 6.4255520028524152e-002
        5.8005504122906482e-001 2.1514384372493497e-001
        9.5048791992180859e-001 1.0736930032656716e-001 -1. -1. -1. -1.
        -1. -1. -1. -1. -1. -1.</alpha>
      <index>
        10 29 30 31 32 12 11 33 13 14 15 16 17 18 19 20 21 22 23 24 25
        26 27 28 1 2 3 4 5 6 7 8 9 0</index></_></decision_functions></opencv_ml_svm>
</opencv_storage>
