<?xml version="1.0"?>
<opencv_storage>
<opencv_ml_svm>
  <format>3</format>
  <svmType>C_SVC</svmType>
  <kernel>
    <type>RBF</type>
    <gamma>1.</gamma></kernel>
  <C>1.</C>
  <term_criteria><epsilon>1.1920928955078125e-007</epsilon>
    <iterations>1000</iterations></term_criteria>
  <var_count>100</var_count>
  <class_count>2</class_count>
  <class_labels type_id="opencv-matrix">
    <rows>2</rows>
    <cols>1</cols>
    <dt>i</dt>
    <data>
      0 1</data></class_labels>
  <sv_total>41</sv_total>
  <support_vectors>
    <_>
      5.99999987e-002 1.99999996e-002 9.99999978e-003 9.99999978e-003
      1.99999996e-002 3.99999991e-002 0. 0. 1.99999996e-002
      9.99999978e-003 0. 0. 0. 0. 0. 0. 1.99999996e-002 1.99999996e-002
      0. 1.99999996e-002 9.99999978e-003 0. 0. 0. 9.99999978e-003 0.
      9.99999978e-003 9.99999978e-003 2.99999993e-002 9.99999978e-003
      9.99999978e-003 0. 0. 9.99999978e-003 9.99999978e-003 0. 0.
      9.99999978e-003 1.99999996e-002 0. 3.99999991e-002 9.99999978e-003
      1.99999996e-002 0. 0. 9.99999978e-003 0. 1.99999996e-002
      9.99999978e-003 9.99999978e-003 3.99999991e-002 9.99999978e-003
      9.99999978e-003 0. 1.99999996e-002 1.99999996e-002 9.99999978e-003
      9.99999978e-003 0. 0. 9.99999978e-003 0. 0. 0. 9.99999978e-003 0.
      9.99999978e-003 9.99999978e-003 1.99999996e-002 1.99999996e-002 0.
      0. 9.99999978e-003 1.99999996e-002 5.99999987e-002 1.99999996e-002
      9.99999978e-003 0. 2.99999993e-002 0. 0. 9.99999978e-003
      9.99999978e-003 1.99999996e-002 0. 0. 0. 9.99999978e-003
      1.99999996e-002 0. 9.99999978e-003 0. 0. 9.99999978e-003
      9.99999978e-003 1.99999996e-002 9.99999978e-003 0. 9.99999978e-003
      0.</_>
    <_>
      0. 1.99999996e-002 9.99999978e-003 0. 9.99999978e-003 0.
      9.99999978e-003 0. 2.99999993e-002 9.99999978e-003 0.
      9.99999978e-003 0. 0. 9.99999978e-003 9.99999978e-003
      9.99999978e-003 0. 0. 9.99999978e-003 9.99999978e-003
      5.99999987e-002 9.99999978e-003 9.99999978e-003 9.99999978e-003
      2.99999993e-002 9.99999978e-003 9.99999978e-003 0. 9.99999978e-003
      0. 0. 9.99999978e-003 9.99999978e-003 2.99999993e-002 0.
      9.99999978e-003 0. 9.99999978e-003 9.99999978e-003 0.
      9.99999978e-003 9.99999978e-003 9.99999978e-003 1.99999996e-002
      1.99999996e-002 9.99999978e-003 9.99999978e-003 9.99999978e-003
      1.99999996e-002 9.99999978e-003 9.99999978e-003 1.99999996e-002
      9.99999978e-003 9.99999978e-003 1.99999996e-002 1.99999996e-002
      9.99999978e-003 9.99999978e-003 2.99999993e-002 0. 0. 0.
      2.99999993e-002 0. 9.99999978e-003 9.99999978e-003 0.
      1.99999996e-002 9.99999978e-003 0. 0. 9.99999978e-003
      9.99999978e-003 9.99999978e-003 0. 9.99999978e-003 0. 0.
      9.99999978e-003 1.99999996e-002 0. 9.99999978e-003 9.99999978e-003
      1.99999996e-002 1.99999996e-002 1.99999996e-002 2.99999993e-002 0.
      0. 0. 0. 0. 1.99999996e-002 0. 9.99999978e-003 9.99999978e-003
      2.99999993e-002 1.99999996e-002 0.</_>
    <_>
      0. 3.99999991e-002 1.99999996e-002 0. 1.99999996e-002 0.
      1.99999996e-002 1.99999996e-002 1.99999996e-002 9.99999978e-003
      1.99999996e-002 0. 1.99999996e-002 0. 2.99999993e-002 0.
      9.99999978e-003 0. 1.99999996e-002 0. 9.99999978e-003
      9.99999978e-003 1.99999996e-002 0. 0. 1.99999996e-002
      2.99999993e-002 9.99999978e-003 0. 1.99999996e-002 0. 0. 0.
      9.99999978e-003 1.99999996e-002 9.99999978e-003 0. 1.99999996e-002
      9.99999978e-003 1.99999996e-002 1.99999996e-002 1.99999996e-002 0.
      0. 0. 9.99999978e-003 9.99999978e-003 0. 2.99999993e-002
      9.99999978e-003 9.99999978e-003 9.99999978e-003 0. 2.99999993e-002
      1.99999996e-002 0. 0. 9.99999978e-003 1.99999996e-002
      9.99999978e-003 0. 1.99999996e-002 0. 9.99999978e-003 0.
      9.99999978e-003 9.99999978e-003 0. 9.99999978e-003 0. 0.
      1.99999996e-002 2.99999993e-002 9.99999978e-003 9.99999978e-003 0.
      0. 0. 0. 0. 2.99999993e-002 0. 0. 0. 1.99999996e-002
      1.99999996e-002 9.99999978e-003 9.99999978e-003 0. 9.99999978e-003
      0. 0. 9.99999978e-003 1.99999996e-002 9.99999978e-003
      9.99999978e-003 0. 1.99999996e-002 9.99999978e-003 1.99999996e-002</_>
    <_>
      0. 1.99999996e-002 9.99999978e-003 9.99999978e-003 3.99999991e-002
      0. 0. 3.99999991e-002 9.99999978e-003 9.99999978e-003
      9.99999978e-003 1.99999996e-002 9.99999978e-003 0. 0.
      9.99999978e-003 9.99999978e-003 0. 0. 9.99999978e-003
      9.99999978e-003 9.99999978e-003 1.99999996e-002 9.99999978e-003
      9.99999978e-003 0. 9.99999978e-003 9.99999978e-003 0. 0. 0.
      1.99999996e-002 9.99999978e-003 9.99999978e-003 9.99999978e-003
      1.99999996e-002 0. 9.99999978e-003 0. 0. 3.99999991e-002
      2.99999993e-002 9.99999978e-003 9.99999978e-003 9.99999978e-003
      9.99999978e-003 9.99999978e-003 0. 2.99999993e-002 2.99999993e-002
      0. 0. 9.99999978e-003 1.99999996e-002 0. 9.99999978e-003 0. 0.
      2.99999993e-002 0. 9.99999978e-003 0. 0. 9.99999978e-003
      9.99999978e-003 1.99999996e-002 9.99999978e-003 0. 0.
      9.99999978e-003 9.99999978e-003 9.99999978e-003 9.99999978e-003
      9.99999978e-003 0. 9.99999978e-003 9.99999978e-003 0. 0. 0.
      9.99999978e-003 0. 0. 9.99999978e-003 9.99999978e-003
      9.99999978e-003 0. 9.99999978e-003 9.99999978e-003 0.
      2.99999993e-002 0. 9.99999978e-003 1.99999996e-002 3.99999991e-002
      0. 1.99999996e-002 3.99999991e-002 1.99999996e-002 9.99999978e-003</_>
    <_>
      0. 1.99999996e-002 1.99999996e-002 0. 9.99999978e-003
      1.99999996e-002 9.99999978e-003 0. 9.99999978e-003 0.
      1.99999996e-002 9.99999978e-003 9.99999978e-003 0. 9.99999978e-003
      0. 0. 9.99999978e-003 0. 2.99999993e-002 0. 1.99999996e-002 0.
      1.99999996e-002 9.99999978e-003 0. 9.99999978e-003 0. 0. 0.
      9.99999978e-003 1.99999996e-002 9.99999978e-003 0. 0. 0.
      9.99999978e-003 9.99999978e-003 0. 2.99999993e-002 0. 0.
      2.99999993e-002 0. 1.99999996e-002 0. 9.99999978e-003 0. 0.
      9.99999978e-003 1.99999996e-002 1.99999996e-002 9.99999978e-003
      9.99999978e-003 9.99999978e-003 0. 4.99999970e-002 0. 0. 0.
      9.99999978e-003 0. 0. 9.99999978e-003 2.99999993e-002
      9.99999978e-003 0. 9.99999978e-003 2.99999993e-002 2.99999993e-002
      1.99999996e-002 1.99999996e-002 1.99999996e-002 0. 9.99999978e-003
      0. 9.99999978e-003 9.99999978e-003 2.99999993e-002 9.99999978e-003
      9.99999978e-003 0. 0. 4.99999970e-002 9.99999978e-003
      1.99999996e-002 0. 1.99999996e-002 0. 0. 9.99999978e-003
      9.99999978e-003 1.99999996e-002 0. 9.99999978e-003 1.99999996e-002
      9.99999978e-003 1.99999996e-002 9.99999978e-003 0.</_>
    <_>
      0. 0. 0. 0. 0. 0. 9.99999978e-003 2.99999993e-002 1.99999996e-002
      0. 0. 9.99999978e-003 9.99999978e-003 0. 9.99999978e-003
      4.99999970e-002 9.99999978e-003 9.99999978e-003 2.99999993e-002
      9.99999978e-003 0. 0. 1.99999996e-002 9.99999978e-003 0. 0.
      9.99999978e-003 9.99999978e-003 0. 0. 0. 1.99999996e-002
      9.99999978e-003 0. 1.99999996e-002 9.99999978e-003 2.99999993e-002
      1.99999996e-002 9.99999978e-003 0. 1.99999996e-002 9.99999978e-003
      1.99999996e-002 1.99999996e-002 0. 2.99999993e-002 9.99999978e-003
      9.99999978e-003 9.99999978e-003 9.99999978e-003 9.99999978e-003 0.
      0. 9.99999978e-003 0. 1.99999996e-002 9.99999978e-003
      9.99999978e-003 2.99999993e-002 9.99999978e-003 9.99999978e-003 0.
      0. 0. 0. 0. 9.99999978e-003 9.99999978e-003 9.99999978e-003
      9.99999978e-003 9.99999978e-003 9.99999978e-003 2.99999993e-002 0.
      0. 9.99999978e-003 1.99999996e-002 9.99999978e-003 9.99999978e-003
      1.99999996e-002 1.99999996e-002 0. 1.99999996e-002 9.99999978e-003
      9.99999978e-003 0. 0. 1.99999996e-002 9.99999978e-003
      9.99999978e-003 1.99999996e-002 0. 1.99999996e-002 1.99999996e-002
      9.99999978e-003 0. 1.99999996e-002 1.99999996e-002 0.
      9.99999978e-003</_>
    <_>
      0. 9.99999978e-003 0. 1.99999996e-002 9.99999978e-003
      1.99999996e-002 9.99999978e-003 0. 9.99999978e-003 0.
      9.99999978e-003 9.99999978e-003 0. 0. 0. 0. 9.99999978e-003
      9.99999978e-003 0. 9.99999978e-003 2.99999993e-002 1.99999996e-002
      9.99999978e-003 0. 1.99999996e-002 0. 9.99999978e-003 0. 0. 0.
      9.99999978e-003 2.99999993e-002 9.99999978e-003 0. 9.99999978e-003
      0. 0. 0. 1.99999996e-002 1.99999996e-002 1.99999996e-002
      9.99999978e-003 7.00000003e-002 0. 9.99999978e-003 9.99999978e-003
      0. 1.99999996e-002 1.99999996e-002 0. 2.99999993e-002
      9.99999978e-003 9.99999978e-003 0. 3.99999991e-002 0.
      1.99999996e-002 0. 0. 1.99999996e-002 9.99999978e-003 0. 0.
      1.99999996e-002 9.99999978e-003 9.99999978e-003 0. 0.
      5.99999987e-002 3.99999991e-002 1.99999996e-002 0. 0.
      9.99999978e-003 9.99999978e-003 0. 0. 9.99999978e-003
      7.00000003e-002 0. 0. 0. 0. 2.99999993e-002 0. 9.99999978e-003
      9.99999978e-003 0. 9.99999978e-003 1.99999996e-002 0. 0.
      9.99999978e-003 0. 0. 1.99999996e-002 9.99999978e-003 0. 0. 0.</_>
    <_>
      2.99999993e-002 9.99999978e-003 1.99999996e-002 0. 9.99999978e-003
      1.99999996e-002 0. 0. 9.99999978e-003 0. 9.99999978e-003
      1.99999996e-002 0. 0. 9.99999978e-003 0. 9.99999978e-003 0.
      9.99999978e-003 9.99999978e-003 0. 1.99999996e-002 0. 0.
      9.99999978e-003 9.99999978e-003 3.99999991e-002 9.99999978e-003
      2.99999993e-002 1.99999996e-002 0. 9.99999978e-003 9.99999978e-003
      1.99999996e-002 0. 0. 1.99999996e-002 0. 0. 0. 0. 9.99999978e-003
      9.99999978e-003 9.99999978e-003 9.99999978e-003 2.99999993e-002 0.
      9.99999978e-003 0. 1.99999996e-002 2.99999993e-002 9.99999978e-003
      2.99999993e-002 9.99999978e-003 3.99999991e-002 0. 9.99999978e-003
      1.99999996e-002 9.99999978e-003 9.99999978e-003 0. 0. 0. 0.
      9.99999978e-003 9.99999978e-003 9.99999978e-003 9.99999978e-003
      2.99999993e-002 9.99999978e-003 9.99999978e-003 1.99999996e-002 0.
      1.99999996e-002 9.99999978e-003 0. 0. 9.99999978e-003
      2.99999993e-002 9.99999978e-003 0. 9.99999978e-003 1.99999996e-002
      3.99999991e-002 0. 1.99999996e-002 0. 1.99999996e-002
      1.99999996e-002 0. 1.99999996e-002 0. 0. 0. 9.99999978e-003
      9.99999978e-003 0. 0. 0. 0.</_>
    <_>
      1.99999996e-002 9.99999978e-003 1.99999996e-002 9.99999978e-003
      9.99999978e-003 2.99999993e-002 0. 9.99999978e-003 2.99999993e-002
      9.99999978e-003 9.99999978e-003 0. 9.99999978e-003 0.
      9.99999978e-003 1.99999996e-002 9.99999978e-003 9.99999978e-003
      9.99999978e-003 9.99999978e-003 1.99999996e-002 0. 9.99999978e-003
      9.99999978e-003 9.99999978e-003 9.99999978e-003 1.99999996e-002
      9.99999978e-003 1.99999996e-002 0. 0. 9.99999978e-003
      1.99999996e-002 0. 1.99999996e-002 0. 1.99999996e-002 0.
      9.99999978e-003 9.99999978e-003 0. 9.99999978e-003 3.99999991e-002
      0. 1.99999996e-002 0. 9.99999978e-003 0. 9.99999978e-003 0.
      2.99999993e-002 9.99999978e-003 9.99999978e-003 9.99999978e-003
      9.99999978e-003 0. 9.99999978e-003 9.99999978e-003 0.
      9.99999978e-003 1.99999996e-002 9.99999978e-003 0. 9.99999978e-003
      1.99999996e-002 9.99999978e-003 9.99999978e-003 1.99999996e-002
      9.99999978e-003 1.99999996e-002 9.99999978e-003 9.99999978e-003
      9.99999978e-003 9.99999978e-003 9.99999978e-003 1.99999996e-002
      9.99999978e-003 0. 1.99999996e-002 0. 0. 9.99999978e-003 0.
      9.99999978e-003 0. 9.99999978e-003 0. 0. 9.99999978e-003
      9.99999978e-003 9.99999978e-003 0. 9.99999978e-003 9.99999978e-003
      1.99999996e-002 0. 9.99999978e-003 9.99999978e-003 0.
      1.99999996e-002</_>
    <_>
      2.99999993e-002 0. 1.99999996e-002 9.99999978e-003 0.
      1.99999996e-002 9.99999978e-003 9.99999978e-003 9.99999978e-003
      9.99999978e-003 0. 0. 9.99999978e-003 0. 0. 0. 2.99999993e-002 0.
      0. 0. 9.99999978e-003 0. 0. 0. 0. 9.99999978e-003 2.99999993e-002
      9.99999978e-003 1.99999996e-002 9.99999978e-003 0. 0.
      9.99999978e-003 9.99999978e-003 9.99999978e-003 0. 2.99999993e-002
      9.99999978e-003 9.99999978e-003 0. 1.99999996e-002 9.99999978e-003
      2.99999993e-002 0. 9.99999978e-003 3.99999991e-002 0.
      9.99999978e-003 0. 1.99999996e-002 1.99999996e-002 9.99999978e-003
      2.99999993e-002 1.99999996e-002 2.99999993e-002 0. 3.99999991e-002
      0. 0. 0. 0. 0. 9.99999978e-003 9.99999978e-003 0. 0. 0.
      9.99999978e-003 3.99999991e-002 0. 1.99999996e-002 9.99999978e-003
      0. 1.99999996e-002 1.99999996e-002 1.99999996e-002 1.99999996e-002
      0. 9.99999978e-003 0. 9.99999978e-003 3.99999991e-002
      9.99999978e-003 2.99999993e-002 9.99999978e-003 2.99999993e-002 0.
      9.99999978e-003 1.99999996e-002 9.99999978e-003 0. 0. 0. 0.
      9.99999978e-003 0. 9.99999978e-003 0. 0. 0.</_>
    <_>
      9.99999978e-003 0. 0. 0. 9.99999978e-003 9.99999978e-003
      9.99999978e-003 0. 1.99999996e-002 0. 0. 0. 9.99999978e-003
      7.99999982e-002 0. 0. 1.99999996e-002 3.99999991e-002 0.
      9.99999978e-003 0. 9.99999978e-003 9.99999978e-003 0. 0. 0.
      9.99999978e-003 0. 0. 0. 2.99999993e-002 3.99999991e-002
      9.99999978e-003 0. 2.99999993e-002 1.99999996e-002 0.
      9.99999978e-003 0. 9.99999978e-003 9.99999978e-003 0.
      9.99999978e-003 0. 0. 0. 0. 0. 0. 0. 9.99999978e-003 0.
      9.99999978e-003 1.99999996e-002 0. 1.99999996e-002 0. 0.
      9.99999978e-003 0. 2.99999993e-002 0. 1.99999996e-002
      9.99999978e-003 0. 1.99999996e-002 0. 0. 9.99999978e-003
      9.99999978e-003 0. 9.99999978e-003 9.99999978e-003 0. 0.
      7.00000003e-002 0. 9.99999978e-003 0. 0. 0. 9.99999978e-003 0.
      1.99999996e-002 9.99999978e-003 9.99999978e-003 0. 1.99999996e-002
      1.99999996e-002 9.99999978e-003 0. 1.19999997e-001 1.99999996e-002
      0. 9.99999978e-003 1.99999996e-002 1.99999996e-002 9.99999978e-003
      0. 9.99999978e-003</_>
    <_>
      2.99999993e-002 0. 9.99999978e-003 0. 2.99999993e-002
      9.99999978e-003 0. 0. 0. 1.99999996e-002 0. 0. 0. 0. 0.
      9.99999978e-003 2.99999993e-002 9.99999978e-003 0. 2.99999993e-002
      0. 0. 9.99999978e-003 9.99999978e-003 9.99999978e-003 0.
      9.99999978e-003 9.99999978e-003 9.99999978e-003 0. 9.99999978e-003
      9.99999978e-003 1.99999996e-002 1.99999996e-002 0. 9.99999978e-003
      9.99999978e-003 9.99999978e-003 0. 2.99999993e-002 9.99999978e-003
      9.99999978e-003 2.99999993e-002 1.99999996e-002 0. 9.99999978e-003
      0. 0. 3.99999991e-002 1.99999996e-002 9.99999978e-003
      9.99999978e-003 9.99999978e-003 9.99999978e-003 0. 1.99999996e-002
      5.99999987e-002 9.99999978e-003 9.99999978e-003 0. 2.99999993e-002
      0. 9.99999978e-003 9.99999978e-003 0. 0. 9.99999978e-003
      2.99999993e-002 9.99999978e-003 9.99999978e-003 0. 0.
      1.99999996e-002 0. 1.99999996e-002 2.99999993e-002 0.
      9.99999978e-003 9.99999978e-003 9.99999978e-003 0. 9.99999978e-003
      9.99999978e-003 1.99999996e-002 0. 1.99999996e-002 9.99999978e-003
      0. 0. 9.99999978e-003 9.99999978e-003 0. 1.99999996e-002
      9.99999978e-003 0. 9.99999978e-003 0. 1.99999996e-002 0. 0.</_>
    <_>
      9.99999978e-003 3.99999991e-002 9.99999978e-003 0. 0.
      2.99999993e-002 9.99999978e-003 0. 2.99999993e-002 9.99999978e-003
      0. 0. 1.99999996e-002 0. 0. 1.99999996e-002 0. 0. 0.
      9.99999978e-003 9.99999978e-003 0. 9.99999978e-003 9.99999978e-003
      0. 2.99999993e-002 9.99999978e-003 9.99999978e-003 9.99999978e-003
      9.99999978e-003 0. 1.99999996e-002 9.99999978e-003 1.99999996e-002
      9.99999978e-003 0. 9.99999978e-003 0. 0. 9.99999978e-003
      9.99999978e-003 0. 9.99999978e-003 9.99999978e-003 1.99999996e-002
      9.99999978e-003 0. 1.99999996e-002 0. 0. 1.99999996e-002
      9.99999978e-003 9.99999978e-003 9.99999978e-003 9.99999978e-003
      1.99999996e-002 1.99999996e-002 1.99999996e-002 3.99999991e-002
      9.99999978e-003 1.99999996e-002 9.99999978e-003 9.99999978e-003
      9.99999978e-003 9.99999978e-003 0. 9.99999978e-003 9.99999978e-003
      0. 0. 1.99999996e-002 9.99999978e-003 9.99999978e-003 0.
      9.99999978e-003 0. 0. 0. 9.99999978e-003 0. 2.99999993e-002
      9.99999978e-003 0. 1.99999996e-002 2.99999993e-002 9.99999978e-003
      1.99999996e-002 2.99999993e-002 0. 9.99999978e-003 0. 0. 0.
      1.99999996e-002 9.99999978e-003 2.99999993e-002 9.99999978e-003 0.
      9.99999978e-003 0.</_>
    <_>
      0. 9.99999978e-003 1.99999996e-002 0. 9.99999978e-003
      2.99999993e-002 2.99999993e-002 9.99999978e-003 2.99999993e-002
      9.99999978e-003 9.99999978e-003 0. 0. 0. 3.99999991e-002 0.
      1.99999996e-002 9.99999978e-003 0. 9.99999978e-003 0.
      9.99999978e-003 9.99999978e-003 2.99999993e-002 9.99999978e-003
      1.99999996e-002 9.99999978e-003 0. 0. 0. 0. 9.99999978e-003
      1.99999996e-002 9.99999978e-003 9.99999978e-003 0. 2.99999993e-002
      0. 9.99999978e-003 9.99999978e-003 9.99999978e-003 9.99999978e-003
      2.99999993e-002 1.99999996e-002 9.99999978e-003 9.99999978e-003
      9.99999978e-003 0. 9.99999978e-003 1.99999996e-002 9.99999978e-003
      0. 0. 0. 9.99999978e-003 9.99999978e-003 0. 1.99999996e-002
      2.99999993e-002 1.99999996e-002 0. 1.99999996e-002 0.
      9.99999978e-003 0. 0. 0. 0. 9.99999978e-003 9.99999978e-003 0. 0.
      9.99999978e-003 0. 0. 1.99999996e-002 9.99999978e-003 0. 0.
      9.99999978e-003 1.99999996e-002 0. 0. 2.99999993e-002
      2.99999993e-002 9.99999978e-003 1.99999996e-002 9.99999978e-003 0.
      9.99999978e-003 0. 0. 2.99999993e-002 9.99999978e-003 0.
      1.99999996e-002 9.99999978e-003 1.99999996e-002 1.99999996e-002 0.</_>
    <_>
      0. 0. 9.99999978e-003 9.99999978e-003 9.99999978e-003
      9.99999978e-003 9.99999978e-003 1.99999996e-002 2.99999993e-002
      1.99999996e-002 9.99999978e-003 0. 2.99999993e-002 0.
      1.99999996e-002 0. 9.99999978e-003 1.99999996e-002 0.
      9.99999978e-003 0. 3.99999991e-002 9.99999978e-003 0. 0.
      1.99999996e-002 0. 9.99999978e-003 0. 0. 0. 2.99999993e-002
      2.99999993e-002 0. 0. 9.99999978e-003 9.99999978e-003
      9.99999978e-003 9.99999978e-003 1.99999996e-002 5.99999987e-002
      9.99999978e-003 1.99999996e-002 0. 0. 9.99999978e-003 0. 0. 0.
      9.99999978e-003 9.99999978e-003 0. 0. 9.99999978e-003
      9.99999978e-003 3.99999991e-002 9.99999978e-003 0. 9.99999978e-003
      0. 1.99999996e-002 9.99999978e-003 9.99999978e-003 1.99999996e-002
      0. 1.99999996e-002 0. 9.99999978e-003 0. 0. 0. 0. 9.99999978e-003
      0. 0. 0. 9.99999978e-003 0. 0. 1.99999996e-002 2.99999993e-002 0.
      0. 4.99999970e-002 0. 9.99999978e-003 0. 9.99999978e-003 0.
      2.99999993e-002 0. 0. 3.99999991e-002 9.99999978e-003 0.
      9.99999978e-003 1.99999996e-002 0. 1.99999996e-002 1.99999996e-002</_>
    <_>
      0. 0. 1.99999996e-002 9.99999978e-003 1.99999996e-002
      9.99999978e-003 9.99999978e-003 1.99999996e-002 2.99999993e-002
      1.99999996e-002 0. 0. 0. 9.99999978e-003 9.99999978e-003
      9.99999978e-003 1.99999996e-002 9.99999978e-003 0. 9.99999978e-003
      0. 0. 3.99999991e-002 0. 0. 1.99999996e-002 1.99999996e-002
      9.99999978e-003 0. 0. 0. 1.99999996e-002 0. 0. 0. 1.99999996e-002
      2.99999993e-002 9.99999978e-003 9.99999978e-003 1.99999996e-002 0.
      9.99999978e-003 9.99999978e-003 9.99999978e-003 1.99999996e-002 0.
      1.99999996e-002 0. 9.99999978e-003 1.99999996e-002 2.99999993e-002
      9.99999978e-003 0. 9.99999978e-003 0. 1.99999996e-002
      9.99999978e-003 9.99999978e-003 3.99999991e-002 2.99999993e-002
      3.99999991e-002 0. 0. 0. 0. 0. 9.99999978e-003 9.99999978e-003 0.
      1.99999996e-002 0. 2.99999993e-002 0. 0. 0. 3.99999991e-002 0.
      9.99999978e-003 0. 0. 1.99999996e-002 0. 1.99999996e-002
      1.99999996e-002 9.99999978e-003 9.99999978e-003 1.99999996e-002 0.
      9.99999978e-003 9.99999978e-003 0. 1.99999996e-002 0.
      9.99999978e-003 0. 9.99999978e-003 0. 9.99999978e-003 0. 0.</_>
    <_>
      0. 0. 9.99999978e-003 0. 3.99999991e-002 9.99999978e-003 0.
      1.99999996e-002 1.99999996e-002 9.99999978e-003 2.99999993e-002 0.
      0. 4.99999970e-002 9.99999978e-003 9.99999978e-003 2.99999993e-002
      1.99999996e-002 0. 1.99999996e-002 9.99999978e-003 9.99999978e-003
      9.99999978e-003 0. 0. 0. 9.99999978e-003 9.99999978e-003 0. 0. 0.
      9.99999978e-003 2.99999993e-002 0. 0. 1.99999996e-002
      9.99999978e-003 2.99999993e-002 9.99999978e-003 9.99999978e-003
      3.99999991e-002 9.99999978e-003 9.99999978e-003 0. 1.99999996e-002
      0. 9.99999978e-003 0. 0. 0. 9.99999978e-003 0. 9.99999978e-003 0.
      0. 1.99999996e-002 0. 0. 9.99999978e-003 1.99999996e-002
      1.99999996e-002 0. 0. 0. 0. 0. 0. 0. 9.99999978e-003
      9.99999978e-003 9.99999978e-003 0. 9.99999978e-003 0. 0.
      9.99999978e-003 9.99999978e-003 9.99999978e-003 0. 0.
      9.99999978e-003 9.99999978e-003 1.99999996e-002 1.99999996e-002
      1.99999996e-002 9.99999978e-003 1.99999996e-002 0. 9.99999978e-003
      0. 1.99999996e-002 4.99999970e-002 2.99999993e-002 1.99999996e-002
      0. 9.99999978e-003 2.99999993e-002 9.99999978e-003 9.99999978e-003
      0.</_>
    <_>
      0. 9.99999978e-003 0. 0. 9.99999978e-003 9.99999978e-003
      9.99999978e-003 1.99999996e-002 2.99999993e-002 0. 1.99999996e-002
      9.99999978e-003 1.99999996e-002 9.99999978e-003 9.99999978e-003 0.
      0. 1.99999996e-002 9.99999978e-003 0. 0. 0. 0. 2.99999993e-002 0.
      9.99999978e-003 5.99999987e-002 9.99999978e-003 0. 0.
      9.99999978e-003 1.99999996e-002 9.99999978e-003 0. 9.99999978e-003
      1.99999996e-002 0. 0. 2.99999993e-002 2.99999993e-002
      2.99999993e-002 1.99999996e-002 9.99999978e-003 9.99999978e-003
      1.99999996e-002 0. 1.99999996e-002 9.99999978e-003 1.99999996e-002
      0. 0. 0. 9.99999978e-003 9.99999978e-003 1.99999996e-002 0.
      9.99999978e-003 0. 9.99999978e-003 0. 9.99999978e-003
      1.99999996e-002 1.99999996e-002 0. 9.99999978e-003 2.99999993e-002
      2.99999993e-002 0. 0. 9.99999978e-003 0. 0. 0. 1.99999996e-002 0.
      0. 1.99999996e-002 2.99999993e-002 0. 9.99999978e-003
      9.99999978e-003 0. 9.99999978e-003 0. 0. 9.99999978e-003
      9.99999978e-003 3.99999991e-002 9.99999978e-003 9.99999978e-003
      9.99999978e-003 0. 0. 0. 1.99999996e-002 9.99999978e-003 0.
      1.99999996e-002 0. 0.</_>
    <_>
      9.99999978e-003 1.99999996e-002 2.99999993e-002 0. 9.99999978e-003
      2.99999993e-002 9.99999978e-003 9.99999978e-003 1.99999996e-002
      9.99999978e-003 9.99999978e-003 1.99999996e-002 1.99999996e-002 0.
      0. 0. 0. 9.99999978e-003 1.99999996e-002 9.99999978e-003
      9.99999978e-003 0. 1.99999996e-002 9.99999978e-003 0.
      9.99999978e-003 9.99999978e-003 1.99999996e-002 9.99999978e-003
      1.99999996e-002 0. 1.99999996e-002 1.99999996e-002 1.99999996e-002
      0. 1.99999996e-002 9.99999978e-003 1.99999996e-002 0. 0.
      9.99999978e-003 3.99999991e-002 0. 0. 9.99999978e-003 0. 0. 0.
      9.99999978e-003 0. 2.99999993e-002 0. 1.99999996e-002
      9.99999978e-003 0. 1.99999996e-002 0. 0. 9.99999978e-003 0.
      9.99999978e-003 9.99999978e-003 0. 9.99999978e-003 0.
      9.99999978e-003 3.99999991e-002 0. 0. 9.99999978e-003 0. 0.
      9.99999978e-003 1.99999996e-002 1.99999996e-002 0. 9.99999978e-003
      9.99999978e-003 9.99999978e-003 0. 9.99999978e-003 9.99999978e-003
      1.99999996e-002 9.99999978e-003 9.99999978e-003 0. 9.99999978e-003
      9.99999978e-003 9.99999978e-003 0. 9.99999978e-003 0.
      2.99999993e-002 9.99999978e-003 3.99999991e-002 0. 9.99999978e-003
      1.99999996e-002 0. 0.</_>
    <_>
      9.99999978e-003 1.99999996e-002 1.99999996e-002 0. 1.99999996e-002
      9.99999978e-003 9.99999978e-003 0. 0. 2.99999993e-002 0. 0. 0. 0.
      2.99999993e-002 9.99999978e-003 0. 9.99999978e-003 9.99999978e-003
      9.99999978e-003 0. 3.99999991e-002 2.99999993e-002 0. 0.
      9.99999978e-003 1.99999996e-002 9.99999978e-003 0. 0.
      9.99999978e-003 1.99999996e-002 0. 1.99999996e-002 9.99999978e-003
      2.99999993e-002 1.99999996e-002 9.99999978e-003 0. 9.99999978e-003
      2.99999993e-002 1.99999996e-002 1.99999996e-002 9.99999978e-003 0.
      9.99999978e-003 2.99999993e-002 9.99999978e-003 0. 9.99999978e-003
      9.99999978e-003 9.99999978e-003 0. 0. 0. 0. 9.99999978e-003
      9.99999978e-003 1.99999996e-002 2.99999993e-002 9.99999978e-003
      2.99999993e-002 9.99999978e-003 0. 9.99999978e-003 0. 0. 0.
      9.99999978e-003 1.99999996e-002 0. 9.99999978e-003 0. 0.
      1.99999996e-002 9.99999978e-003 0. 0. 0. 9.99999978e-003
      1.99999996e-002 0. 5.99999987e-002 1.99999996e-002 0.
      9.99999978e-003 9.99999978e-003 9.99999978e-003 0. 9.99999978e-003
      0. 0. 0. 1.99999996e-002 0. 1.99999996e-002 1.99999996e-002 0. 0.
      0.</_>
    <_>
      9.99999978e-003 0. 0. 9.99999978e-003 9.99999978e-003 0.
      9.99999978e-003 9.99999978e-003 9.99999978e-003 0. 9.99999978e-003
      2.99999993e-002 2.99999993e-002 0. 1.99999996e-002 9.99999978e-003
      9.99999978e-003 1.99999996e-002 0. 9.99999978e-003 1.99999996e-002
      0. 1.99999996e-002 1.99999996e-002 9.99999978e-003 0.
      2.99999993e-002 9.99999978e-003 9.99999978e-003 1.99999996e-002
      9.99999978e-003 0. 9.99999978e-003 2.99999993e-002 0. 0.
      9.99999978e-003 2.99999993e-002 9.99999978e-003 1.99999996e-002
      9.99999978e-003 9.99999978e-003 0. 0. 1.99999996e-002
      9.99999978e-003 0. 9.99999978e-003 1.99999996e-002 9.99999978e-003
      0. 0. 0. 0. 9.99999978e-003 2.99999993e-002 0. 9.99999978e-003
      9.99999978e-003 2.99999993e-002 0. 9.99999978e-003 1.99999996e-002
      1.99999996e-002 9.99999978e-003 1.99999996e-002 9.99999978e-003
      9.99999978e-003 9.99999978e-003 2.99999993e-002 0. 2.99999993e-002
      0. 0. 0. 9.99999978e-003 0. 0. 0. 0. 0. 9.99999978e-003 0.
      9.99999978e-003 1.99999996e-002 0. 1.99999996e-002 1.99999996e-002
      9.99999978e-003 0. 9.99999978e-003 0. 1.99999996e-002
      1.99999996e-002 1.99999996e-002 0. 0. 1.99999996e-002 0. 0.</_>
    <_>
      0. 9.99999978e-003 3.99999991e-002 0. 1.99999996e-002 0.
      9.99999978e-003 0. 9.99999978e-003 0. 0. 9.99999978e-003
      5.99999987e-002 0. 9.99999978e-003 9.99999978e-003 1.99999996e-002
      2.99999993e-002 1.99999996e-002 0. 9.99999978e-003 9.99999978e-003
      9.99999978e-003 0. 9.99999978e-003 2.99999993e-002 1.99999996e-002
      2.99999993e-002 0. 0. 0. 1.99999996e-002 0. 0. 9.99999978e-003 0.
      9.99999978e-003 9.99999978e-003 0. 1.99999996e-002 1.99999996e-002
      9.99999978e-003 1.99999996e-002 9.99999978e-003 2.99999993e-002
      9.99999978e-003 9.99999978e-003 0. 0. 9.99999978e-003 0.
      9.99999978e-003 9.99999978e-003 0. 9.99999978e-003 1.99999996e-002
      9.99999978e-003 9.99999978e-003 1.99999996e-002 0. 9.99999978e-003
      1.99999996e-002 9.99999978e-003 0. 0. 9.99999978e-003
      9.99999978e-003 0. 9.99999978e-003 9.99999978e-003 9.99999978e-003
      3.99999991e-002 9.99999978e-003 9.99999978e-003 0. 9.99999978e-003
      0. 9.99999978e-003 0. 9.99999978e-003 0. 0. 1.99999996e-002
      1.99999996e-002 1.99999996e-002 9.99999978e-003 9.99999978e-003 0.
      0. 9.99999978e-003 9.99999978e-003 0. 0. 1.99999996e-002 0. 0.
      9.99999978e-003 1.99999996e-002 9.99999978e-003 9.99999978e-003</_>
    <_>
      0. 0. 9.99999978e-003 0. 9.99999978e-003 1.99999996e-002 0.
      9.99999978e-003 9.99999978e-003 9.99999978e-003 9.99999978e-003 0.
      9.99999978e-003 9.99999978e-003 9.99999978e-003 1.99999996e-002 0.
      9.99999978e-003 0. 0. 9.99999978e-003 0. 0. 9.99999978e-003
      9.99999978e-003 9.99999978e-003 1.99999996e-002 9.99999978e-003 0.
      9.99999978e-003 0. 1.99999996e-002 9.99999978e-003 9.99999978e-003
      9.99999978e-003 0. 1.99999996e-002 0. 1.99999996e-002
      1.99999996e-002 1.99999996e-002 0. 9.99999978e-003 9.99999978e-003
      1.99999996e-002 0. 0. 1.99999996e-002 1.99999996e-002
      1.99999996e-002 9.99999978e-003 1.99999996e-002 9.99999978e-003
      9.99999978e-003 9.99999978e-003 0. 1.99999996e-002 9.99999978e-003
      0. 0. 1.99999996e-002 1.99999996e-002 0. 2.99999993e-002 0. 0.
      9.99999978e-003 9.99999978e-003 9.99999978e-003 9.99999978e-003
      2.99999993e-002 1.99999996e-002 9.99999978e-003 0. 9.99999978e-003
      1.99999996e-002 9.99999978e-003 9.99999978e-003 9.99999978e-003 0.
      0. 0. 1.99999996e-002 3.99999991e-002 1.99999996e-002
      9.99999978e-003 0. 9.99999978e-003 9.99999978e-003 0.
      9.99999978e-003 0. 2.99999993e-002 9.99999978e-003 9.99999978e-003
      9.99999978e-003 1.99999996e-002 9.99999978e-003 9.99999978e-003
      9.99999978e-003</_>
    <_>
      0. 0. 0. 0. 3.99999991e-002 0. 0. 9.99999978e-003 0.
      9.99999978e-003 0. 0. 9.99999978e-003 0. 0. 0. 0. 7.00000003e-002
      9.99999978e-003 0. 0. 9.99999978e-003 0. 9.99999978e-003
      1.99999996e-002 1.99999996e-002 9.99999978e-003 0. 9.99999978e-003
      0. 0. 0. 0. 0. 9.99999978e-003 0. 0. 2.99999993e-002
      1.99999996e-002 9.99999978e-003 2.99999993e-002 0. 9.99999978e-003
      9.99999978e-003 0. 0. 0. 0. 9.99999978e-003 0. 0. 0.
      9.99999978e-003 0. 9.99999978e-003 9.99999978e-003 9.99999978e-003
      1.99999996e-002 0. 0. 1.99999996e-002 0. 9.99999978e-003
      9.99999978e-003 9.99999978e-003 0. 0. 0. 0. 9.99999978e-003
      1.99999996e-002 9.99999978e-003 3.99999991e-002 0. 9.99999978e-003
      1.79999992e-001 9.99999978e-003 9.99999978e-003 0. 0.
      9.99999978e-003 9.99999978e-003 1.99999996e-002 1.99999996e-002
      1.99999996e-002 9.99999978e-003 1.99999996e-002 9.99999978e-003 0.
      0. 0. 9.99999978e-003 0. 0. 9.99999978e-003 9.99999978e-003
      9.99999978e-003 4.99999970e-002 2.99999993e-002 0.</_>
    <_>
      0. 0. 2.99999993e-002 0. 2.99999993e-002 9.99999978e-003
      9.99999978e-003 9.99999978e-003 9.99999978e-003 9.99999978e-003
      9.99999978e-003 9.99999978e-003 9.99999978e-003 0. 1.99999996e-002
      9.99999978e-003 9.99999978e-003 9.99999978e-003 0. 1.99999996e-002
      9.99999978e-003 0. 9.99999978e-003 9.99999978e-003 9.99999978e-003
      9.99999978e-003 9.99999978e-003 0. 0. 9.99999978e-003 0.
      1.99999996e-002 0. 9.99999978e-003 3.99999991e-002 2.99999993e-002
      9.99999978e-003 0. 0. 9.99999978e-003 0. 9.99999978e-003
      9.99999978e-003 9.99999978e-003 9.99999978e-003 0. 0.
      1.99999996e-002 0. 2.99999993e-002 1.99999996e-002 0.
      9.99999978e-003 0. 9.99999978e-003 0. 9.99999978e-003
      1.99999996e-002 1.99999996e-002 9.99999978e-003 1.99999996e-002
      2.99999993e-002 3.99999991e-002 1.99999996e-002 9.99999978e-003 0.
      0. 0. 9.99999978e-003 0. 1.99999996e-002 0. 9.99999978e-003 0. 0.
      1.99999996e-002 0. 0. 1.99999996e-002 9.99999978e-003
      9.99999978e-003 0. 1.99999996e-002 9.99999978e-003 9.99999978e-003
      1.99999996e-002 9.99999978e-003 9.99999978e-003 9.99999978e-003 0.
      0. 0. 0. 9.99999978e-003 9.99999978e-003 9.99999978e-003
      9.99999978e-003 2.99999993e-002 9.99999978e-003 1.99999996e-002</_>
    <_>
      0. 1.99999996e-002 1.99999996e-002 0. 0. 1.99999996e-002
      9.99999978e-003 0. 1.99999996e-002 9.99999978e-003 0. 0.
      9.99999978e-003 0. 9.99999978e-003 0. 9.99999978e-003
      1.99999996e-002 0. 0. 0. 0. 2.99999993e-002 1.99999996e-002 0.
      9.99999978e-003 9.99999978e-003 9.99999978e-003 0. 9.99999978e-003
      0. 3.99999991e-002 0. 0. 1.99999996e-002 0. 1.99999996e-002 0. 0.
      9.99999978e-003 0. 1.99999996e-002 2.99999993e-002 1.99999996e-002
      2.99999993e-002 9.99999978e-003 0. 9.99999978e-003 0.
      1.99999996e-002 0. 1.99999996e-002 9.99999978e-003 0. 0. 0.
      3.99999991e-002 0. 0. 0. 9.99999978e-003 9.99999978e-003
      9.99999978e-003 4.99999970e-002 0. 0. 0. 0. 2.99999993e-002
      9.99999978e-003 2.99999993e-002 1.99999996e-002 9.99999978e-003
      1.99999996e-002 0. 1.99999996e-002 9.99999978e-003 0.
      9.99999978e-003 9.99999978e-003 0. 0. 9.99999978e-003 0. 0.
      4.99999970e-002 3.99999991e-002 9.99999978e-003 9.99999978e-003
      9.99999978e-003 9.99999978e-003 0. 0. 9.99999978e-003 0.
      9.99999978e-003 0. 2.99999993e-002 9.99999978e-003 9.99999978e-003</_>
    <_>
      0. 0. 0. 0. 0. 9.99999978e-003 9.99999978e-003 0. 9.99999978e-003
      0. 0. 1.99999996e-002 4.99999970e-002 0. 0. 0. 0. 0. 0.
      9.99999978e-003 9.99999978e-003 0. 0. 9.99999978e-003 0. 0.
      1.40000001e-001 3.99999991e-002 0. 9.99999978e-003 0. 0. 0. 0. 0.
      0. 0. 1.99999996e-002 0. 0. 0. 3.99999991e-002 0. 0.
      2.99999993e-002 0. 9.99999978e-003 0. 0. 0. 0. 9.99999978e-003
      4.99999970e-002 9.99999978e-003 8.99999961e-002 0. 0. 0. 0. 0. 0.
      0. 0. 9.99999978e-003 9.99999978e-003 3.99999991e-002
      2.99999993e-002 0. 1.99999996e-002 0. 9.99999978e-003
      2.99999993e-002 0. 4.99999970e-002 0. 0. 0. 0. 9.99999978e-003 0.
      0. 4.99999970e-002 0. 0. 4.99999970e-002 1.99999996e-002 0. 0.
      3.99999991e-002 1.99999996e-002 1.99999996e-002 0. 0. 0. 0. 0. 0.
      0. 0. 9.99999978e-003</_>
    <_>
      9.99999978e-003 9.99999978e-003 0. 0. 4.99999970e-002
      9.99999978e-003 0. 0. 0. 0. 0. 2.99999993e-002 9.99999978e-003 0.
      0. 0. 0. 1.99999996e-002 0. 0. 0. 0. 0. 0. 0. 9.99999978e-003
      1.89999998e-001 3.99999991e-002 4.99999970e-002 1.99999996e-002 0.
      1.99999996e-002 0. 0. 1.99999996e-002 0. 0. 9.99999978e-003 0. 0.
      0. 0. 9.99999978e-003 1.99999996e-002 0. 0. 4.99999970e-002 0. 0.
      0. 0. 0. 2.99999993e-002 0. 7.99999982e-002 0. 0. 0. 0. 0. 0. 0.
      0. 9.99999978e-003 0. 9.99999978e-003 1.99999996e-002 0.
      9.99999978e-003 2.99999993e-002 1.99999996e-002 0. 0. 0. 0. 0.
      1.99999996e-002 0. 9.99999978e-003 9.99999978e-003 0.
      4.99999970e-002 0. 0. 9.99999978e-003 0. 9.99999978e-003 0.
      1.99999996e-002 0. 1.99999996e-002 0. 0. 0. 9.99999978e-003 0.
      9.99999978e-003 1.99999996e-002 0. 1.99999996e-002</_>
    <_>
      9.99999978e-003 0. 3.99999991e-002 0. 0. 0. 9.99999940e-002 0.
      7.99999982e-002 9.99999978e-003 9.99999978e-003 1.99999996e-002 0.
      0. 0. 0. 0. 0. 0. 4.99999970e-002 0. 0. 0. 0. 0. 0.
      2.99999993e-002 9.99999978e-003 0. 0. 0. 0. 9.99999978e-003
      3.99999991e-002 0. 0. 5.99999987e-002 0. 0. 2.99999993e-002 0. 0.
      9.99999978e-003 0. 0. 0. 0. 9.99999940e-002 3.99999991e-002
      1.99999996e-002 0. 0. 9.99999978e-003 0. 1.99999996e-002 0. 0. 0.
      0. 0. 0. 0. 0. 9.99999978e-003 5.99999987e-002 1.99999996e-002
      9.99999978e-003 9.99999978e-003 9.99999978e-003 0. 0. 0. 0. 0. 0.
      9.99999978e-003 0. 0. 0. 0. 9.99999978e-003 9.99999978e-003
      9.99999978e-003 9.99999978e-003 0. 0. 9.99999978e-003 0.
      7.00000003e-002 0. 2.99999993e-002 0. 0. 0. 9.99999978e-003 0. 0.
      0. 9.99999978e-003 0.</_>
    <_>
      0. 0. 0. 0. 0. 3.99999991e-002 2.99999993e-002 0. 5.99999987e-002
      0. 1.99999996e-002 9.99999978e-003 9.99999978e-003 0. 0. 0.
      2.99999993e-002 0. 0. 1.99999996e-002 0. 0. 0. 0. 0. 0.
      4.99999970e-002 7.00000003e-002 0. 0. 0. 2.99999993e-002 0.
      1.99999996e-002 0. 0. 0. 0. 0. 9.99999978e-003 0. 1.99999996e-002
      3.99999991e-002 0. 0. 0. 0. 2.99999993e-002 9.99999978e-003 0.
      2.99999993e-002 2.99999993e-002 1.99999996e-002 0. 2.99999993e-002
      0. 0. 0. 0. 0. 1.99999996e-002 0. 0. 0. 1.99999996e-002
      9.99999978e-003 2.99999993e-002 0. 1.99999996e-002 0. 0. 0. 0.
      9.99999978e-003 0. 0. 9.99999978e-003 0. 2.99999993e-002
      9.99999978e-003 1.99999996e-002 9.99999978e-003 2.99999993e-002
      4.99999970e-002 0. 0. 0. 9.99999978e-003 9.99999978e-003 0.
      7.00000003e-002 0. 1.99999996e-002 0. 0. 0. 9.99999978e-003 0. 0.
      0.</_>
    <_>
      0. 0. 0. 0. 0. 0. 2.99999993e-002 0. 3.99999991e-002 0.
      1.99999996e-002 9.99999978e-003 0. 0. 1.99999996e-002
      9.99999978e-003 0. 0. 0. 1.99999996e-002 4.99999970e-002 0. 0.
      1.99999996e-002 0. 1.09999999e-001 3.99999991e-002 9.99999978e-003
      0. 2.99999993e-002 2.99999993e-002 1.99999996e-002 9.99999978e-003
      9.99999978e-003 0. 1.99999996e-002 9.99999978e-003 9.99999978e-003
      2.99999993e-002 0. 0. 0. 0. 0. 1.99999996e-002 0. 1.99999996e-002
      0. 0. 9.99999978e-003 0. 0. 0. 0. 8.99999961e-002 0. 0. 0.
      9.99999978e-003 0. 0. 4.99999970e-002 4.99999970e-002
      9.99999978e-003 0. 1.99999996e-002 0. 0. 0. 9.99999978e-003 0.
      9.99999978e-003 9.99999978e-003 0. 0. 0. 0. 1.99999996e-002 0.
      9.99999978e-003 9.99999978e-003 0. 0. 0. 2.99999993e-002 0. 0.
      9.99999978e-003 0. 9.99999978e-003 0. 0. 0. 0. 9.99999978e-003 0.
      0. 0. 9.99999978e-003 2.99999993e-002</_>
    <_>
      0. 0. 1.99999996e-002 9.99999978e-003 9.99999978e-003
      1.99999996e-002 0. 0. 9.99999978e-003 1.99999996e-002
      9.99999978e-003 9.99999978e-003 0. 0. 9.99999978e-003
      1.99999996e-002 9.99999978e-003 1.99999996e-002 0. 2.99999993e-002
      9.99999978e-003 2.99999993e-002 0. 0. 9.99999978e-003 0.
      9.99999978e-003 0. 0. 0. 2.99999993e-002 0. 9.99999978e-003 0.
      9.99999978e-003 0. 9.99999978e-003 0. 9.99999978e-003
      1.99999996e-002 9.99999978e-003 9.99999978e-003 4.99999970e-002
      1.99999996e-002 9.99999978e-003 9.99999978e-003 9.99999978e-003
      9.99999978e-003 9.99999978e-003 0. 1.99999996e-002 9.99999978e-003
      0. 1.99999996e-002 2.99999993e-002 1.99999996e-002 0.
      1.99999996e-002 1.99999996e-002 9.99999978e-003 3.99999991e-002
      2.99999993e-002 0. 9.99999978e-003 9.99999978e-003 0. 0.
      9.99999978e-003 9.99999978e-003 0. 0. 9.99999978e-003
      1.99999996e-002 0. 9.99999978e-003 0. 0. 9.99999978e-003
      1.99999996e-002 0. 0. 0. 1.99999996e-002 1.99999996e-002
      1.99999996e-002 1.99999996e-002 9.99999978e-003 0. 9.99999978e-003
      0. 1.99999996e-002 0. 9.99999978e-003 9.99999978e-003 0.
      9.99999978e-003 0. 9.99999978e-003 1.99999996e-002 0.</_>
    <_>
      1.99999996e-002 1.99999996e-002 9.99999978e-003 0. 9.99999978e-003
      1.99999996e-002 9.99999978e-003 0. 9.99999978e-003 1.99999996e-002
      9.99999978e-003 0. 9.99999978e-003 0. 0. 9.99999978e-003
      9.99999978e-003 9.99999978e-003 2.99999993e-002 1.99999996e-002 0.
      9.99999978e-003 9.99999978e-003 0. 1.99999996e-002 9.99999978e-003
      9.99999978e-003 0. 0. 0. 0. 9.99999978e-003 1.99999996e-002
      9.99999978e-003 1.99999996e-002 9.99999978e-003 5.99999987e-002
      1.99999996e-002 1.99999996e-002 2.99999993e-002 1.99999996e-002
      1.99999996e-002 0. 0. 0. 9.99999978e-003 2.99999993e-002 0.
      2.99999993e-002 1.99999996e-002 4.99999970e-002 4.99999970e-002
      9.99999978e-003 9.99999978e-003 0. 1.99999996e-002 3.99999991e-002
      0. 0. 0. 0. 0. 0. 9.99999978e-003 0. 0. 0. 0. 0. 0. 0.
      9.99999978e-003 0. 9.99999978e-003 0. 0. 9.99999978e-003
      2.99999993e-002 9.99999978e-003 9.99999978e-003 0. 0.
      9.99999978e-003 0. 9.99999978e-003 1.99999996e-002 1.99999996e-002
      0. 0. 9.99999978e-003 9.99999978e-003 0. 9.99999978e-003 0. 0.
      9.99999978e-003 0. 9.99999978e-003 9.99999978e-003 0.</_>
    <_>
      9.99999978e-003 0. 9.99999978e-003 0. 9.99999978e-003
      9.99999978e-003 0. 0. 9.99999978e-003 9.99999978e-003 0. 0. 0. 0.
      1.99999996e-002 0. 9.99999978e-003 9.99999978e-003 0.
      9.99999978e-003 0. 2.99999993e-002 0. 9.99999978e-003
      2.99999993e-002 0. 0. 0. 0. 0. 1.99999996e-002 1.99999996e-002
      1.99999996e-002 4.99999970e-002 0. 9.99999978e-003 4.99999970e-002
      9.99999978e-003 9.99999978e-003 2.99999993e-002 9.99999978e-003
      9.99999978e-003 2.99999993e-002 9.99999978e-003 0. 2.99999993e-002
      0. 0. 9.99999978e-003 9.99999978e-003 9.99999978e-003
      2.99999993e-002 0. 0. 0. 9.99999978e-003 1.99999996e-002
      9.99999978e-003 0. 0. 0. 0. 0. 1.99999996e-002 9.99999978e-003 0.
      0. 1.99999996e-002 1.99999996e-002 0. 0. 0. 1.99999996e-002 0.
      3.99999991e-002 9.99999978e-003 9.99999978e-003 0. 1.99999996e-002
      9.99999978e-003 9.99999978e-003 0. 9.99999978e-003 7.00000003e-002
      0. 0. 9.99999978e-003 0. 0. 0. 0. 0. 1.99999996e-002
      3.99999991e-002 0. 3.99999991e-002 1.99999996e-002 0.
      9.99999978e-003 0.</_>
    <_>
      1.99999996e-002 0. 9.99999978e-003 0. 9.99999978e-003 0. 0.
      1.99999996e-002 9.99999978e-003 1.99999996e-002 9.99999978e-003 0.
      9.99999978e-003 0. 2.99999993e-002 1.99999996e-002 9.99999978e-003
      0. 0. 2.99999993e-002 0. 9.99999978e-003 9.99999978e-003
      9.99999978e-003 1.99999996e-002 9.99999978e-003 9.99999978e-003 0.
      0. 0. 9.99999978e-003 1.99999996e-002 9.99999978e-003
      3.99999991e-002 9.99999978e-003 9.99999978e-003 2.99999993e-002
      9.99999978e-003 0. 1.99999996e-002 1.99999996e-002 2.99999993e-002
      1.99999996e-002 9.99999978e-003 0. 1.99999996e-002 0. 0.
      9.99999978e-003 9.99999978e-003 9.99999978e-003 1.99999996e-002 0.
      9.99999978e-003 0. 3.99999991e-002 9.99999978e-003 9.99999978e-003
      9.99999978e-003 0. 1.99999996e-002 0. 0. 0. 0. 9.99999978e-003 0.
      3.99999991e-002 0. 0. 0. 9.99999978e-003 9.99999978e-003
      9.99999978e-003 1.99999996e-002 0. 9.99999978e-003 0.
      9.99999978e-003 0. 0. 0. 1.99999996e-002 9.99999978e-003
      9.99999978e-003 9.99999978e-003 9.99999978e-003 9.99999978e-003
      9.99999978e-003 0. 9.99999978e-003 0. 9.99999978e-003
      2.99999993e-002 0. 9.99999978e-003 2.99999993e-002 1.99999996e-002
      0. 9.99999978e-003</_>
    <_>
      9.99999978e-003 0. 4.99999970e-002 0. 1.99999996e-002
      3.99999991e-002 9.99999978e-003 0. 0. 0. 9.99999978e-003 0.
      9.99999978e-003 0. 0. 9.99999978e-003 9.99999978e-003
      9.99999978e-003 1.99999996e-002 1.99999996e-002 1.99999996e-002 0.
      0. 9.99999978e-003 9.99999978e-003 0. 9.99999978e-003 0. 0.
      1.99999996e-002 2.99999993e-002 9.99999978e-003 0. 2.99999993e-002
      0. 9.99999978e-003 1.99999996e-002 0. 0. 9.99999978e-003
      9.99999978e-003 9.99999978e-003 2.99999993e-002 9.99999978e-003
      9.99999978e-003 0. 9.99999978e-003 1.99999996e-002 9.99999978e-003
      1.99999996e-002 2.99999993e-002 0. 0. 9.99999978e-003
      1.99999996e-002 2.99999993e-002 0. 0. 9.99999978e-003 0.
      1.99999996e-002 0. 0. 1.99999996e-002 0. 9.99999978e-003 0.
      1.99999996e-002 1.99999996e-002 0. 0. 0. 9.99999978e-003 0.
      1.99999996e-002 9.99999978e-003 9.99999978e-003 9.99999978e-003
      1.99999996e-002 0. 9.99999978e-003 0. 2.99999993e-002
      3.99999991e-002 0. 1.99999996e-002 1.99999996e-002 9.99999978e-003
      9.99999978e-003 1.99999996e-002 9.99999978e-003 0. 0. 0. 0. 0.
      9.99999978e-003 0. 9.99999978e-003 9.99999978e-003</_>
    <_>
      3.99999991e-002 9.99999978e-003 1.99999996e-002 0. 0.
      9.99999978e-003 9.99999978e-003 0. 1.99999996e-002 9.99999978e-003
      9.99999978e-003 9.99999978e-003 1.99999996e-002 0. 0.
      9.99999978e-003 0. 0. 0. 0. 0. 0. 9.99999978e-003 9.99999978e-003
      9.99999978e-003 9.99999978e-003 1.99999996e-002 9.99999978e-003
      5.99999987e-002 1.99999996e-002 0. 0. 0. 0. 0. 0. 9.99999978e-003
      9.99999978e-003 0. 9.99999978e-003 0. 1.99999996e-002 0.
      1.99999996e-002 0. 0. 9.99999978e-003 2.99999993e-002 0. 0.
      9.99999978e-003 9.99999978e-003 3.99999991e-002 1.99999996e-002
      9.99999978e-003 9.99999978e-003 9.99999978e-003 0. 9.99999978e-003
      9.99999978e-003 0. 0. 9.99999978e-003 0. 3.99999991e-002 0.
      9.99999978e-003 0. 0. 0. 3.99999991e-002 1.99999996e-002 0.
      9.99999978e-003 3.99999991e-002 0. 0. 1.99999996e-002
      9.99999978e-003 0. 0. 5.99999987e-002 0. 9.99999978e-003
      9.99999978e-003 9.99999978e-003 9.99999978e-003 1.99999996e-002
      1.99999996e-002 0. 1.99999996e-002 0. 0. 9.99999978e-003
      1.99999996e-002 0. 0. 1.99999996e-002 0. 2.99999993e-002</_>
    <_>
      1.99999996e-002 1.99999996e-002 0. 9.99999978e-003 1.99999996e-002
      9.99999978e-003 1.99999996e-002 0. 1.99999996e-002 0.
      9.99999978e-003 9.99999978e-003 1.99999996e-002 0. 0. 0. 0.
      9.99999978e-003 9.99999978e-003 9.99999978e-003 9.99999978e-003
      1.99999996e-002 9.99999978e-003 0. 1.99999996e-002 9.99999978e-003
      0. 1.99999996e-002 9.99999978e-003 9.99999978e-003 9.99999978e-003
      9.99999978e-003 1.99999996e-002 9.99999978e-003 9.99999978e-003 0.
      9.99999978e-003 0. 9.99999978e-003 0. 0. 9.99999978e-003 0. 0. 0.
      9.99999978e-003 0. 0. 9.99999978e-003 1.99999996e-002
      2.99999993e-002 9.99999978e-003 2.99999993e-002 9.99999978e-003
      9.99999978e-003 0. 3.99999991e-002 9.99999978e-003 0.
      1.99999996e-002 2.99999993e-002 0. 0. 0. 0. 9.99999978e-003
      9.99999978e-003 9.99999978e-003 1.99999996e-002 9.99999978e-003
      9.99999978e-003 1.99999996e-002 0. 1.99999996e-002 9.99999978e-003
      0. 1.99999996e-002 2.99999993e-002 1.99999996e-002 0.
      9.99999978e-003 0. 0. 0. 2.99999993e-002 9.99999978e-003 0.
      9.99999978e-003 0. 0. 0. 0. 3.99999991e-002 1.99999996e-002
      9.99999978e-003 0. 1.99999996e-002 2.99999993e-002 0.
      9.99999978e-003</_>
    <_>
      9.99999978e-003 9.99999978e-003 9.99999978e-003 0. 0.
      9.99999978e-003 0. 9.99999978e-003 9.99999978e-003 9.99999978e-003
      0. 9.99999978e-003 9.99999978e-003 9.99999978e-003 9.99999978e-003
      9.99999978e-003 1.99999996e-002 1.99999996e-002 0. 0. 0.
      9.99999978e-003 0. 1.99999996e-002 9.99999978e-003 0.
      9.99999978e-003 0. 9.99999978e-003 2.99999993e-002 0. 0. 0.
      9.99999978e-003 1.99999996e-002 9.99999978e-003 9.99999978e-003
      1.99999996e-002 9.99999978e-003 9.99999978e-003 9.99999978e-003
      9.99999978e-003 1.99999996e-002 1.99999996e-002 1.99999996e-002 0.
      0. 9.99999978e-003 1.99999996e-002 0. 9.99999978e-003
      9.99999978e-003 0. 9.99999978e-003 9.99999978e-003 0.
      9.99999978e-003 1.99999996e-002 9.99999978e-003 9.99999978e-003
      1.99999996e-002 0. 2.99999993e-002 9.99999978e-003 9.99999978e-003
      0. 0. 9.99999978e-003 0. 0. 0. 0. 9.99999978e-003 9.99999978e-003
      9.99999978e-003 4.99999970e-002 1.99999996e-002 9.99999978e-003 0.
      9.99999978e-003 9.99999978e-003 9.99999978e-003 9.99999978e-003
      1.99999996e-002 4.99999970e-002 0. 2.99999993e-002 0.
      9.99999978e-003 9.99999978e-003 9.99999978e-003 9.99999978e-003 0.
      1.99999996e-002 9.99999978e-003 0. 0. 2.99999993e-002 0.
      2.99999993e-002</_>
    <_>
      0. 9.99999978e-003 9.99999978e-003 9.99999978e-003 9.99999978e-003
      9.99999978e-003 9.99999978e-003 9.99999978e-003 0. 9.99999978e-003
      0. 9.99999978e-003 9.99999978e-003 0. 9.99999978e-003 0.
      9.99999978e-003 1.99999996e-002 0. 9.99999978e-003 1.99999996e-002
      1.99999996e-002 9.99999978e-003 9.99999978e-003 1.99999996e-002
      1.99999996e-002 9.99999978e-003 0. 0. 9.99999978e-003
      1.99999996e-002 1.99999996e-002 9.99999978e-003 1.99999996e-002
      2.99999993e-002 1.99999996e-002 2.99999993e-002 9.99999978e-003 0.
      1.99999996e-002 0. 9.99999978e-003 9.99999978e-003 0. 0. 0. 0. 0.
      9.99999978e-003 1.99999996e-002 9.99999978e-003 0. 9.99999978e-003
      0. 9.99999978e-003 0. 1.99999996e-002 0. 9.99999978e-003
      9.99999978e-003 2.99999993e-002 0. 0. 1.99999996e-002 0. 0. 0.
      9.99999978e-003 9.99999978e-003 9.99999978e-003 0. 9.99999978e-003
      2.99999993e-002 9.99999978e-003 1.99999996e-002 2.99999993e-002 0.
      9.99999978e-003 9.99999978e-003 9.99999978e-003 1.99999996e-002
      9.99999978e-003 2.99999993e-002 2.99999993e-002 9.99999978e-003
      9.99999978e-003 9.99999978e-003 9.99999978e-003 0. 0. 0. 0.
      9.99999978e-003 9.99999978e-003 0. 1.99999996e-002 1.99999996e-002
      9.99999978e-003 0. 1.99999996e-002</_>
    <_>
      9.99999978e-003 0. 9.99999978e-003 0. 0. 9.99999978e-003
      9.99999978e-003 9.99999978e-003 9.99999978e-003 9.99999978e-003 0.
      2.99999993e-002 9.99999978e-003 0. 0. 9.99999978e-003
      9.99999978e-003 0. 9.99999978e-003 9.99999978e-003 0.
      1.99999996e-002 1.99999996e-002 0. 9.99999978e-003 9.99999978e-003
      9.99999978e-003 0. 9.99999978e-003 0. 0. 2.99999993e-002
      9.99999978e-003 0. 2.99999993e-002 9.99999978e-003 0.
      1.99999996e-002 0. 9.99999978e-003 1.99999996e-002 9.99999978e-003
      1.99999996e-002 0. 1.99999996e-002 0. 9.99999978e-003 0.
      9.99999978e-003 0. 0. 2.99999993e-002 0. 1.99999996e-002
      9.99999978e-003 1.99999996e-002 9.99999978e-003 9.99999978e-003
      2.99999993e-002 9.99999978e-003 9.99999978e-003 9.99999978e-003
      2.99999993e-002 1.99999996e-002 0. 0. 9.99999978e-003 0.
      9.99999978e-003 0. 9.99999978e-003 9.99999978e-003 3.99999991e-002
      9.99999978e-003 0. 9.99999978e-003 2.99999993e-002 1.99999996e-002
      0. 9.99999978e-003 1.99999996e-002 0. 9.99999978e-003
      1.99999996e-002 0. 9.99999978e-003 1.99999996e-002 0. 0. 0. 0. 0.
      0. 1.99999996e-002 1.99999996e-002 3.99999991e-002 9.99999978e-003
      1.99999996e-002 0. 9.99999978e-003</_></support_vectors>
  <decision_functions>
    <_>
      <sv_count>41</sv_count>
      <rho>-1.0012200964858811e+000</rho>
      <alpha>
        9.4112229573901762e-001 3.0501119626428697e-001
        5.8000864771980416e-002 2.4901488970474847e-001
        9.1882636719028210e-001 8.3858639418599368e-001
        7.1478488765727294e-002 9.1783917604732479e-002
        3.9192404889134441e-001 6.7119176761461030e-001
        1.8400508343527563e-001 1.7411711711881081e-001
        1.9147999198536055e-002 1.6403242803556278e-001
        5.4598064630226895e-001 1.2066730108934344e-001
        2.6958286991149816e-001 6.2965027058323275e-001
        4.1592599227793381e-001 2.3325365627712473e-002
        3.4956018373343711e-001 4.8739919657492498e-002
        2.2390094266871143e-002 1.4691710818578082e-002
        4.4933086337132788e-001 3.0196696753561447e-001
        3.2502983432855254e-001 2.2241424635530865e-001
        1.6181577058364940e-001 5.4109396159521284e-001
        4.7959114344105730e-001 -1. -1. -1. -1. -1. -1. -1. -1. -1. -1.</alpha>
      <index>
        0 1 2 3 4 5 6 36 37 38 39 40 17 18 19 20 21 22 23 24 25 26 27 28
        29 30 31 32 33 34 35 7 8 9 10 11 12 13 14 15 16</index></_></decision_functions></opencv_ml_svm>
</opencv_storage>
